[{"name": "bm25+mmlw-retrieval-roberta-large", "type": "hybrid", "models": [{"name": "bm25"}, {"name": "sdadas/mmlw-retrieval-roberta-large", "fp16": true, "q_prefix": "zapytanie: "}], "k0": 100, "strategy": {"type": "xbgranker", "model": {"learner": {"attributes": {"scikit_learn": "{\"_estimator_type\": \"ranker\"}"}, "feature_names": [], "feature_types": [], "gradient_booster": {"model": {"gbtree_model_param": {"num_parallel_tree": "1", "num_trees": "100"}, "iteration_indptr": [0, 1, 2, 3, 4, 5, 6, 7, 8, 9, 10, 11, 12, 13, 14, 15, 16, 17, 18, 19, 20, 21, 22, 23, 24, 25, 26, 27, 28, 29, 30, 31, 32, 33, 34, 35, 36, 37, 38, 39, 40, 41, 42, 43, 44, 45, 46, 47, 48, 49, 50, 51, 52, 53, 54, 55, 56, 57, 58, 59, 60, 61, 62, 63, 64, 65, 66, 67, 68, 69, 70, 71, 72, 73, 74, 75, 76, 77, 78, 79, 80, 81, 82, 83, 84, 85, 86, 87, 88, 89, 90, 91, 92, 93, 94, 95, 96, 97, 98, 99, 100], "tree_info": [0, 0, 0, 0, 0, 0, 0, 0, 0, 0, 0, 0, 0, 0, 0, 0, 0, 0, 0, 0, 0, 0, 0, 0, 0, 0, 0, 0, 0, 0, 0, 0, 0, 0, 0, 0, 0, 0, 0, 0, 0, 0, 0, 0, 0, 0, 0, 0, 0, 0, 0, 0, 0, 0, 0, 0, 0, 0, 0, 0, 0, 0, 0, 0, 0, 0, 0, 0, 0, 0, 0, 0, 0, 0, 0, 0, 0, 0, 0, 0, 0, 0, 0, 0, 0, 0, 0, 0, 0, 0, 0, 0, 0, 0, 0, 0, 0, 0, 0, 0], "trees": [{"base_weights": [-0.00031266638, -0.77269626, 0.44401455, -0.9136137, -0.34149668, 0.8100792, 0.29309875, -0.5188657, -0.9352763, 0.20701519, -0.7068241, 0.41462812, 0.89324325, -0.13691704, 0.53813756, -0.84854656, -0.0837309, -0.95120966, -0.87885916, 0.6749816, -0.04671742, -0.48952907, -0.82562333, 0.67677426, -0.18308567, 0.76351297, 0.936976, 0.09037262, -0.53241074, 0.7568419, 0.30879647, -0.8724084, -0.31949866, 0.6770346, -0.20590337, -0.85149366, -0.9627877, -0.79639584, -0.9079088, 0.35037783, 0.8008389, -0.40381086, 0.10214075, 0.13849917, -0.5564233, -0.2886248, -0.8448051, 0.8757985, 0.43730974, 0.08084992, -0.47704276, 0.85185575, 0.26563844, 0.8956004, 0.9569504, -0.2055578, 0.3136766, -0.73560286, -0.3179963, 0.58448255, 0.8572243, 0.014177311, 0.5037512, -0.06500489, -0.09151606, 0.03761851, -0.049535286, 0.0758936, 0.023982711, 0.014624909, -0.0373956, -0.089153685, -0.046657577, -0.097896986, -0.09426433, -0.057897307, -0.08114042, -0.09267693, -0.080590956, 0.061529428, -0.016194267, 0.09120711, 0.07082732, -0.007310599, -0.063436545, 0.041148644, -0.009648055, -0.036901817, 0.04891026, -0.072923064, -0.034010787, 0.016273743, -0.067205705, -0.09448942, -0.07822468, 0.09248637, 0.076840885, 0.06538611, 0.028873611, 0.031482685, -0.018910214, 0.0067203045, -0.06004824, 0.089691415, 0.06823011, 0.052913852, -0.006771511, 0.092724524, 0.06436259, 0.09739425, 0.0940511, -0.0011582522, -0.04748057, 0.056088425, 0.006488775, -0.08916693, -0.066587605, 0.004436469, -0.046167295, 0.07050036, 0.02549851, 0.079725176, 0.090376936, 0.01856754, -0.023702493, 0.06473925, 0.029436467], "categories": [], "categories_nodes": [], "categories_segments": [], "categories_sizes": [], "default_left": [0, 0, 0, 0, 0, 0, 0, 0, 0, 0, 0, 0, 0, 0, 0, 0, 0, 0, 0, 0, 0, 0, 0, 0, 0, 0, 0, 0, 0, 0, 0, 0, 0, 0, 0, 0, 0, 0, 0, 0, 0, 0, 0, 0, 0, 0, 0, 0, 0, 0, 0, 0, 0, 0, 0, 0, 0, 0, 0, 0, 0, 0, 0, 0, 0, 0, 0, 0, 0, 0, 0, 0, 0, 0, 0, 0, 0, 0, 0, 0, 0, 0, 0, 0, 0, 0, 0, 0, 0, 0, 0, 0, 0, 0, 0, 0, 0, 0, 0, 0, 0, 0, 0, 0, 0, 0, 0, 0, 0, 0, 0, 0, 0, 0, 0, 0, 0, 0, 0, 0, 0, 0, 0, 0, 0, 0, 0], "id": 0, "left_children": [1, 3, 5, 7, 9, 11, 13, 15, 17, 19, 21, 23, 25, 27, 29, 31, 33, 35, 37, 39, 41, 43, 45, 47, 49, 51, 53, 55, 57, 59, 61, 63, 65, 67, 69, 71, 73, 75, 77, 79, 81, 83, 85, 87, 89, 91, 93, 95, 97, 99, 101, 103, 105, 107, 109, 111, 113, 115, 117, 119, 121, 123, 125, -1, -1, -1, -1, -1, -1, -1, -1, -1, -1, -1, -1, -1, -1, -1, -1, -1, -1, -1, -1, -1, -1, -1, -1, -1, -1, -1, -1, -1, -1, -1, -1, -1, -1, -1, -1, -1, -1, -1, -1, -1, -1, -1, -1, -1, -1, -1, -1, -1, -1, -1, -1, -1, -1, -1, -1, -1, -1, -1, -1, -1, -1, -1, -1], "loss_changes": [61386.47, 3968.8164, 6272.758, 420.5039, 3224.507, 1089.7246, 8472.227, 367.65814, 41.117188, 763.9219, 248.91992, 902.8625, 154.6582, 2623.6719, 2568.749, 18.13086, 102.94284, 41.179688, 23.92871, 92.12622, 221.83557, 143.60437, 64.0625, 190.49731, 136.37674, 303.69336, 16.066406, 1224.9373, 463.84497, 453.0869, 1436.0818, 12.664307, 8.078806, 5.3066483, 56.500195, 58.050293, 9.699219, 8.3046875, 13.879395, 86.11269, 16.128296, 93.568634, 181.03047, 58.84049, 115.17352, 37.635174, 36.99951, 10.808838, 58.36316, 58.596394, 55.901276, 44.219727, 91.630806, 52.68799, 2.9384766, 416.355, 649.70435, 58.91333, 269.9472, 383.1145, 45.520508, 429.01672, 452.34888, 0.0, 0.0, 0.0, 0.0, 0.0, 0.0, 0.0, 0.0, 0.0, 0.0, 0.0, 0.0, 0.0, 0.0, 0.0, 0.0, 0.0, 0.0, 0.0, 0.0, 0.0, 0.0, 0.0, 0.0, 0.0, 0.0, 0.0, 0.0, 0.0, 0.0, 0.0, 0.0, 0.0, 0.0, 0.0, 0.0, 0.0, 0.0, 0.0, 0.0, 0.0, 0.0, 0.0, 0.0, 0.0, 0.0, 0.0, 0.0, 0.0, 0.0, 0.0, 0.0, 0.0, 0.0, 0.0, 0.0, 0.0, 0.0, 0.0, 0.0, 0.0, 0.0, 0.0, 0.0], "parents": [2147483647, 0, 0, 1, 1, 2, 2, 3, 3, 4, 4, 5, 5, 6, 6, 7, 7, 8, 8, 9, 9, 10, 10, 11, 11, 12, 12, 13, 13, 14, 14, 15, 15, 16, 16, 17, 17, 18, 18, 19, 19, 20, 20, 21, 21, 22, 22, 23, 23, 24, 24, 25, 25, 26, 26, 27, 27, 28, 28, 29, 29, 30, 30, 31, 31, 32, 32, 33, 33, 34, 34, 35, 35, 36, 36, 37, 37, 38, 38, 39, 39, 40, 40, 41, 41, 42, 42, 43, 43, 44, 44, 45, 45, 46, 46, 47, 47, 48, 48, 49, 49, 50, 50, 51, 51, 52, 52, 53, 53, 54, 54, 55, 55, 56, 56, 57, 57, 58, 58, 59, 59, 60, 60, 61, 61, 62, 62], "right_children": [2, 4, 6, 8, 10, 12, 14, 16, 18, 20, 22, 24, 26, 28, 30, 32, 34, 36, 38, 40, 42, 44, 46, 48, 50, 52, 54, 56, 58, 60, 62, 64, 66, 68, 70, 72, 74, 76, 78, 80, 82, 84, 86, 88, 90, 92, 94, 96, 98, 100, 102, 104, 106, 108, 110, 112, 114, 116, 118, 120, 122, 124, 126, -1, -1, -1, -1, -1, -1, -1, -1, -1, -1, -1, -1, -1, -1, -1, -1, -1, -1, -1, -1, -1, -1, -1, -1, -1, -1, -1, -1, -1, -1, -1, -1, -1, -1, -1, -1, -1, -1, -1, -1, -1, -1, -1, -1, -1, -1, -1, -1, -1, -1, -1, -1, -1, -1, -1, -1, -1, -1, -1, -1, -1, -1, -1, -1], "split_conditions": [0.7944729, 0.7583824, 0.78391457, 0.802536, 0.8358557, 0.8110865, 0.8450909, 0.7264882, 0.82448614, 0.74799997, 0.85610974, 0.8532913, 0.8316354, 0.8819125, 0.83208346, 0.76533365, 0.7142894, 0.82559335, 0.89033175, 0.7694299, 0.77228403, 0.74208444, 0.73555076, 0.76078755, 0.872764, 0.8685851, 0.85073733, 0.82055306, 0.828679, 0.8645044, 0.87370634, 0.77082276, 0.76589596, 0.79059106, 0.77952045, 0.7510636, 0.78296447, 0.8633426, 0.872262, 0.73882, 0.802536, 0.8116494, 0.76479, 0.77367985, 0.7832266, 0.8693845, 0.7770083, 0.8311399, 0.82855326, 0.77160466, 0.7560624, 0.8523883, 0.76934534, 0.8801912, 0.7594983, 0.8604517, 0.8093556, 0.8096361, 0.8140803, 0.89068806, 0.88216925, 0.9015677, 0.8624511, -0.06500489, -0.09151606, 0.03761851, -0.049535286, 0.0758936, 0.023982711, 0.014624909, -0.0373956, -0.089153685, -0.046657577, -0.097896986, -0.09426433, -0.057897307, -0.08114042, -0.09267693, -0.080590956, 0.061529428, -0.016194267, 0.09120711, 0.07082732, -0.007310599, -0.063436545, 0.041148644, -0.009648055, -0.036901817, 0.04891026, -0.072923064, -0.034010787, 0.016273743, -0.067205705, -0.09448942, -0.07822468, 0.09248637, 0.076840885, 0.06538611, 0.028873611, 0.031482685, -0.018910214, 0.0067203045, -0.06004824, 0.089691415, 0.06823011, 0.052913852, -0.006771511, 0.092724524, 0.06436259, 0.09739425, 0.0940511, -0.0011582522, -0.04748057, 0.056088425, 0.006488775, -0.08916693, -0.066587605, 0.004436469, -0.046167295, 0.07050036, 0.02549851, 0.079725176, 0.090376936, 0.01856754, -0.023702493, 0.06473925, 0.029436467], "split_indices": [4, 4, 7, 6, 6, 4, 4, 4, 7, 7, 6, 6, 4, 6, 7, 7, 7, 6, 6, 4, 4, 7, 7, 7, 6, 6, 4, 4, 4, 4, 4, 6, 7, 6, 6, 4, 7, 6, 7, 7, 6, 6, 7, 4, 4, 6, 4, 6, 6, 7, 7, 6, 7, 6, 7, 6, 7, 4, 7, 6, 4, 6, 7, 0, 0, 0, 0, 0, 0, 0, 0, 0, 0, 0, 0, 0, 0, 0, 0, 0, 0, 0, 0, 0, 0, 0, 0, 0, 0, 0, 0, 0, 0, 0, 0, 0, 0, 0, 0, 0, 0, 0, 0, 0, 0, 0, 0, 0, 0, 0, 0, 0, 0, 0, 0, 0, 0, 0, 0, 0, 0, 0, 0, 0, 0, 0, 0], "split_type": [0, 0, 0, 0, 0, 0, 0, 0, 0, 0, 0, 0, 0, 0, 0, 0, 0, 0, 0, 0, 0, 0, 0, 0, 0, 0, 0, 0, 0, 0, 0, 0, 0, 0, 0, 0, 0, 0, 0, 0, 0, 0, 0, 0, 0, 0, 0, 0, 0, 0, 0, 0, 0, 0, 0, 0, 0, 0, 0, 0, 0, 0, 0, 0, 0, 0, 0, 0, 0, 0, 0, 0, 0, 0, 0, 0, 0, 0, 0, 0, 0, 0, 0, 0, 0, 0, 0, 0, 0, 0, 0, 0, 0, 0, 0, 0, 0, 0, 0, 0, 0, 0, 0, 0, 0, 0, 0, 0, 0, 0, 0, 0, 0, 0, 0, 0, 0, 0, 0, 0, 0, 0, 0, 0, 0, 0, 0], "sum_hessian": [178867.67, 65319.918, 113547.76, 49230.203, 16089.714, 33145.336, 80402.42, 2562.366, 46667.836, 6432.3916, 9657.322, 5760.364, 27384.973, 29185.521, 51216.9, 1457.2938, 1105.072, 36378.098, 10289.739, 2260.8958, 4171.496, 3415.382, 6241.94, 4004.1055, 1756.2582, 6908.8345, 20476.139, 18534.527, 10650.995, 26215.22, 25001.678, 1393.7806, 63.5131, 152.28082, 952.79126, 3792.2156, 32585.883, 2687.9268, 7601.8125, 632.7437, 1628.152, 1226.8097, 2944.6863, 328.6667, 3086.7153, 215.8284, 6026.1113, 2185.2434, 1818.8619, 925.76526, 830.4929, 5867.071, 1041.7635, 6681.5586, 13794.58, 7971.065, 10563.462, 5467.3613, 5183.634, 9651.004, 16564.219, 9956.422, 15045.256, 227.37592, 1166.4048, 12.585468, 50.92763, 127.63524, 24.645584, 307.84183, 644.9494, 3433.6912, 358.5244, 18043.668, 14542.215, 176.11887, 2511.8079, 6408.702, 1193.1104, 416.94443, 215.7993, 735.491, 892.661, 504.49084, 722.3188, 1150.9893, 1793.6971, 134.26228, 194.4044, 1714.6039, 1372.1116, 99.39723, 116.43117, 2312.373, 3713.7383, 1494.7139, 690.52954, 738.73254, 1080.1294, 495.83844, 429.92682, 153.62321, 676.86975, 4631.88, 1235.1908, 581.51575, 460.24777, 5933.6807, 747.8778, 6754.6396, 7039.94, 4633.778, 3337.2869, 5297.939, 5265.5225, 1684.7253, 3782.636, 1471.9589, 3711.6748, 7065.5005, 2585.5032, 7245.9946, 9318.224, 5917.0547, 4039.3672, 8922.345, 6122.9116], "tree_param": {"num_deleted": "0", "num_feature": "8", "num_nodes": "127", "size_leaf_vector": "1"}}, {"base_weights": [-0.00013891292, -0.82937956, 0.09178788, -0.8469964, -0.29612777, -0.017668324, 0.32628706, -0.8758886, -0.7389872, -0.4424048, 0.1705812, 0.06883132, -0.039859492, 0.38892528, 0.26191893, -0.78455824, -0.89695406, -0.48281828, -0.83379203, 0.41981348, -0.53279793, 0.44510382, -0.21718945, 0.10347829, -0.0026568074, 0.014965749, -0.054470316, 0.26678878, 0.4181984, 0.2915402, 0.19056661, -0.83416843, -0.39454108, -0.91073704, -0.8554384, 0.102452986, -0.52665555, -0.8689781, -0.73951834, 0.8372404, 0.1838499, -0.3265364, -0.66927063, 0.48604867, -0.078336746, -0.09023592, -0.007901197, 0.1405744, 0.07677984, -0.13940595, 0.04184336, 0.053806968, -0.01355523, -0.043787826, -0.11674498, 0.30862203, 0.10931083, 0.49635547, 0.38942665, 0.27481306, 0.34544846, 0.3509016, 0.18069234, -0.08644712, -0.071816124, -0.010879804, -0.05739225, -0.091428876, -0.08970386, -0.063925326, -0.087866716, 0.0025987667, 0.073847465, -0.061789986, -0.024944613, -0.08819616, -0.0671183, -0.061283614, -0.08501633, 0.04714426, 0.10055585, 0.05573837, -0.046321716, 0.07464299, -0.035677493, -0.091167904, -0.058735248, 0.054552484, -0.026081437, 0.016389647, -0.08856112, 0.008869319, 0.01561542, 0.004878988, 0.015240139, -0.00768, -0.021678075, 0.005453473, -0.01721239, -0.0035578476, 0.0069673094, 5.187359e-05, -0.009215481, -0.0068446337, -0.0027973724, -0.011029049, -0.0348739, 0.042143613, 0.027201552, 0.024705077, 0.0032419476, 0.052548148, 0.04032834, 0.031866882, 0.04450115, 0.030401064, 0.01600547, 0.048775777, 0.028508771, 0.02618294, 0.06107818, 0.017383149, 0.041581716], "categories": [], "categories_nodes": [], "categories_segments": [], "categories_sizes": [], "default_left": [0, 0, 0, 0, 0, 0, 0, 0, 0, 0, 0, 0, 0, 0, 0, 0, 0, 0, 0, 0, 0, 0, 0, 0, 0, 0, 0, 0, 0, 0, 0, 0, 0, 0, 0, 0, 0, 0, 0, 0, 0, 0, 0, 0, 0, 0, 0, 0, 0, 0, 0, 0, 0, 0, 0, 0, 0, 0, 0, 0, 0, 0, 0, 0, 0, 0, 0, 0, 0, 0, 0, 0, 0, 0, 0, 0, 0, 0, 0, 0, 0, 0, 0, 0, 0, 0, 0, 0, 0, 0, 0, 0, 0, 0, 0, 0, 0, 0, 0, 0, 0, 0, 0, 0, 0, 0, 0, 0, 0, 0, 0, 0, 0, 0, 0, 0, 0, 0, 0, 0, 0, 0, 0], "id": 1, "left_children": [1, 3, 5, 7, 9, 11, 13, 15, 17, 19, 21, 23, 25, 27, 29, 31, 33, 35, 37, 39, 41, 43, 45, 47, 49, 51, 53, 55, 57, 59, 61, 63, 65, 67, 69, 71, 73, 75, 77, 79, 81, 83, 85, 87, -1, -1, 89, 91, 93, 95, 97, 99, 101, 103, 105, 107, 109, 111, 113, 115, 117, 119, 121, -1, -1, -1, -1, -1, -1, -1, -1, -1, -1, -1, -1, -1, -1, -1, -1, -1, -1, -1, -1, -1, -1, -1, -1, -1, -1, -1, -1, -1, -1, -1, -1, -1, -1, -1, -1, -1, -1, -1, -1, -1, -1, -1, -1, -1, -1, -1, -1, -1, -1, -1, -1, -1, -1, -1, -1, -1, -1, -1, -1], "loss_changes": [28298.432, 347.77148, 8577.56, 111.25781, 81.06164, 437.34076, 428.67383, 53.720703, 183.55469, 70.639496, 30.308216, 115.21625, 145.24567, 192.58057, 110.80347, 102.40625, 12.369141, 52.60968, 17.69165, 8.345445, 22.812683, 8.755371, 16.958294, 31.020721, 92.41899, 42.26773, 95.23627, 68.62891, 97.56592, 33.325928, 24.301758, 15.93457, 30.746582, 0.017578125, 28.281738, 6.9633503, 48.05194, 9.729736, 20.629578, 1.4273033, 13.89232, 10.899994, 9.223419, 7.326935, 0.0, 0.0, 13.962853, 10.584106, 38.56118, 18.04573, 31.12518, 22.913017, 24.337395, 47.65242, 31.35022, 33.891846, 23.177378, 31.488281, 124.85303, 94.744385, 75.21948, 20.482307, 23.3172, 0.0, 0.0, 0.0, 0.0, 0.0, 0.0, 0.0, 0.0, 0.0, 0.0, 0.0, 0.0, 0.0, 0.0, 0.0, 0.0, 0.0, 0.0, 0.0, 0.0, 0.0, 0.0, 0.0, 0.0, 0.0, 0.0, 0.0, 0.0, 0.0, 0.0, 0.0, 0.0, 0.0, 0.0, 0.0, 0.0, 0.0, 0.0, 0.0, 0.0, 0.0, 0.0, 0.0, 0.0, 0.0, 0.0, 0.0, 0.0, 0.0, 0.0, 0.0, 0.0, 0.0, 0.0, 0.0, 0.0, 0.0, 0.0, 0.0, 0.0], "parents": [2147483647, 0, 0, 1, 1, 2, 2, 3, 3, 4, 4, 5, 5, 6, 6, 7, 7, 8, 8, 9, 9, 10, 10, 11, 11, 12, 12, 13, 13, 14, 14, 15, 15, 16, 16, 17, 17, 18, 18, 19, 19, 20, 20, 21, 21, 22, 22, 23, 23, 24, 24, 25, 25, 26, 26, 27, 27, 28, 28, 29, 29, 30, 30, 31, 31, 32, 32, 33, 33, 34, 34, 35, 35, 36, 36, 37, 37, 38, 38, 39, 39, 40, 40, 41, 41, 42, 42, 43, 43, 46, 46, 47, 47, 48, 48, 49, 49, 50, 50, 51, 51, 52, 52, 53, 53, 54, 54, 55, 55, 56, 56, 57, 57, 58, 58, 59, 59, 60, 60, 61, 61, 62, 62], "right_children": [2, 4, 6, 8, 10, 12, 14, 16, 18, 20, 22, 24, 26, 28, 30, 32, 34, 36, 38, 40, 42, 44, 46, 48, 50, 52, 54, 56, 58, 60, 62, 64, 66, 68, 70, 72, 74, 76, 78, 80, 82, 84, 86, 88, -1, -1, 90, 92, 94, 96, 98, 100, 102, 104, 106, 108, 110, 112, 114, 116, 118, 120, 122, -1, -1, -1, -1, -1, -1, -1, -1, -1, -1, -1, -1, -1, -1, -1, -1, -1, -1, -1, -1, -1, -1, -1, -1, -1, -1, -1, -1, -1, -1, -1, -1, -1, -1, -1, -1, -1, -1, -1, -1, -1, -1, -1, -1, -1, -1, -1, -1, -1, -1, -1, -1, -1, -1, -1, -1, -1, -1, -1, -1], "split_conditions": [1.0, 0.85035294, 4.5858, 0.8084935, 0.872262, 0.75753415, 0.7982795, 0.8358557, 0.88224816, 0.88754416, 0.92234206, 14.8065, 11.3762, 9.8114, 0.8385575, 0.7746688, 0.7902992, 0.8519755, 0.8349784, 0.88050735, 0.90571135, 21.7278, 12.575961, 10.709, 10.1347, 0.7973526, 23.1273, 13.1255, 8.6476965, 17.855497, 6.7785983, 0.75753415, 0.82559335, 0.77865094, 0.85280955, 0.82350045, 0.82814896, 20.7496, 0.9035211, 12.5197, 14.5323, 7.8122, 0.9126711, 0.89076734, -0.078336746, -0.09023592, 25.9442, 0.8084156, 9.697, 8.1572, 26.2264, 0.82855326, 0.9150529, 10.4437, 38.4607, 10.0757, 7.4556, 15.5849, 14.7569, 18.326, 15.3226, 8.7739, 30.2337, -0.08644712, -0.071816124, -0.010879804, -0.05739225, -0.091428876, -0.08970386, -0.063925326, -0.087866716, 0.0025987667, 0.073847465, -0.061789986, -0.024944613, -0.08819616, -0.0671183, -0.061283614, -0.08501633, 0.04714426, 0.10055585, 0.05573837, -0.046321716, 0.07464299, -0.035677493, -0.091167904, -0.058735248, 0.054552484, -0.026081437, 0.016389647, -0.08856112, 0.008869319, 0.01561542, 0.004878988, 0.015240139, -0.00768, -0.021678075, 0.005453473, -0.01721239, -0.0035578476, 0.0069673094, 5.187359e-05, -0.009215481, -0.0068446337, -0.0027973724, -0.011029049, -0.0348739, 0.042143613, 0.027201552, 0.024705077, 0.0032419476, 0.052548148, 0.04032834, 0.031866882, 0.04450115, 0.030401064, 0.01600547, 0.048775777, 0.028508771, 0.02618294, 0.06107818, 0.017383149, 0.041581716], "split_indices": [5, 7, 0, 7, 7, 7, 7, 6, 6, 6, 6, 2, 2, 0, 7, 7, 7, 6, 7, 6, 6, 0, 3, 2, 3, 7, 2, 2, 3, 0, 3, 7, 6, 7, 6, 7, 7, 0, 6, 3, 2, 2, 6, 7, 0, 0, 2, 6, 3, 3, 2, 6, 6, 3, 2, 2, 3, 2, 0, 2, 3, 0, 0, 0, 0, 0, 0, 0, 0, 0, 0, 0, 0, 0, 0, 0, 0, 0, 0, 0, 0, 0, 0, 0, 0, 0, 0, 0, 0, 0, 0, 0, 0, 0, 0, 0, 0, 0, 0, 0, 0, 0, 0, 0, 0, 0, 0, 0, 0, 0, 0, 0, 0, 0, 0, 0, 0, 0, 0, 0, 0, 0, 0], "split_type": [0, 0, 0, 0, 0, 0, 0, 0, 0, 0, 0, 0, 0, 0, 0, 0, 0, 0, 0, 0, 0, 0, 0, 0, 0, 0, 0, 0, 0, 0, 0, 0, 0, 0, 0, 0, 0, 0, 0, 0, 0, 0, 0, 0, 0, 0, 0, 0, 0, 0, 0, 0, 0, 0, 0, 0, 0, 0, 0, 0, 0, 0, 0, 0, 0, 0, 0, 0, 0, 0, 0, 0, 0, 0, 0, 0, 0, 0, 0, 0, 0, 0, 0, 0, 0, 0, 0, 0, 0, 0, 0, 0, 0, 0, 0, 0, 0, 0, 0, 0, 0, 0, 0, 0, 0, 0, 0, 0, 0, 0, 0, 0, 0, 0, 0, 0, 0, 0, 0, 0, 0, 0, 0], "sum_hessian": [371225.1, 37045.164, 334179.94, 35859.88, 1185.2833, 227835.17, 106344.76, 28286.275, 7573.605, 902.4784, 282.8049, 46516.188, 181318.98, 53894.062, 52450.695, 5308.6445, 22977.629, 2047.423, 5526.182, 85.2902, 817.18823, 165.49483, 117.310074, 31331.043, 15185.1455, 38153.36, 143165.64, 10421.687, 43472.375, 37061.758, 15388.936, 4708.575, 600.0696, 17234.83, 5742.7993, 142.57443, 1904.8485, 4018.2283, 1507.954, 29.88122, 55.408978, 326.74554, 490.4427, 160.74167, 4.7531605, 26.67375, 90.63632, 13110.465, 18220.578, 3727.7195, 11457.426, 16153.656, 21999.701, 122204.57, 20961.06, 8233.53, 2188.157, 11692.911, 31779.465, 28289.83, 8771.929, 890.7466, 14498.188, 3728.251, 980.32416, 232.04437, 368.0252, 13634.096, 3600.7354, 559.9529, 5182.846, 128.20226, 14.372181, 1432.2051, 472.6435, 3767.4685, 250.75966, 706.076, 801.87805, 10.614383, 19.266838, 35.2175, 20.191483, 8.306814, 318.43872, 121.317215, 369.12546, 149.13493, 11.606729, 76.47988, 14.156444, 3029.347, 10081.118, 13299.61, 4920.9683, 2061.6099, 1666.1095, 10816.59, 640.836, 2434.8916, 13718.765, 18659.535, 3340.1653, 47748.41, 74456.164, 20395.107, 565.954, 2014.5549, 6218.975, 783.11127, 1405.0457, 8902.36, 2790.5513, 13984.427, 17795.037, 22550.686, 5739.1455, 2610.414, 6161.514, 664.8732, 225.87335, 14088.821, 409.36743], "tree_param": {"num_deleted": "0", "num_feature": "8", "num_nodes": "123", "size_leaf_vector": "1"}}, {"base_weights": [2.6190159e-05, -0.51945966, 0.17933589, -0.15927482, -0.6704907, 0.4079267, 0.064177014, -0.62356585, 0.00663433, -0.7853403, -0.46978143, 0.22977889, 0.5267816, -0.1562283, 0.23043954, -0.371585, -0.73154, -0.14842945, 0.22133222, -0.7972643, -0.2188179, -0.25950783, -0.612459, 0.5440129, 0.049027182, 0.46472025, 0.62629455, -0.03559819, -0.3550895, 0.37068057, 0.062072515, -0.59427214, -0.20179586, -0.7607371, -0.124195896, 0.26560968, -0.26904047, 0.33737713, -0.1828043, -0.82110083, -0.6824133, -0.375809, 0.048436668, -0.07794865, -0.39002258, -0.31128335, -0.6856144, 0.6174962, 0.38415477, 0.1687448, -0.15639488, 0.6171115, 0.1904888, 0.714403, 0.58760715, -0.19862327, 0.10173401, -0.56762284, -0.2484753, 0.2952989, 0.52773714, -0.04881451, 0.29473636, -0.06146432, 0.06915388, -0.03169088, 0.039697617, -0.07980259, -0.053784575, 0.028544096, -0.025353117, 0.054406065, 0.011542814, -0.01867711, -0.04531375, 0.06091241, 0.021978473, -0.023997335, 0.009320979, -0.07124808, -0.08459487, -0.04755506, -0.07653616, 0.0033453198, -0.047613863, 0.03718574, -0.010597638, -0.034343313, 0.0031663745, -0.044174742, -0.024256496, -0.023160288, -0.04960522, -0.060447127, -0.08021629, 0.0636414, 0.037252072, 0.026845837, 0.058414068, -0.00047017794, 0.026668463, -0.03696435, -0.006452497, 0.054923553, 0.06808599, 0.025155097, -0.015267678, 0.06934159, 0.075256266, 0.03485549, 0.06629969, -0.0074297646, -0.03488863, 0.0388683, 0.0021607603, -0.072170764, -0.047706757, -0.009012924, -0.03400824, 0.043683924, 0.008256974, 0.067548886, 0.049205497, 0.0068294094, -0.022797113, 0.03751156, 0.0030408436], "categories": [], "categories_nodes": [], "categories_segments": [], "categories_sizes": [], "default_left": [0, 0, 0, 0, 0, 0, 0, 0, 0, 0, 0, 0, 0, 0, 0, 0, 0, 0, 0, 0, 0, 0, 0, 0, 0, 0, 0, 0, 0, 0, 0, 0, 0, 0, 0, 0, 0, 0, 0, 0, 0, 0, 0, 0, 0, 0, 0, 0, 0, 0, 0, 0, 0, 0, 0, 0, 0, 0, 0, 0, 0, 0, 0, 0, 0, 0, 0, 0, 0, 0, 0, 0, 0, 0, 0, 0, 0, 0, 0, 0, 0, 0, 0, 0, 0, 0, 0, 0, 0, 0, 0, 0, 0, 0, 0, 0, 0, 0, 0, 0, 0, 0, 0, 0, 0, 0, 0, 0, 0, 0, 0, 0, 0, 0, 0, 0, 0, 0, 0, 0, 0, 0, 0, 0, 0, 0, 0], "id": 2, "left_children": [1, 3, 5, 7, 9, 11, 13, 15, 17, 19, 21, 23, 25, 27, 29, 31, 33, 35, 37, 39, 41, 43, 45, 47, 49, 51, 53, 55, 57, 59, 61, 63, 65, 67, 69, 71, 73, 75, 77, 79, 81, 83, 85, 87, 89, 91, 93, 95, 97, 99, 101, 103, 105, 107, 109, 111, 113, 115, 117, 119, 121, 123, 125, -1, -1, -1, -1, -1, -1, -1, -1, -1, -1, -1, -1, -1, -1, -1, -1, -1, -1, -1, -1, -1, -1, -1, -1, -1, -1, -1, -1, -1, -1, -1, -1, -1, -1, -1, -1, -1, -1, -1, -1, -1, -1, -1, -1, -1, -1, -1, -1, -1, -1, -1, -1, -1, -1, -1, -1, -1, -1, -1, -1, -1, -1, -1, -1], "loss_changes": [33683.66, 5047.5176, 7076.5234, 2111.7358, 1506.625, 1906.7314, 6550.9385, 196.09033, 672.46625, 280.70508, 713.76074, 2047.0454, 333.31445, 1843.9412, 2406.0156, 81.812256, 89.47803, 585.7611, 397.3213, 110.92383, 36.038013, 227.9544, 312.12305, 154.36182, 562.7357, 1390.3745, 70.29541, 1071.2242, 657.4888, 658.0171, 1194.7152, 24.9664, 84.97571, 39.626465, 12.410934, 110.60069, 137.48407, 210.17645, 29.850945, 90.4043, 119.83496, 22.227097, 15.949034, 117.13979, 42.583923, 40.699646, 107.37158, 41.54004, 95.800415, 245.58276, 165.0405, 92.16846, 249.11685, 4.543457, 259.6709, 408.66895, 597.0999, 134.92578, 280.35205, 1131.0632, 94.71338, 658.008, 317.552, 0.0, 0.0, 0.0, 0.0, 0.0, 0.0, 0.0, 0.0, 0.0, 0.0, 0.0, 0.0, 0.0, 0.0, 0.0, 0.0, 0.0, 0.0, 0.0, 0.0, 0.0, 0.0, 0.0, 0.0, 0.0, 0.0, 0.0, 0.0, 0.0, 0.0, 0.0, 0.0, 0.0, 0.0, 0.0, 0.0, 0.0, 0.0, 0.0, 0.0, 0.0, 0.0, 0.0, 0.0, 0.0, 0.0, 0.0, 0.0, 0.0, 0.0, 0.0, 0.0, 0.0, 0.0, 0.0, 0.0, 0.0, 0.0, 0.0, 0.0, 0.0, 0.0, 0.0, 0.0], "parents": [2147483647, 0, 0, 1, 1, 2, 2, 3, 3, 4, 4, 5, 5, 6, 6, 7, 7, 8, 8, 9, 9, 10, 10, 11, 11, 12, 12, 13, 13, 14, 14, 15, 15, 16, 16, 17, 17, 18, 18, 19, 19, 20, 20, 21, 21, 22, 22, 23, 23, 24, 24, 25, 25, 26, 26, 27, 27, 28, 28, 29, 29, 30, 30, 31, 31, 32, 32, 33, 33, 34, 34, 35, 35, 36, 36, 37, 37, 38, 38, 39, 39, 40, 40, 41, 41, 42, 42, 43, 43, 44, 44, 45, 45, 46, 46, 47, 47, 48, 48, 49, 49, 50, 50, 51, 51, 52, 52, 53, 53, 54, 54, 55, 55, 56, 56, 57, 57, 58, 58, 59, 59, 60, 60, 61, 61, 62, 62], "right_children": [2, 4, 6, 8, 10, 12, 14, 16, 18, 20, 22, 24, 26, 28, 30, 32, 34, 36, 38, 40, 42, 44, 46, 48, 50, 52, 54, 56, 58, 60, 62, 64, 66, 68, 70, 72, 74, 76, 78, 80, 82, 84, 86, 88, 90, 92, 94, 96, 98, 100, 102, 104, 106, 108, 110, 112, 114, 116, 118, 120, 122, 124, 126, -1, -1, -1, -1, -1, -1, -1, -1, -1, -1, -1, -1, -1, -1, -1, -1, -1, -1, -1, -1, -1, -1, -1, -1, -1, -1, -1, -1, -1, -1, -1, -1, -1, -1, -1, -1, -1, -1, -1, -1, -1, -1, -1, -1, -1, -1, -1, -1, -1, -1, -1, -1, -1, -1, -1, -1, -1, -1, -1, -1, -1, -1, -1, -1], "split_conditions": [0.8042501, 0.8294554, 0.7906698, 0.7490545, 0.77765965, 0.8366709, 0.85821223, 0.79059106, 0.78382075, 0.85788655, 0.8505869, 0.8385039, 0.8709694, 0.883157, 0.8391212, 0.73086935, 0.7800816, 0.7940877, 0.7746688, 0.8084935, 0.8765811, 0.7704588, 0.7636251, 0.76934534, 0.8645212, 0.87126994, 0.88451135, 0.83213097, 0.8361525, 0.89050055, 0.8977529, 0.7568766, 1.0, 0.7411864, 0.81773436, 0.7292224, 0.8189306, 0.80464995, 1.0, 0.8440866, 0.88224816, 10.8522, 0.915593, 0.7867349, 0.8002, 0.87719, 0.87849873, 0.83653355, 0.8210268, 0.81724364, 0.8158816, 0.850158, 0.9000149, 0.8787569, 0.88468146, 0.8621072, 0.8591546, 0.82055306, 0.8210267, 0.894906, 0.9007994, 0.91076887, 0.88618374, -0.06146432, 0.06915388, -0.03169088, 0.039697617, -0.07980259, -0.053784575, 0.028544096, -0.025353117, 0.054406065, 0.011542814, -0.01867711, -0.04531375, 0.06091241, 0.021978473, -0.023997335, 0.009320979, -0.07124808, -0.08459487, -0.04755506, -0.07653616, 0.0033453198, -0.047613863, 0.03718574, -0.010597638, -0.034343313, 0.0031663745, -0.044174742, -0.024256496, -0.023160288, -0.04960522, -0.060447127, -0.08021629, 0.0636414, 0.037252072, 0.026845837, 0.058414068, -0.00047017794, 0.026668463, -0.03696435, -0.006452497, 0.054923553, 0.06808599, 0.025155097, -0.015267678, 0.06934159, 0.075256266, 0.03485549, 0.06629969, -0.0074297646, -0.03488863, 0.0388683, 0.0021607603, -0.072170764, -0.047706757, -0.009012924, -0.03400824, 0.043683924, 0.008256974, 0.067548886, 0.049205497, 0.0068294094, -0.022797113, 0.03751156, 0.0030408436], "split_indices": [4, 6, 7, 4, 4, 4, 4, 6, 4, 7, 6, 6, 4, 6, 7, 4, 7, 6, 7, 7, 7, 7, 7, 7, 6, 6, 6, 4, 4, 4, 4, 7, 1, 4, 6, 7, 6, 6, 1, 6, 6, 2, 6, 4, 4, 6, 6, 6, 4, 4, 4, 4, 6, 4, 4, 6, 6, 4, 7, 6, 6, 6, 7, 0, 0, 0, 0, 0, 0, 0, 0, 0, 0, 0, 0, 0, 0, 0, 0, 0, 0, 0, 0, 0, 0, 0, 0, 0, 0, 0, 0, 0, 0, 0, 0, 0, 0, 0, 0, 0, 0, 0, 0, 0, 0, 0, 0, 0, 0, 0, 0, 0, 0, 0, 0, 0, 0, 0, 0, 0, 0, 0, 0, 0, 0, 0, 0], "split_type": [0, 0, 0, 0, 0, 0, 0, 0, 0, 0, 0, 0, 0, 0, 0, 0, 0, 0, 0, 0, 0, 0, 0, 0, 0, 0, 0, 0, 0, 0, 0, 0, 0, 0, 0, 0, 0, 0, 0, 0, 0, 0, 0, 0, 0, 0, 0, 0, 0, 0, 0, 0, 0, 0, 0, 0, 0, 0, 0, 0, 0, 0, 0, 0, 0, 0, 0, 0, 0, 0, 0, 0, 0, 0, 0, 0, 0, 0, 0, 0, 0, 0, 0, 0, 0, 0, 0, 0, 0, 0, 0, 0, 0, 0, 0, 0, 0, 0, 0, 0, 0, 0, 0, 0, 0, 0, 0, 0, 0, 0, 0, 0, 0, 0, 0, 0, 0, 0, 0, 0, 0, 0, 0, 0, 0, 0, 0], "sum_hessian": [361609.1, 92787.766, 268821.3, 27413.357, 65374.41, 90056.43, 178764.89, 7216.2295, 20197.127, 41579.137, 23795.271, 36040.062, 54016.363, 76866.78, 101898.11, 2165.9531, 5050.276, 11727.411, 8469.717, 40721.637, 857.5018, 9620.181, 14175.091, 13159.854, 22880.21, 33271.94, 20744.426, 47844.977, 29021.807, 55591.81, 46306.305, 935.93146, 1230.0217, 4818.387, 231.88889, 2645.2998, 9082.111, 6580.3745, 1889.3424, 33717.613, 7004.021, 539.9294, 317.5724, 4023.9944, 5596.1865, 2771.2605, 11403.83, 9013.624, 4146.23, 14455.746, 8424.465, 21386.273, 11885.666, 6324.116, 14420.309, 21875.93, 25969.047, 9693.558, 19328.248, 37564.863, 18026.945, 31360.674, 14945.632, 921.84863, 14.08284, 1032.0773, 197.94443, 4125.6104, 692.7768, 55.35593, 176.53294, 925.9245, 1719.3752, 6278.422, 2803.6892, 1986.2119, 4594.1626, 1565.2689, 324.07355, 6282.753, 27434.861, 2006.5845, 4997.4365, 106.433754, 433.4956, 102.16917, 215.40321, 1175.2854, 2848.709, 4141.4585, 1454.7278, 1937.8344, 833.42615, 6726.7393, 4677.091, 8365.9795, 647.6441, 2628.1355, 1518.0944, 5217.234, 9238.512, 2535.6606, 5888.8037, 10362.475, 11023.799, 10090.458, 1795.2081, 4092.4978, 2231.6187, 3458.72, 10961.589, 11971.973, 9903.957, 5667.767, 20301.28, 3585.5596, 6107.9985, 7084.4717, 12243.777, 22556.043, 15008.818, 3503.1726, 14523.771, 18964.707, 12395.967, 11460.27, 3485.3623], "tree_param": {"num_deleted": "0", "num_feature": "8", "num_nodes": "127", "size_leaf_vector": "1"}}, {"base_weights": [0.00012899972, -0.59770024, 0.14225288, -0.2563619, -0.71816033, 0.37300634, 0.06089453, -0.49925253, 0.017965, -0.75596136, -0.556609, 0.17493448, 0.5023892, -0.16362318, 0.20396885, -0.70324, -0.33996916, 0.26948598, -0.11011643, -0.7851259, -0.5959782, -0.34334219, -0.7003793, 0.42802295, 0.004645068, 0.44986856, 0.5848466, -0.036709238, -0.34592873, 0.3920991, 0.07845976, -0.73605317, -0.14526042, -0.13722228, -0.53151137, 0.11974737, 0.42700046, 0.018275494, -0.24162856, -0.72674453, -0.81399626, -0.11161832, -0.6207714, -0.1170456, -0.47179455, -0.48137334, -0.76050836, 0.27175647, 0.52745587, 0.076384604, -0.2776832, 0.5589833, 0.22023463, 0.6337076, 0.5239957, -0.30319574, 0.060801845, -0.6003185, -0.22732052, 0.30534846, 0.48020035, -0.024119288, 0.21208826, -0.04006964, -0.076897986, -0.030166471, 0.0025862788, -0.021435624, 0.02688913, -0.057486683, -0.015443916, 0.046087388, -0.0013957279, 0.06024879, 0.035550028, -0.013824217, 0.013345382, -0.02951091, 0.0056296107, -0.07453939, -0.03300922, -0.08214296, -0.07734626, -0.052249487, 0.0028399292, -0.0662019, -0.031429674, -0.017846577, 0.011800324, -0.05177495, -0.01975456, 0.018268598, -0.05077369, -0.06620437, -0.081725165, 0.04254986, 0.008320496, 0.067434855, 0.04690806, -0.007042106, 0.017484035, -0.058752973, -0.013110399, 0.049460277, 0.061870415, 0.028531803, 0.007197919, 0.057233512, 0.06659506, 0.036618456, 0.05986755, -0.0120717455, -0.039447334, 0.025229901, -0.0019430444, -0.07100426, -0.049356222, -0.01302726, -0.039620824, 0.05216509, 0.015139805, 0.054690745, 0.03789628, 0.010764158, -0.008134159, 0.032158975, 0.00918338], "categories": [], "categories_nodes": [], "categories_segments": [], "categories_sizes": [], "default_left": [0, 0, 0, 0, 0, 0, 0, 0, 0, 0, 0, 0, 0, 0, 0, 0, 0, 0, 0, 0, 0, 0, 0, 0, 0, 0, 0, 0, 0, 0, 0, 0, 0, 0, 0, 0, 0, 0, 0, 0, 0, 0, 0, 0, 0, 0, 0, 0, 0, 0, 0, 0, 0, 0, 0, 0, 0, 0, 0, 0, 0, 0, 0, 0, 0, 0, 0, 0, 0, 0, 0, 0, 0, 0, 0, 0, 0, 0, 0, 0, 0, 0, 0, 0, 0, 0, 0, 0, 0, 0, 0, 0, 0, 0, 0, 0, 0, 0, 0, 0, 0, 0, 0, 0, 0, 0, 0, 0, 0, 0, 0, 0, 0, 0, 0, 0, 0, 0, 0, 0, 0, 0, 0, 0, 0, 0, 0], "id": 3, "left_children": [1, 3, 5, 7, 9, 11, 13, 15, 17, 19, 21, 23, 25, 27, 29, 31, 33, 35, 37, 39, 41, 43, 45, 47, 49, 51, 53, 55, 57, 59, 61, 63, 65, 67, 69, 71, 73, 75, 77, 79, 81, 83, 85, 87, 89, 91, 93, 95, 97, 99, 101, 103, 105, 107, 109, 111, 113, 115, 117, 119, 121, 123, 125, -1, -1, -1, -1, -1, -1, -1, -1, -1, -1, -1, -1, -1, -1, -1, -1, -1, -1, -1, -1, -1, -1, -1, -1, -1, -1, -1, -1, -1, -1, -1, -1, -1, -1, -1, -1, -1, -1, -1, -1, -1, -1, -1, -1, -1, -1, -1, -1, -1, -1, -1, -1, -1, -1, -1, -1, -1, -1, -1, -1, -1, -1, -1, -1], "loss_changes": [29578.902, 2749.1582, 5280.3086, 1162.2848, 301.39453, 1878.8008, 6679.8364, 300.36914, 263.95383, 186.39062, 287.2207, 1248.5596, 191.79297, 1872.6484, 2998.9336, 74.14929, 201.75452, 65.15311, 91.6738, 56.496094, 74.13574, 109.74112, 73.36719, 180.90942, 350.7993, 678.8047, 50.963867, 1240.0205, 1002.18066, 388.30322, 1044.3174, 41.985596, 6.070033, 79.18674, 43.5943, 64.710785, 16.685837, 49.558296, 42.74919, 82.72656, 6.1904297, 17.395573, 74.09888, 19.785303, 30.26056, 21.256042, 23.99414, 131.37509, 60.73694, 199.62859, 159.30426, 70.31445, 84.21063, 18.544922, 90.40112, 212.8789, 536.7793, 123.378174, 371.3119, 852.7864, 170.07373, 324.9754, 435.64294, 0.0, 0.0, 0.0, 0.0, 0.0, 0.0, 0.0, 0.0, 0.0, 0.0, 0.0, 0.0, 0.0, 0.0, 0.0, 0.0, 0.0, 0.0, 0.0, 0.0, 0.0, 0.0, 0.0, 0.0, 0.0, 0.0, 0.0, 0.0, 0.0, 0.0, 0.0, 0.0, 0.0, 0.0, 0.0, 0.0, 0.0, 0.0, 0.0, 0.0, 0.0, 0.0, 0.0, 0.0, 0.0, 0.0, 0.0, 0.0, 0.0, 0.0, 0.0, 0.0, 0.0, 0.0, 0.0, 0.0, 0.0, 0.0, 0.0, 0.0, 0.0, 0.0, 0.0, 0.0], "parents": [2147483647, 0, 0, 1, 1, 2, 2, 3, 3, 4, 4, 5, 5, 6, 6, 7, 7, 8, 8, 9, 9, 10, 10, 11, 11, 12, 12, 13, 13, 14, 14, 15, 15, 16, 16, 17, 17, 18, 18, 19, 19, 20, 20, 21, 21, 22, 22, 23, 23, 24, 24, 25, 25, 26, 26, 27, 27, 28, 28, 29, 29, 30, 30, 31, 31, 32, 32, 33, 33, 34, 34, 35, 35, 36, 36, 37, 37, 38, 38, 39, 39, 40, 40, 41, 41, 42, 42, 43, 43, 44, 44, 45, 45, 46, 46, 47, 47, 48, 48, 49, 49, 50, 50, 51, 51, 52, 52, 53, 53, 54, 54, 55, 55, 56, 56, 57, 57, 58, 58, 59, 59, 60, 60, 61, 61, 62, 62], "right_children": [2, 4, 6, 8, 10, 12, 14, 16, 18, 20, 22, 24, 26, 28, 30, 32, 34, 36, 38, 40, 42, 44, 46, 48, 50, 52, 54, 56, 58, 60, 62, 64, 66, 68, 70, 72, 74, 76, 78, 80, 82, 84, 86, 88, 90, 92, 94, 96, 98, 100, 102, 104, 106, 108, 110, 112, 114, 116, 118, 120, 122, 124, 126, -1, -1, -1, -1, -1, -1, -1, -1, -1, -1, -1, -1, -1, -1, -1, -1, -1, -1, -1, -1, -1, -1, -1, -1, -1, -1, -1, -1, -1, -1, -1, -1, -1, -1, -1, -1, -1, -1, -1, -1, -1, -1, -1, -1, -1, -1, -1, -1, -1, -1, -1, -1, -1, -1, -1, -1, -1, -1, -1, -1, -1, -1, -1, -1], "split_conditions": [0.7873074, 0.82559335, 0.7777054, 0.762588, 0.77016145, 0.82626575, 0.850158, 0.73086935, 0.74292177, 0.81728053, 0.8495368, 0.83036864, 0.8645044, 0.8738547, 0.82206064, 0.77818364, 0.79756844, 0.7756904, 0.81001747, 0.8552351, 0.8660726, 0.7587572, 0.7568766, 0.8002, 0.87053454, 0.8656581, 0.8899646, 0.8125273, 0.8243596, 0.87466455, 0.8860394, 0.77082276, 14.4236, 1.0, 1.0, 0.78641725, 0.79059106, 0.77367985, 1.0, 0.7982795, 0.80090725, 10.0826, 0.8666909, 0.7844072, 1.0, 7.5049, 0.86675376, 0.7547746, 0.81486833, 0.805239, 0.80071384, 0.8418691, 0.8838434, 0.8709694, 0.89050055, 0.8398139, 0.8505869, 0.81157285, 0.894906, 0.8762047, 0.9071276, 0.8889419, 0.85590476, -0.04006964, -0.076897986, -0.030166471, 0.0025862788, -0.021435624, 0.02688913, -0.057486683, -0.015443916, 0.046087388, -0.0013957279, 0.06024879, 0.035550028, -0.013824217, 0.013345382, -0.02951091, 0.0056296107, -0.07453939, -0.03300922, -0.08214296, -0.07734626, -0.052249487, 0.0028399292, -0.0662019, -0.031429674, -0.017846577, 0.011800324, -0.05177495, -0.01975456, 0.018268598, -0.05077369, -0.06620437, -0.081725165, 0.04254986, 0.008320496, 0.067434855, 0.04690806, -0.007042106, 0.017484035, -0.058752973, -0.013110399, 0.049460277, 0.061870415, 0.028531803, 0.007197919, 0.057233512, 0.06659506, 0.036618456, 0.05986755, -0.0120717455, -0.039447334, 0.025229901, -0.0019430444, -0.07100426, -0.049356222, -0.01302726, -0.039620824, 0.05216509, 0.015139805, 0.054690745, 0.03789628, 0.010764158, -0.008134159, 0.032158975, 0.00918338], "split_indices": [4, 6, 7, 4, 4, 4, 4, 4, 7, 7, 6, 6, 4, 6, 7, 7, 6, 4, 6, 6, 6, 7, 7, 4, 6, 6, 6, 4, 4, 4, 4, 6, 2, 1, 1, 6, 6, 4, 1, 7, 7, 3, 7, 4, 1, 2, 6, 7, 6, 4, 4, 4, 6, 4, 4, 6, 6, 4, 6, 6, 6, 6, 7, 0, 0, 0, 0, 0, 0, 0, 0, 0, 0, 0, 0, 0, 0, 0, 0, 0, 0, 0, 0, 0, 0, 0, 0, 0, 0, 0, 0, 0, 0, 0, 0, 0, 0, 0, 0, 0, 0, 0, 0, 0, 0, 0, 0, 0, 0, 0, 0, 0, 0, 0, 0, 0, 0, 0, 0, 0, 0, 0, 0, 0, 0, 0, 0], "split_type": [0, 0, 0, 0, 0, 0, 0, 0, 0, 0, 0, 0, 0, 0, 0, 0, 0, 0, 0, 0, 0, 0, 0, 0, 0, 0, 0, 0, 0, 0, 0, 0, 0, 0, 0, 0, 0, 0, 0, 0, 0, 0, 0, 0, 0, 0, 0, 0, 0, 0, 0, 0, 0, 0, 0, 0, 0, 0, 0, 0, 0, 0, 0, 0, 0, 0, 0, 0, 0, 0, 0, 0, 0, 0, 0, 0, 0, 0, 0, 0, 0, 0, 0, 0, 0, 0, 0, 0, 0, 0, 0, 0, 0, 0, 0, 0, 0, 0, 0, 0, 0, 0, 0, 0, 0, 0, 0, 0, 0, 0, 0, 0, 0, 0, 0, 0, 0, 0, 0, 0, 0, 0, 0, 0, 0, 0, 0], "sum_hessian": [348125.16, 66864.29, 281260.88, 17442.357, 49421.93, 73315.48, 207945.39, 9250.814, 8191.5444, 40047.6, 9374.33, 28969.1, 44346.375, 80936.53, 127008.85, 4054.7075, 5196.1064, 2763.5317, 5428.0127, 33869.383, 6178.2188, 3776.183, 5598.147, 11651.23, 17317.871, 27094.926, 17251.45, 47718.203, 33218.332, 50824.3, 76184.555, 3829.204, 225.50354, 2525.0571, 2671.0493, 1417.6376, 1345.8942, 2747.0242, 2680.9883, 11215.543, 22653.838, 301.11627, 5877.1025, 1368.0242, 2408.159, 1207.8481, 4390.299, 4532.2246, 7119.006, 13809.587, 3508.2832, 18366.371, 8728.554, 9563.171, 7688.2783, 12782.634, 34935.57, 10561.681, 22656.652, 25610.693, 25213.607, 43099.96, 33084.59, 343.53043, 3485.6736, 117.42021, 108.08333, 2122.4148, 402.64227, 2395.134, 275.9153, 398.4944, 1019.1431, 387.47168, 958.4225, 1164.4434, 1582.5808, 2272.9753, 408.01306, 10711.062, 504.48117, 19126.959, 3526.8794, 75.838715, 225.27757, 5178.925, 698.1779, 1084.7983, 283.22586, 2061.785, 346.37402, 45.894897, 1161.9532, 1609.7018, 2780.597, 2495.8713, 2036.353, 2021.544, 5097.462, 5543.722, 8265.865, 1125.7042, 2382.5789, 8842.841, 9523.53, 6065.087, 2663.4668, 3300.202, 6262.969, 2471.4944, 5216.784, 4262.849, 8519.785, 10314.63, 24620.94, 5205.6567, 5356.0234, 14389.681, 8266.971, 10647.884, 14962.81, 15196.1875, 10017.419, 13049.99, 30049.973, 17315.623, 15768.965], "tree_param": {"num_deleted": "0", "num_feature": "8", "num_nodes": "127", "size_leaf_vector": "1"}}, {"base_weights": [-0.0009615362, -0.54396164, 0.13817313, -0.688806, -0.30938682, 0.36949882, 0.060572453, -0.71736425, -0.54243475, -0.0084704235, -0.4489569, 0.16274552, 0.46178773, -0.20921864, 0.16208486, -0.7348395, -0.4941655, -0.097447135, -0.61735064, 0.22892857, -0.13802288, -0.592152, -0.40062454, 0.30994877, 0.031100744, 0.39485192, 0.52713615, -0.39669946, -0.15715204, 0.3367007, 0.056528877, -0.7449756, -0.6542774, -0.52944386, -0.26669303, 0.08011853, -0.26639143, -0.46414778, -0.66457576, 0.35570407, 0.12993424, -0.3762024, 0.020918159, -0.50569576, -0.67892253, -0.23839158, -0.5004992, 0.4194613, 0.26050505, -0.104203165, 0.09346175, 0.4704468, 0.33721596, 0.4833001, 0.5432905, -0.4323868, -0.18791385, 0.012245811, -0.24769118, 0.23116995, 0.41074216, -0.05055764, 0.1677126, -0.07553106, -0.06659095, -0.06683826, -0.034904264, 0.034040075, -0.053333547, -0.031669613, 0.03129388, 0.030395314, -0.0044212933, -0.033112407, 0.0125359995, -0.031145403, -0.06171147, -0.06788961, -0.046420448, 0.036414932, -0.08438762, 0.00067188835, 0.030604718, -0.021544306, -0.045931656, -0.008949094, 0.0111999875, -0.05619157, -0.023540668, -0.06923201, -0.028895734, -0.034329977, -0.016848002, -0.05210441, -0.017954046, 0.04989333, 0.03839208, 0.019321159, 0.033265125, -0.01673638, 0.011116393, 0.017114518, 0.0044036335, 0.05002585, 0.04228157, 0.038889766, 0.02858607, 0.051921915, 0.044690404, 0.05550598, 0.050074097, -0.05244554, -0.036366474, 0.0047338004, -0.028787235, -0.005588358, 0.016470162, -0.031204421, -0.01773944, 0.029616416, 0.011250966, 0.048580896, 0.038304858, -0.010061624, 0.002105788, 0.028686577, 0.0046249344], "categories": [], "categories_nodes": [], "categories_segments": [], "categories_sizes": [], "default_left": [0, 0, 0, 0, 0, 0, 0, 0, 0, 0, 0, 0, 0, 0, 0, 0, 0, 0, 0, 0, 0, 0, 0, 0, 0, 0, 0, 0, 0, 0, 0, 0, 0, 0, 0, 0, 0, 0, 0, 0, 0, 0, 0, 0, 0, 0, 0, 0, 0, 0, 0, 0, 0, 0, 0, 0, 0, 0, 0, 0, 0, 0, 0, 0, 0, 0, 0, 0, 0, 0, 0, 0, 0, 0, 0, 0, 0, 0, 0, 0, 0, 0, 0, 0, 0, 0, 0, 0, 0, 0, 0, 0, 0, 0, 0, 0, 0, 0, 0, 0, 0, 0, 0, 0, 0, 0, 0, 0, 0, 0, 0, 0, 0, 0, 0, 0, 0, 0, 0, 0, 0, 0, 0, 0, 0, 0, 0], "id": 4, "left_children": [1, 3, 5, 7, 9, 11, 13, 15, 17, 19, 21, 23, 25, 27, 29, 31, 33, 35, 37, 39, 41, 43, 45, 47, 49, 51, 53, 55, 57, 59, 61, 63, 65, 67, 69, 71, 73, 75, 77, 79, 81, 83, 85, 87, 89, 91, 93, 95, 97, 99, 101, 103, 105, 107, 109, 111, 113, 115, 117, 119, 121, 123, 125, -1, -1, -1, -1, -1, -1, -1, -1, -1, -1, -1, -1, -1, -1, -1, -1, -1, -1, -1, -1, -1, -1, -1, -1, -1, -1, -1, -1, -1, -1, -1, -1, -1, -1, -1, -1, -1, -1, -1, -1, -1, -1, -1, -1, -1, -1, -1, -1, -1, -1, -1, -1, -1, -1, -1, -1, -1, -1, -1, -1, -1, -1, -1, -1], "loss_changes": [25735.389, 2360.504, 4867.575, 179.16602, 1114.0623, 1299.6055, 5560.913, 139.8164, 233.85571, 258.5608, 125.17798, 407.37488, 205.78027, 541.82153, 2719.321, 26.728516, 20.824524, 30.388298, 43.1416, 37.203476, 205.90277, 33.946045, 219.45215, 53.62982, 93.65812, 101.21753, 16.609375, 89.81653, 666.3744, 434.22314, 1094.8162, 23.68164, 15.838013, 7.8344727, 10.32431, 13.770026, 13.20192, 32.936096, 12.85022, 13.485977, 36.19831, 28.986816, 32.823288, 34.718567, 11.703247, 37.82794, 55.209473, 8.523193, 33.144684, 47.65566, 29.164474, 14.077637, 34.937866, 8.167236, 8.436523, 64.9989, 41.47142, 157.20692, 128.03528, 176.7384, 67.71924, 167.92175, 652.89905, 0.0, 0.0, 0.0, 0.0, 0.0, 0.0, 0.0, 0.0, 0.0, 0.0, 0.0, 0.0, 0.0, 0.0, 0.0, 0.0, 0.0, 0.0, 0.0, 0.0, 0.0, 0.0, 0.0, 0.0, 0.0, 0.0, 0.0, 0.0, 0.0, 0.0, 0.0, 0.0, 0.0, 0.0, 0.0, 0.0, 0.0, 0.0, 0.0, 0.0, 0.0, 0.0, 0.0, 0.0, 0.0, 0.0, 0.0, 0.0, 0.0, 0.0, 0.0, 0.0, 0.0, 0.0, 0.0, 0.0, 0.0, 0.0, 0.0, 0.0, 0.0, 0.0, 0.0, 0.0], "parents": [2147483647, 0, 0, 1, 1, 2, 2, 3, 3, 4, 4, 5, 5, 6, 6, 7, 7, 8, 8, 9, 9, 10, 10, 11, 11, 12, 12, 13, 13, 14, 14, 15, 15, 16, 16, 17, 17, 18, 18, 19, 19, 20, 20, 21, 21, 22, 22, 23, 23, 24, 24, 25, 25, 26, 26, 27, 27, 28, 28, 29, 29, 30, 30, 31, 31, 32, 32, 33, 33, 34, 34, 35, 35, 36, 36, 37, 37, 38, 38, 39, 39, 40, 40, 41, 41, 42, 42, 43, 43, 44, 44, 45, 45, 46, 46, 47, 47, 48, 48, 49, 49, 50, 50, 51, 51, 52, 52, 53, 53, 54, 54, 55, 55, 56, 56, 57, 57, 58, 58, 59, 59, 60, 60, 61, 61, 62, 62], "right_children": [2, 4, 6, 8, 10, 12, 14, 16, 18, 20, 22, 24, 26, 28, 30, 32, 34, 36, 38, 40, 42, 44, 46, 48, 50, 52, 54, 56, 58, 60, 62, 64, 66, 68, 70, 72, 74, 76, 78, 80, 82, 84, 86, 88, 90, 92, 94, 96, 98, 100, 102, 104, 106, 108, 110, 112, 114, 116, 118, 120, 122, 124, 126, -1, -1, -1, -1, -1, -1, -1, -1, -1, -1, -1, -1, -1, -1, -1, -1, -1, -1, -1, -1, -1, -1, -1, -1, -1, -1, -1, -1, -1, -1, -1, -1, -1, -1, -1, -1, -1, -1, -1, -1, -1, -1, -1, -1, -1, -1, -1, -1, -1, -1, -1, -1, -1, -1, -1, -1, -1, -1, -1, -1, -1, -1, -1, -1], "split_conditions": [0.7917842, 0.7583824, 0.7772175, 0.7399174, 0.7501641, 0.8210268, 0.8387299, 0.8367567, 0.7269088, 0.7320488, 0.77228403, 0.75542355, 0.85373676, 0.80914605, 0.81728053, 0.8145571, 0.87448907, 0.7191597, 0.73555076, 0.7210757, 0.7708585, 0.7587572, 0.7664906, 0.7320488, 0.80071384, 0.75156736, 0.86376464, 9.284, 0.79645175, 0.8616203, 0.8787569, 0.723749, 22.5629, 3.6519, 0.904046, 10.4662, 8.811, 12.272, 7.6534, 26.4945, 0.7795654, 0.7398406, 0.78018993, 0.7694299, 13.397, 0.77894515, 13.0704975, 10.904, 0.8076939, 7.9065, 0.76533365, 0.7406444, 14.2216, 0.75410455, 19.4827, 0.80071384, 14.5891, 0.829164, 0.82819515, 0.8053535, 0.7906698, 0.8645044, 0.8512187, -0.07553106, -0.06659095, -0.06683826, -0.034904264, 0.034040075, -0.053333547, -0.031669613, 0.03129388, 0.030395314, -0.0044212933, -0.033112407, 0.0125359995, -0.031145403, -0.06171147, -0.06788961, -0.046420448, 0.036414932, -0.08438762, 0.00067188835, 0.030604718, -0.021544306, -0.045931656, -0.008949094, 0.0111999875, -0.05619157, -0.023540668, -0.06923201, -0.028895734, -0.034329977, -0.016848002, -0.05210441, -0.017954046, 0.04989333, 0.03839208, 0.019321159, 0.033265125, -0.01673638, 0.011116393, 0.017114518, 0.0044036335, 0.05002585, 0.04228157, 0.038889766, 0.02858607, 0.051921915, 0.044690404, 0.05550598, 0.050074097, -0.05244554, -0.036366474, 0.0047338004, -0.028787235, -0.005588358, 0.016470162, -0.031204421, -0.01773944, 0.029616416, 0.011250966, 0.048580896, 0.038304858, -0.010061624, 0.002105788, 0.028686577, 0.0046249344], "split_indices": [4, 4, 7, 4, 7, 4, 4, 7, 7, 7, 4, 7, 4, 4, 7, 7, 7, 7, 7, 7, 4, 7, 7, 7, 4, 7, 4, 0, 7, 4, 4, 4, 0, 3, 7, 2, 0, 2, 0, 2, 4, 7, 4, 4, 0, 4, 0, 2, 4, 0, 7, 7, 2, 7, 2, 4, 2, 4, 4, 7, 7, 4, 7, 0, 0, 0, 0, 0, 0, 0, 0, 0, 0, 0, 0, 0, 0, 0, 0, 0, 0, 0, 0, 0, 0, 0, 0, 0, 0, 0, 0, 0, 0, 0, 0, 0, 0, 0, 0, 0, 0, 0, 0, 0, 0, 0, 0, 0, 0, 0, 0, 0, 0, 0, 0, 0, 0, 0, 0, 0, 0, 0, 0, 0, 0, 0, 0], "split_type": [0, 0, 0, 0, 0, 0, 0, 0, 0, 0, 0, 0, 0, 0, 0, 0, 0, 0, 0, 0, 0, 0, 0, 0, 0, 0, 0, 0, 0, 0, 0, 0, 0, 0, 0, 0, 0, 0, 0, 0, 0, 0, 0, 0, 0, 0, 0, 0, 0, 0, 0, 0, 0, 0, 0, 0, 0, 0, 0, 0, 0, 0, 0, 0, 0, 0, 0, 0, 0, 0, 0, 0, 0, 0, 0, 0, 0, 0, 0, 0, 0, 0, 0, 0, 0, 0, 0, 0, 0, 0, 0, 0, 0, 0, 0, 0, 0, 0, 0, 0, 0, 0, 0, 0, 0, 0, 0, 0, 0, 0, 0, 0, 0, 0, 0, 0, 0, 0, 0, 0, 0, 0, 0, 0, 0, 0, 0], "sum_hessian": [340637.9, 69479.14, 271158.75, 42954.082, 26525.055, 68112.7, 203046.06, 35938.305, 7015.777, 8404.917, 18120.137, 21021.457, 47091.25, 55511.426, 147534.62, 33326.72, 2611.587, 1011.2754, 6004.5015, 2967.091, 5437.826, 4569.816, 13550.321, 9923.637, 11097.82, 23266.555, 23824.693, 12064.194, 43447.23, 55583.508, 91951.125, 29594.912, 3731.8076, 2259.7915, 351.7952, 493.3135, 517.9619, 1417.3407, 4587.1606, 1299.857, 1667.234, 2175.8545, 3261.972, 2292.4734, 2277.3425, 5164.5635, 8385.758, 3084.4436, 6839.1934, 3501.023, 7596.797, 10062.063, 13204.492, 6423.8794, 17400.814, 10302.19, 1762.0044, 15133.488, 28313.742, 22919.97, 32663.535, 46838.86, 45112.266, 26166.115, 3428.7961, 3565.837, 165.97055, 9.679903, 2250.1116, 324.27463, 27.520578, 175.64827, 317.66522, 444.6441, 73.31782, 710.8231, 706.51764, 4278.96, 308.20056, 1291.4613, 8.395679, 981.5454, 685.68854, 742.774, 1433.0804, 1474.5466, 1787.4253, 1896.8507, 395.6227, 2200.952, 76.39049, 2063.779, 3100.7847, 7880.683, 505.07428, 949.10785, 2135.3357, 3540.5078, 3298.6858, 2707.282, 793.7409, 2953.006, 4643.791, 6182.814, 3879.249, 6578.0557, 6626.4365, 3226.449, 3197.4307, 13621.131, 3779.6829, 4400.33, 5901.8604, 525.58026, 1236.4242, 10459.835, 4673.6533, 14779.993, 13533.749, 14807.767, 8112.2036, 8798.267, 23865.27, 27568.395, 19270.465, 22771.998, 22340.268], "tree_param": {"num_deleted": "0", "num_feature": "8", "num_nodes": "127", "size_leaf_vector": "1"}}, {"base_weights": [4.0841385e-07, -0.5618556, 0.118371226, -0.6711393, -0.3488378, -0.060141027, 0.20087433, -0.6798991, -0.33401564, 0.04625381, -0.4456053, 0.18460001, -0.21792856, 0.38193792, 0.073752694, -0.7076527, -0.571345, -0.42514518, -0.11179745, 0.24897353, -0.033016697, -0.5730102, -0.37744677, 0.3134566, 0.07765472, -0.3770404, -0.11975443, 0.3031198, 0.43651578, -0.044586584, 0.16188337, -0.7284107, -0.62860173, -0.1504467, -0.6061281, -0.21074761, -0.4787623, -0.064206205, -0.082426034, -0.014156094, 0.30765152, -0.10725555, 0.12174871, -0.5927915, -0.32856074, -0.17504486, -0.47946265, 0.22780646, 0.37698784, -0.11937936, 0.18998075, -0.45899892, -0.2955487, 0.062073205, -0.21880451, 0.39676902, 0.20278966, 0.48438868, 0.38589048, 0.049871117, -0.09497928, 0.2776431, 0.04682724, -0.07415152, -0.0701354, -0.06422099, -0.045263913, -0.024472417, 0.027407259, -0.062932774, -0.02919061, -0.040106677, 0.053053945, -0.081853725, -0.04226234, -0.011670001, 0.06094643, 0.03928527, -0.014349962, 0.03745788, 0.020450126, -0.012472532, 0.05763311, 0.020203909, -0.0004549156, -0.047445055, -0.062979266, -0.01470752, -0.047440145, -0.03788156, -0.0144684855, -0.050652545, -0.028185925, 0.034674343, 0.013102991, 0.042866062, 0.034838345, -0.021245359, -0.0038595826, 0.012343145, 0.025683269, -0.050127335, -0.025508104, -0.011649302, -0.039804008, 0.0018316727, 0.01941474, -0.014005627, -0.027192652, 0.043181524, 0.033736877, 0.010625787, 0.025808558, 0.05084449, 0.046082575, 0.03742489, 0.045777008, -0.0032732089, 0.017086545, -0.01674313, -0.0045779175, 0.02442739, 0.04249786, -0.00034349525, 0.024867851], "categories": [], "categories_nodes": [], "categories_segments": [], "categories_sizes": [], "default_left": [0, 0, 0, 0, 0, 0, 0, 0, 0, 0, 0, 0, 0, 0, 0, 0, 0, 0, 0, 0, 0, 0, 0, 0, 0, 0, 0, 0, 0, 0, 0, 0, 0, 0, 0, 0, 0, 0, 0, 0, 0, 0, 0, 0, 0, 0, 0, 0, 0, 0, 0, 0, 0, 0, 0, 0, 0, 0, 0, 0, 0, 0, 0, 0, 0, 0, 0, 0, 0, 0, 0, 0, 0, 0, 0, 0, 0, 0, 0, 0, 0, 0, 0, 0, 0, 0, 0, 0, 0, 0, 0, 0, 0, 0, 0, 0, 0, 0, 0, 0, 0, 0, 0, 0, 0, 0, 0, 0, 0, 0, 0, 0, 0, 0, 0, 0, 0, 0, 0, 0, 0, 0, 0, 0, 0], "id": 5, "left_children": [1, 3, 5, 7, 9, 11, 13, 15, 17, 19, 21, 23, 25, 27, 29, 31, 33, 35, 37, 39, 41, 43, 45, 47, 49, 51, 53, 55, 57, 59, 61, 63, 65, 67, 69, 71, 73, 75, -1, 77, 79, 81, 83, 85, 87, 89, 91, 93, 95, 97, 99, 101, 103, 105, 107, 109, 111, 113, 115, 117, 119, 121, 123, -1, -1, -1, -1, -1, -1, -1, -1, -1, -1, -1, -1, -1, -1, -1, -1, -1, -1, -1, -1, -1, -1, -1, -1, -1, -1, -1, -1, -1, -1, -1, -1, -1, -1, -1, -1, -1, -1, -1, -1, -1, -1, -1, -1, -1, -1, -1, -1, -1, -1, -1, -1, -1, -1, -1, -1, -1, -1, -1, -1, -1, -1], "loss_changes": [22308.502, 1358.5898, 4080.4846, 113.697266, 756.7803, 3381.931, 4361.3643, 112.87305, 19.77729, 62.601532, 137.85278, 473.052, 831.7058, 336.0879, 1161.0673, 48.671875, 112.06421, 7.875786, 9.646748, 16.91224, 32.195892, 26.591919, 213.85706, 84.63367, 415.23932, 135.56201, 593.0949, 300.41284, 111.731445, 226.19873, 849.8319, 7.885742, 14.636719, 23.524145, 51.396973, 20.049355, 10.227135, 9.592369, 0.0, 10.618368, 6.105156, 22.684566, 9.213691, 22.135986, 10.966122, 21.435844, 36.694214, 76.30182, 13.060669, 51.21428, 53.13037, 87.1792, 186.96521, 67.112526, 89.14081, 34.287354, 82.399475, 13.217285, 18.614014, 165.241, 110.454865, 156.27075, 324.67926, 0.0, 0.0, 0.0, 0.0, 0.0, 0.0, 0.0, 0.0, 0.0, 0.0, 0.0, 0.0, 0.0, 0.0, 0.0, 0.0, 0.0, 0.0, 0.0, 0.0, 0.0, 0.0, 0.0, 0.0, 0.0, 0.0, 0.0, 0.0, 0.0, 0.0, 0.0, 0.0, 0.0, 0.0, 0.0, 0.0, 0.0, 0.0, 0.0, 0.0, 0.0, 0.0, 0.0, 0.0, 0.0, 0.0, 0.0, 0.0, 0.0, 0.0, 0.0, 0.0, 0.0, 0.0, 0.0, 0.0, 0.0, 0.0, 0.0, 0.0, 0.0, 0.0], "parents": [2147483647, 0, 0, 1, 1, 2, 2, 3, 3, 4, 4, 5, 5, 6, 6, 7, 7, 8, 8, 9, 9, 10, 10, 11, 11, 12, 12, 13, 13, 14, 14, 15, 15, 16, 16, 17, 17, 18, 18, 19, 19, 20, 20, 21, 21, 22, 22, 23, 23, 24, 24, 25, 25, 26, 26, 27, 27, 28, 28, 29, 29, 30, 30, 31, 31, 32, 32, 33, 33, 34, 34, 35, 35, 36, 36, 37, 37, 39, 39, 40, 40, 41, 41, 42, 42, 43, 43, 44, 44, 45, 45, 46, 46, 47, 47, 48, 48, 49, 49, 50, 50, 51, 51, 52, 52, 53, 53, 54, 54, 55, 55, 56, 56, 57, 57, 58, 58, 59, 59, 60, 60, 61, 61, 62, 62], "right_children": [2, 4, 6, 8, 10, 12, 14, 16, 18, 20, 22, 24, 26, 28, 30, 32, 34, 36, 38, 40, 42, 44, 46, 48, 50, 52, 54, 56, 58, 60, 62, 64, 66, 68, 70, 72, 74, 76, -1, 78, 80, 82, 84, 86, 88, 90, 92, 94, 96, 98, 100, 102, 104, 106, 108, 110, 112, 114, 116, 118, 120, 122, 124, -1, -1, -1, -1, -1, -1, -1, -1, -1, -1, -1, -1, -1, -1, -1, -1, -1, -1, -1, -1, -1, -1, -1, -1, -1, -1, -1, -1, -1, -1, -1, -1, -1, -1, -1, -1, -1, -1, -1, -1, -1, -1, -1, -1, -1, -1, -1, -1, -1, -1, -1, -1, -1, -1, -1, -1, -1, -1, -1, -1, -1, -1], "split_conditions": [0.78382075, 0.7529989, 0.8356441, 0.85390025, 0.7380774, 0.7746688, 0.8076016, 0.723749, 0.8765811, 0.7210757, 0.7679744, 0.75222445, 0.8138921, 0.85821223, 0.8709694, 0.8084935, 0.7142894, 10.8522, 21.7278, 0.7609469, 0.772977, 8.6628, 0.75753415, 0.8071988, 0.8022398, 0.8032555, 0.79555476, 0.77865094, 0.7815838, 0.8230188, 0.8449708, 0.77865094, 20.7496, 8.5205, 7.6159, 8.9643, 10.3466, 21.0432, -0.082426034, 0.701234, 13.1755, 18.6375, 14.0394, 0.74655145, 15.131, 0.77016145, 6.9571, 0.7347224, 0.7320488, 0.79232585, 0.81865656, 6.297998, 0.7893412, 0.8301498, 0.8071802, 0.76308036, 0.843467, 0.7587572, 0.90490955, 0.85498124, 0.8543558, 0.90792096, 0.9114841, -0.07415152, -0.0701354, -0.06422099, -0.045263913, -0.024472417, 0.027407259, -0.062932774, -0.02919061, -0.040106677, 0.053053945, -0.081853725, -0.04226234, -0.011670001, 0.06094643, 0.03928527, -0.014349962, 0.03745788, 0.020450126, -0.012472532, 0.05763311, 0.020203909, -0.0004549156, -0.047445055, -0.062979266, -0.01470752, -0.047440145, -0.03788156, -0.0144684855, -0.050652545, -0.028185925, 0.034674343, 0.013102991, 0.042866062, 0.034838345, -0.021245359, -0.0038595826, 0.012343145, 0.025683269, -0.050127335, -0.025508104, -0.011649302, -0.039804008, 0.0018316727, 0.01941474, -0.014005627, -0.027192652, 0.043181524, 0.033736877, 0.010625787, 0.025808558, 0.05084449, 0.046082575, 0.03742489, 0.045777008, -0.0032732089, 0.017086545, -0.01674313, -0.0045779175, 0.02442739, 0.04249786, -0.00034349525, 0.024867851], "split_indices": [4, 4, 4, 7, 7, 7, 7, 4, 7, 7, 4, 7, 4, 4, 4, 7, 7, 2, 0, 4, 4, 0, 7, 4, 4, 4, 7, 7, 7, 7, 7, 7, 0, 0, 0, 0, 0, 0, 0, 7, 2, 0, 2, 7, 2, 4, 0, 7, 7, 4, 4, 0, 7, 4, 7, 7, 4, 7, 4, 4, 4, 4, 4, 0, 0, 0, 0, 0, 0, 0, 0, 0, 0, 0, 0, 0, 0, 0, 0, 0, 0, 0, 0, 0, 0, 0, 0, 0, 0, 0, 0, 0, 0, 0, 0, 0, 0, 0, 0, 0, 0, 0, 0, 0, 0, 0, 0, 0, 0, 0, 0, 0, 0, 0, 0, 0, 0, 0, 0, 0, 0, 0, 0, 0, 0], "split_type": [0, 0, 0, 0, 0, 0, 0, 0, 0, 0, 0, 0, 0, 0, 0, 0, 0, 0, 0, 0, 0, 0, 0, 0, 0, 0, 0, 0, 0, 0, 0, 0, 0, 0, 0, 0, 0, 0, 0, 0, 0, 0, 0, 0, 0, 0, 0, 0, 0, 0, 0, 0, 0, 0, 0, 0, 0, 0, 0, 0, 0, 0, 0, 0, 0, 0, 0, 0, 0, 0, 0, 0, 0, 0, 0, 0, 0, 0, 0, 0, 0, 0, 0, 0, 0, 0, 0, 0, 0, 0, 0, 0, 0, 0, 0, 0, 0, 0, 0, 0, 0, 0, 0, 0, 0, 0, 0, 0, 0, 0, 0, 0, 0, 0, 0, 0, 0, 0, 0, 0, 0, 0, 0, 0, 0], "sum_hessian": [335427.12, 58369.266, 277057.88, 38576.41, 19792.855, 87573.984, 189483.88, 37598.438, 977.9719, 3894.115, 15898.74, 34328.137, 53245.844, 78158.336, 111325.54, 29938.633, 7659.8047, 692.905, 285.06686, 1094.076, 2800.0388, 5538.5117, 10360.229, 15568.265, 18759.873, 20316.248, 32929.598, 31980.518, 46177.82, 47518.96, 63806.58, 23705.574, 6233.058, 585.0955, 7074.709, 139.60403, 553.301, 268.23907, 16.827772, 199.63074, 894.4453, 1892.5266, 907.5122, 5122.559, 415.95264, 3472.8098, 6887.419, 6631.9453, 8936.319, 6811.5273, 11948.345, 10126.802, 10189.446, 11612.585, 21317.014, 16539.457, 15441.061, 23729.693, 22448.129, 16531.602, 30987.361, 31805.328, 32001.248, 15952.715, 7752.8594, 5783.166, 449.89203, 479.11658, 105.97894, 6587.3496, 487.3594, 111.449326, 28.154705, 76.53006, 476.77097, 249.61531, 18.623774, 47.65046, 151.98027, 540.87585, 353.5695, 1846.1636, 46.363087, 554.4416, 353.07062, 1223.4414, 3899.1177, 186.22319, 229.72945, 448.83502, 3023.9749, 6056.4004, 831.01874, 2974.162, 3657.7834, 3179.2087, 5757.1104, 3164.2393, 3647.288, 5989.1523, 5959.1924, 8386.691, 1740.1099, 3710.0342, 6479.412, 8723.581, 2889.0034, 8588.714, 12728.299, 10398.224, 6141.234, 5624.7256, 9816.335, 11731.758, 11997.936, 19324.541, 3123.5889, 9824.864, 6706.7363, 12531.331, 18456.031, 25934.271, 5871.0576, 25622.158, 6379.0903], "tree_param": {"num_deleted": "0", "num_feature": "8", "num_nodes": "125", "size_leaf_vector": "1"}}, {"base_weights": [0.00031206, -0.5119084, 0.11758921, -0.17298503, -0.62154406, -0.030391125, 0.20103191, -0.5664358, -0.02866599, -0.6663761, -0.44748554, 0.17917974, -0.2041006, 0.3543519, 0.06318648, -0.2162651, -0.6171539, 0.23425528, -0.098839715, -0.6815507, -0.44334543, -0.24345966, -0.56653404, 0.34416765, 0.05809566, -0.13940953, -0.46974176, 0.41796497, 0.2737033, -0.019630665, 0.16282223, -0.5901172, -0.032463137, -0.6591548, -0.2700447, 0.059812173, 0.3406021, -0.22115348, 0.08636101, -0.69579625, -0.6046041, -0.0014718344, -0.5069956, -0.052535407, -0.32230482, -0.3236016, -0.6273398, 0.28101146, 0.4384983, -0.02034536, 0.27646294, -0.32963133, -0.05590504, -0.61638325, -0.34476894, 0.50561315, 0.38131878, 0.1979834, 0.36295858, 0.018039897, -0.18821095, 0.271438, 0.0578293, -0.064972185, 0.0798335, -0.011699337, 0.044019446, -0.070698395, -0.052968014, 0.038457025, -0.038324356, 0.020883746, -0.010973309, 0.043794077, 0.015540403, -0.007951789, -0.033529498, 0.025101406, -0.0069699786, -0.07122373, -0.06122271, -0.046408173, -0.06937964, -0.016264297, 0.05488969, -0.057791937, -0.020381367, 0.0055703116, -0.014222589, -0.037001144, -0.011043116, -0.01687971, -0.047536083, -0.055081215, -0.06965403, 0.046056118, 0.015595974, 0.049551945, 0.032712694, 0.01057992, -0.008079666, 0.04308972, 0.0156074865, -0.015965156, -0.038941912, 0.009685962, -0.0124284355, -0.0655492, -0.04365256, -0.022274261, -0.046998948, 0.05684532, 0.046547517, 0.018549647, 0.044089653, 0.03818866, 0.0074367537, 0.05185103, 0.03217394, -0.0027229737, 0.010302122, -0.033156157, -0.010000406, 0.041011643, 0.02303883, 0.0020429657, 0.02064973], "categories": [], "categories_nodes": [], "categories_segments": [], "categories_sizes": [], "default_left": [0, 0, 0, 0, 0, 0, 0, 0, 0, 0, 0, 0, 0, 0, 0, 0, 0, 0, 0, 0, 0, 0, 0, 0, 0, 0, 0, 0, 0, 0, 0, 0, 0, 0, 0, 0, 0, 0, 0, 0, 0, 0, 0, 0, 0, 0, 0, 0, 0, 0, 0, 0, 0, 0, 0, 0, 0, 0, 0, 0, 0, 0, 0, 0, 0, 0, 0, 0, 0, 0, 0, 0, 0, 0, 0, 0, 0, 0, 0, 0, 0, 0, 0, 0, 0, 0, 0, 0, 0, 0, 0, 0, 0, 0, 0, 0, 0, 0, 0, 0, 0, 0, 0, 0, 0, 0, 0, 0, 0, 0, 0, 0, 0, 0, 0, 0, 0, 0, 0, 0, 0, 0, 0, 0, 0, 0, 0], "id": 6, "left_children": [1, 3, 5, 7, 9, 11, 13, 15, 17, 19, 21, 23, 25, 27, 29, 31, 33, 35, 37, 39, 41, 43, 45, 47, 49, 51, 53, 55, 57, 59, 61, 63, 65, 67, 69, 71, 73, 75, 77, 79, 81, 83, 85, 87, 89, 91, 93, 95, 97, 99, 101, 103, 105, 107, 109, 111, 113, 115, 117, 119, 121, 123, 125, -1, -1, -1, -1, -1, -1, -1, -1, -1, -1, -1, -1, -1, -1, -1, -1, -1, -1, -1, -1, -1, -1, -1, -1, -1, -1, -1, -1, -1, -1, -1, -1, -1, -1, -1, -1, -1, -1, -1, -1, -1, -1, -1, -1, -1, -1, -1, -1, -1, -1, -1, -1, -1, -1, -1, -1, -1, -1, -1, -1, -1, -1, -1, -1], "loss_changes": [19843.664, 2286.67, 3319.0017, 854.1791, 362.55664, 3528.246, 3632.4585, 71.5647, 203.10861, 124.83203, 231.25964, 877.48865, 910.5979, 417.3379, 746.8171, 35.18225, 51.223877, 43.00444, 196.84827, 37.524414, 66.32501, 52.854904, 88.65723, 110.63818, 433.9564, 676.9169, 189.96826, 145.91162, 242.44287, 313.87943, 468.4746, 14.487408, 13.81535, 19.098267, 28.47416, 22.247238, 25.90187, 84.57675, 88.84247, 39.685547, 67.55005, 26.516285, 44.20587, 9.985016, 25.08255, 28.260178, 25.090332, 250.02637, 47.17444, 142.14877, 124.41522, 132.05908, 309.38773, 33.290894, 85.54047, 33.554443, 374.187, 441.36096, 105.42432, 155.42055, 114.11316, 114.85364, 116.14946, 0.0, 0.0, 0.0, 0.0, 0.0, 0.0, 0.0, 0.0, 0.0, 0.0, 0.0, 0.0, 0.0, 0.0, 0.0, 0.0, 0.0, 0.0, 0.0, 0.0, 0.0, 0.0, 0.0, 0.0, 0.0, 0.0, 0.0, 0.0, 0.0, 0.0, 0.0, 0.0, 0.0, 0.0, 0.0, 0.0, 0.0, 0.0, 0.0, 0.0, 0.0, 0.0, 0.0, 0.0, 0.0, 0.0, 0.0, 0.0, 0.0, 0.0, 0.0, 0.0, 0.0, 0.0, 0.0, 0.0, 0.0, 0.0, 0.0, 0.0, 0.0, 0.0, 0.0, 0.0], "parents": [2147483647, 0, 0, 1, 1, 2, 2, 3, 3, 4, 4, 5, 5, 6, 6, 7, 7, 8, 8, 9, 9, 10, 10, 11, 11, 12, 12, 13, 13, 14, 14, 15, 15, 16, 16, 17, 17, 18, 18, 19, 19, 20, 20, 21, 21, 22, 22, 23, 23, 24, 24, 25, 25, 26, 26, 27, 27, 28, 28, 29, 29, 30, 30, 31, 31, 32, 32, 33, 33, 34, 34, 35, 35, 36, 36, 37, 37, 38, 38, 39, 39, 40, 40, 41, 41, 42, 42, 43, 43, 44, 44, 45, 45, 46, 46, 47, 47, 48, 48, 49, 49, 50, 50, 51, 51, 52, 52, 53, 53, 54, 54, 55, 55, 56, 56, 57, 57, 58, 58, 59, 59, 60, 60, 61, 61, 62, 62], "right_children": [2, 4, 6, 8, 10, 12, 14, 16, 18, 20, 22, 24, 26, 28, 30, 32, 34, 36, 38, 40, 42, 44, 46, 48, 50, 52, 54, 56, 58, 60, 62, 64, 66, 68, 70, 72, 74, 76, 78, 80, 82, 84, 86, 88, 90, 92, 94, 96, 98, 100, 102, 104, 106, 108, 110, 112, 114, 116, 118, 120, 122, 124, 126, -1, -1, -1, -1, -1, -1, -1, -1, -1, -1, -1, -1, -1, -1, -1, -1, -1, -1, -1, -1, -1, -1, -1, -1, -1, -1, -1, -1, -1, -1, -1, -1, -1, -1, -1, -1, -1, -1, -1, -1, -1, -1, -1, -1, -1, -1, -1, -1, -1, -1, -1, -1, -1, -1, -1, -1, -1, -1, -1, -1, -1, -1, -1, -1], "split_conditions": [0.7890089, 0.82138836, 0.8418691, 0.73862123, 0.77228403, 0.8532913, 0.8159257, 0.77082276, 0.7292224, 0.8367567, 0.8435724, 0.76533365, 0.8924247, 0.7902992, 0.88216925, 0.709055, 0.7625261, 0.7600925, 0.7756904, 0.75485444, 0.88754416, 0.7535439, 0.75410455, 0.81865656, 0.82626575, 0.8167742, 0.82388365, 0.8671499, 0.8727665, 0.90896535, 0.85035294, 0.7347224, 8.5205, 0.723749, 0.80464995, 0.7210757, 0.802536, 0.8002137, 0.7568766, 0.80804, 0.84790146, 0.85035294, 0.872262, 0.8294554, 6.297998, 0.862517, 0.8682108, 0.8189306, 0.84114766, 0.7777054, 0.84296566, 0.7726733, 0.7878563, 7.2566, 0.8145571, 0.85476685, 0.86303586, 0.8731358, 0.88858616, 0.8683958, 0.8652543, 0.9007994, 0.91591316, -0.064972185, 0.0798335, -0.011699337, 0.044019446, -0.070698395, -0.052968014, 0.038457025, -0.038324356, 0.020883746, -0.010973309, 0.043794077, 0.015540403, -0.007951789, -0.033529498, 0.025101406, -0.0069699786, -0.07122373, -0.06122271, -0.046408173, -0.06937964, -0.016264297, 0.05488969, -0.057791937, -0.020381367, 0.0055703116, -0.014222589, -0.037001144, -0.011043116, -0.01687971, -0.047536083, -0.055081215, -0.06965403, 0.046056118, 0.015595974, 0.049551945, 0.032712694, 0.01057992, -0.008079666, 0.04308972, 0.0156074865, -0.015965156, -0.038941912, 0.009685962, -0.0124284355, -0.0655492, -0.04365256, -0.022274261, -0.046998948, 0.05684532, 0.046547517, 0.018549647, 0.044089653, 0.03818866, 0.0074367537, 0.05185103, 0.03217394, -0.0027229737, 0.010302122, -0.033156157, -0.010000406, 0.041011643, 0.02303883, 0.0020429657, 0.02064973], "split_indices": [4, 6, 4, 4, 4, 6, 7, 6, 7, 7, 6, 7, 6, 7, 4, 4, 7, 4, 4, 4, 6, 7, 7, 4, 4, 4, 4, 6, 4, 6, 7, 7, 0, 4, 6, 7, 6, 6, 7, 7, 6, 7, 7, 6, 0, 6, 6, 6, 6, 7, 6, 7, 7, 0, 7, 6, 4, 6, 6, 4, 4, 6, 4, 0, 0, 0, 0, 0, 0, 0, 0, 0, 0, 0, 0, 0, 0, 0, 0, 0, 0, 0, 0, 0, 0, 0, 0, 0, 0, 0, 0, 0, 0, 0, 0, 0, 0, 0, 0, 0, 0, 0, 0, 0, 0, 0, 0, 0, 0, 0, 0, 0, 0, 0, 0, 0, 0, 0, 0, 0, 0, 0, 0, 0, 0, 0, 0], "split_type": [0, 0, 0, 0, 0, 0, 0, 0, 0, 0, 0, 0, 0, 0, 0, 0, 0, 0, 0, 0, 0, 0, 0, 0, 0, 0, 0, 0, 0, 0, 0, 0, 0, 0, 0, 0, 0, 0, 0, 0, 0, 0, 0, 0, 0, 0, 0, 0, 0, 0, 0, 0, 0, 0, 0, 0, 0, 0, 0, 0, 0, 0, 0, 0, 0, 0, 0, 0, 0, 0, 0, 0, 0, 0, 0, 0, 0, 0, 0, 0, 0, 0, 0, 0, 0, 0, 0, 0, 0, 0, 0, 0, 0, 0, 0, 0, 0, 0, 0, 0, 0, 0, 0, 0, 0, 0, 0, 0, 0, 0, 0, 0, 0, 0, 0, 0, 0, 0, 0, 0, 0, 0, 0, 0, 0, 0, 0], "sum_hessian": [330330.7, 61540.9, 268789.78, 15042.299, 46498.598, 96916.0, 171873.78, 4036.0537, 11006.245, 36972.734, 9525.863, 43924.043, 52991.96, 81368.85, 90504.92, 511.28326, 3524.7705, 2318.213, 8688.032, 34615.516, 2357.2205, 3511.2732, 6014.59, 18590.701, 25333.342, 42615.434, 10376.527, 45486.426, 35882.426, 49424.297, 41080.63, 167.7896, 343.49365, 3143.5015, 381.2691, 878.5952, 1439.6176, 5232.254, 3455.778, 29201.27, 5414.246, 296.92502, 2060.2954, 1026.7223, 2484.5508, 1205.3337, 4809.2563, 11137.744, 7452.957, 18638.87, 6694.4727, 12999.6045, 29615.828, 4772.549, 5603.978, 13407.17, 32079.256, 19414.938, 16467.488, 40397.957, 9026.341, 20191.166, 20889.46, 161.39322, 6.3963675, 292.021, 51.472652, 2292.2595, 851.24194, 55.857086, 325.412, 467.47058, 411.1246, 942.7504, 496.86713, 2335.6702, 2896.5835, 1681.3011, 1774.4769, 24394.477, 4806.793, 2104.6208, 3309.6252, 230.21335, 66.71167, 1668.966, 391.32935, 465.42554, 561.2968, 2027.3217, 457.22916, 597.7258, 607.60785, 2287.979, 2521.277, 4571.412, 6566.3325, 4926.953, 2526.0044, 6038.175, 12600.694, 2931.4365, 3763.0364, 3383.5806, 9616.024, 9157.299, 20458.53, 3917.97, 854.5791, 2839.5952, 2764.3828, 5220.6133, 8186.5566, 7484.159, 24595.096, 7803.5366, 11611.4, 3447.152, 13020.337, 26357.807, 14040.149, 3437.341, 5588.9995, 4609.5884, 15581.577, 16691.584, 4197.8784], "tree_param": {"num_deleted": "0", "num_feature": "8", "num_nodes": "127", "size_leaf_vector": "1"}}, {"base_weights": [-0.0008244844, -0.44938865, 0.12157701, -0.15528435, -0.58024144, 0.30516148, 0.052841153, -0.47201732, 0.025769563, -0.64555246, -0.40686142, 0.17445266, 0.3841436, -0.17741692, 0.12855913, -0.31686246, -0.595325, 0.24440186, -0.092734806, -0.6608458, -0.40550646, -0.23491634, -0.53818077, 0.34846586, 0.035398457, 0.50975883, 0.35089475, -0.05824787, -0.37472793, 0.265815, 0.04586752, -0.57077813, -0.18547843, -0.61603296, -0.19664115, 0.3638073, 0.11171665, -0.33144557, -0.029589918, -0.58114785, -0.67592806, 0.22852078, -0.44597024, -0.1603688, -0.3199142, -0.30059525, -0.59638387, 0.28549734, 0.44038478, -0.10461642, 0.12391412, 0.5607703, 0.4696174, 0.16734746, 0.4100208, -0.16437063, 0.033325795, -0.52204174, -0.28380594, 0.15744622, 0.32538143, -0.07361469, 0.11453638, -0.061165083, 0.039110716, 0.013539887, -0.027834544, -0.06659983, -0.047883507, -0.029194882, 0.041143447, 0.02758932, 0.05005468, -0.013719442, 0.022381652, -0.021711385, -0.04968774, 0.015074844, -0.009449965, -0.06484204, -0.03804016, -0.06882455, -0.059037603, 0.013963428, 0.09098067, -0.052462902, -0.023354286, -0.02888672, -0.0070340494, -0.06318246, -0.028867522, -0.046036262, -0.021505652, -0.05139966, -0.06453892, 0.049299028, 0.018049097, 0.04975519, 0.03245747, -0.0048442963, -0.03389807, 0.0192928, -0.0009800403, 0.049965702, 0.060896475, 0.03411765, 0.054180946, 0.02157964, 0.0042487294, 0.047560457, 0.03660894, -0.0037084387, -0.021728396, 0.027755609, -0.0025051867, -0.044928282, -0.06484104, -0.024215788, -0.052355446, 0.034988258, 0.00402267, 0.044408627, 0.02763382, -0.0047478857, -0.022254279, 0.021712065, 0.0020298471], "categories": [], "categories_nodes": [], "categories_segments": [], "categories_sizes": [], "default_left": [0, 0, 0, 0, 0, 0, 0, 0, 0, 0, 0, 0, 0, 0, 0, 0, 0, 0, 0, 0, 0, 0, 0, 0, 0, 0, 0, 0, 0, 0, 0, 0, 0, 0, 0, 0, 0, 0, 0, 0, 0, 0, 0, 0, 0, 0, 0, 0, 0, 0, 0, 0, 0, 0, 0, 0, 0, 0, 0, 0, 0, 0, 0, 0, 0, 0, 0, 0, 0, 0, 0, 0, 0, 0, 0, 0, 0, 0, 0, 0, 0, 0, 0, 0, 0, 0, 0, 0, 0, 0, 0, 0, 0, 0, 0, 0, 0, 0, 0, 0, 0, 0, 0, 0, 0, 0, 0, 0, 0, 0, 0, 0, 0, 0, 0, 0, 0, 0, 0, 0, 0, 0, 0, 0, 0, 0, 0], "id": 7, "left_children": [1, 3, 5, 7, 9, 11, 13, 15, 17, 19, 21, 23, 25, 27, 29, 31, 33, 35, 37, 39, 41, 43, 45, 47, 49, 51, 53, 55, 57, 59, 61, 63, 65, 67, 69, 71, 73, 75, 77, 79, 81, 83, 85, 87, 89, 91, 93, 95, 97, 99, 101, 103, 105, 107, 109, 111, 113, 115, 117, 119, 121, 123, 125, -1, -1, -1, -1, -1, -1, -1, -1, -1, -1, -1, -1, -1, -1, -1, -1, -1, -1, -1, -1, -1, -1, -1, -1, -1, -1, -1, -1, -1, -1, -1, -1, -1, -1, -1, -1, -1, -1, -1, -1, -1, -1, -1, -1, -1, -1, -1, -1, -1, -1, -1, -1, -1, -1, -1, -1, -1, -1, -1, -1, -1, -1, -1, -1], "loss_changes": [17895.727, 2688.962, 3231.2444, 1233.9163, 547.3252, 720.0713, 3248.2996, 149.5393, 354.7616, 128.67773, 298.7046, 635.79877, 181.42236, 1084.0782, 1591.3198, 115.577484, 35.87024, 76.21289, 133.8389, 39.29785, 54.14026, 36.27234, 103.573, 67.425415, 181.03587, 18.36621, 373.08105, 279.3606, 232.38232, 340.2119, 717.8845, 46.70807, 68.17915, 28.087036, 12.68012, 30.309692, 63.681656, 35.024353, 82.22761, 70.807495, 28.844727, 7.565148, 32.967102, 35.333313, 25.90683, 20.105042, 23.99585, 150.88068, 31.238953, 74.47037, 82.587906, 11.481079, 47.082275, 50.679276, 74.75342, 89.67313, 220.02428, 60.616943, 107.085205, 421.7806, 197.89624, 124.28648, 537.14166, 0.0, 0.0, 0.0, 0.0, 0.0, 0.0, 0.0, 0.0, 0.0, 0.0, 0.0, 0.0, 0.0, 0.0, 0.0, 0.0, 0.0, 0.0, 0.0, 0.0, 0.0, 0.0, 0.0, 0.0, 0.0, 0.0, 0.0, 0.0, 0.0, 0.0, 0.0, 0.0, 0.0, 0.0, 0.0, 0.0, 0.0, 0.0, 0.0, 0.0, 0.0, 0.0, 0.0, 0.0, 0.0, 0.0, 0.0, 0.0, 0.0, 0.0, 0.0, 0.0, 0.0, 0.0, 0.0, 0.0, 0.0, 0.0, 0.0, 0.0, 0.0, 0.0, 0.0, 0.0], "parents": [2147483647, 0, 0, 1, 1, 2, 2, 3, 3, 4, 4, 5, 5, 6, 6, 7, 7, 8, 8, 9, 9, 10, 10, 11, 11, 12, 12, 13, 13, 14, 14, 15, 15, 16, 16, 17, 17, 18, 18, 19, 19, 20, 20, 21, 21, 22, 22, 23, 23, 24, 24, 25, 25, 26, 26, 27, 27, 28, 28, 29, 29, 30, 30, 31, 31, 32, 32, 33, 33, 34, 34, 35, 35, 36, 36, 37, 37, 38, 38, 39, 39, 40, 40, 41, 41, 42, 42, 43, 43, 44, 44, 45, 45, 46, 46, 47, 47, 48, 48, 49, 49, 50, 50, 51, 51, 52, 52, 53, 53, 54, 54, 55, 55, 56, 56, 57, 57, 58, 58, 59, 59, 60, 60, 61, 61, 62, 62], "right_children": [2, 4, 6, 8, 10, 12, 14, 16, 18, 20, 22, 24, 26, 28, 30, 32, 34, 36, 38, 40, 42, 44, 46, 48, 50, 52, 54, 56, 58, 60, 62, 64, 66, 68, 70, 72, 74, 76, 78, 80, 82, 84, 86, 88, 90, 92, 94, 96, 98, 100, 102, 104, 106, 108, 110, 112, 114, 116, 118, 120, 122, 124, 126, -1, -1, -1, -1, -1, -1, -1, -1, -1, -1, -1, -1, -1, -1, -1, -1, -1, -1, -1, -1, -1, -1, -1, -1, -1, -1, -1, -1, -1, -1, -1, -1, -1, -1, -1, -1, -1, -1, -1, -1, -1, -1, -1, -1, -1, -1, -1, -1, -1, -1, -1, -1, -1, -1, -1, -1, -1, -1, -1, -1, -1, -1, -1, -1], "split_conditions": [0.79764116, 0.8294554, 0.780605, 0.7566493, 0.7756904, 0.8316354, 0.8392469, 0.802536, 0.74292177, 0.8385575, 0.8523883, 0.83715653, 0.85476685, 0.8723926, 0.8182049, 0.723749, 0.780605, 0.802536, 0.7708585, 0.8440866, 0.88050735, 0.7721706, 0.7587572, 0.8153426, 0.812999, 0.8446295, 0.85373676, 0.82150126, 0.82197285, 0.8588669, 0.87007725, 0.7625261, 0.7169253, 0.7411864, 0.79457736, 0.7814208, 0.77228403, 0.8116494, 0.7535439, 0.75924516, 0.8145571, 24.6511, 0.8650907, 0.7861611, 0.780809, 0.7832266, 0.8685851, 0.81486833, 0.83036864, 0.8745388, 0.8641311, 0.8366709, 0.84453994, 0.8788622, 0.8788622, 0.84114766, 0.8452755, 0.8945296, 0.9071276, 0.8671499, 0.88488764, 0.90852934, 0.8480523, -0.061165083, 0.039110716, 0.013539887, -0.027834544, -0.06659983, -0.047883507, -0.029194882, 0.041143447, 0.02758932, 0.05005468, -0.013719442, 0.022381652, -0.021711385, -0.04968774, 0.015074844, -0.009449965, -0.06484204, -0.03804016, -0.06882455, -0.059037603, 0.013963428, 0.09098067, -0.052462902, -0.023354286, -0.02888672, -0.0070340494, -0.06318246, -0.028867522, -0.046036262, -0.021505652, -0.05139966, -0.06453892, 0.049299028, 0.018049097, 0.04975519, 0.03245747, -0.0048442963, -0.03389807, 0.0192928, -0.0009800403, 0.049965702, 0.060896475, 0.03411765, 0.054180946, 0.02157964, 0.0042487294, 0.047560457, 0.03660894, -0.0037084387, -0.021728396, 0.027755609, -0.0025051867, -0.044928282, -0.06484104, -0.024215788, -0.052355446, 0.034988258, 0.00402267, 0.044408627, 0.02763382, -0.0047478857, -0.022254279, 0.021712065, 0.0020298471], "split_indices": [4, 6, 7, 4, 4, 4, 4, 6, 7, 7, 6, 6, 6, 6, 7, 4, 7, 6, 4, 6, 6, 7, 7, 4, 4, 6, 4, 4, 4, 4, 4, 7, 7, 4, 7, 4, 4, 6, 7, 4, 7, 3, 7, 4, 4, 4, 6, 6, 6, 6, 6, 4, 4, 6, 6, 6, 6, 6, 6, 6, 6, 6, 7, 0, 0, 0, 0, 0, 0, 0, 0, 0, 0, 0, 0, 0, 0, 0, 0, 0, 0, 0, 0, 0, 0, 0, 0, 0, 0, 0, 0, 0, 0, 0, 0, 0, 0, 0, 0, 0, 0, 0, 0, 0, 0, 0, 0, 0, 0, 0, 0, 0, 0, 0, 0, 0, 0, 0, 0, 0, 0, 0, 0, 0, 0, 0, 0], "split_type": [0, 0, 0, 0, 0, 0, 0, 0, 0, 0, 0, 0, 0, 0, 0, 0, 0, 0, 0, 0, 0, 0, 0, 0, 0, 0, 0, 0, 0, 0, 0, 0, 0, 0, 0, 0, 0, 0, 0, 0, 0, 0, 0, 0, 0, 0, 0, 0, 0, 0, 0, 0, 0, 0, 0, 0, 0, 0, 0, 0, 0, 0, 0, 0, 0, 0, 0, 0, 0, 0, 0, 0, 0, 0, 0, 0, 0, 0, 0, 0, 0, 0, 0, 0, 0, 0, 0, 0, 0, 0, 0, 0, 0, 0, 0, 0, 0, 0, 0, 0, 0, 0, 0, 0, 0, 0, 0, 0, 0, 0, 0, 0, 0, 0, 0, 0, 0, 0, 0, 0, 0, 0, 0, 0, 0, 0, 0], "sum_hessian": [325938.28, 69872.87, 256065.42, 21515.928, 48356.934, 69755.13, 186310.28, 7825.14, 13690.788, 35123.457, 13233.479, 26275.152, 43479.98, 46104.703, 140205.58, 3466.6782, 4358.462, 4811.972, 8878.816, 33018.117, 2105.3386, 5731.5586, 7501.9194, 11669.888, 14605.266, 9096.98, 34383.0, 28745.006, 17359.7, 52710.957, 87494.625, 1180.9681, 2285.71, 4142.7393, 215.72264, 2531.8132, 2280.159, 1856.4619, 7022.354, 5260.421, 27757.697, 126.02369, 1979.3148, 3055.0273, 2676.5315, 1477.3853, 6024.534, 6928.0034, 4741.884, 5656.919, 8948.347, 4000.3704, 5096.6104, 8378.168, 26004.834, 13314.417, 15430.588, 6623.467, 10736.231, 18697.814, 34013.145, 31932.592, 55562.035, 1133.1809, 47.7873, 512.93634, 1772.7737, 3033.9639, 1108.7754, 186.9419, 28.780746, 1542.871, 988.9423, 707.9576, 1572.2014, 1099.1442, 757.3178, 1858.2542, 5164.1, 3938.3875, 1322.0333, 24258.064, 3499.6343, 112.545044, 13.478647, 1443.3817, 535.9331, 1257.6958, 1797.3317, 241.9108, 2434.6206, 513.6392, 963.746, 2251.2463, 3773.2878, 2326.7139, 4601.2896, 3172.5347, 1569.349, 4564.1665, 1092.7526, 5901.811, 3046.536, 1768.7991, 2231.5713, 1835.9305, 3260.6797, 6035.5083, 2342.6597, 10427.751, 15577.082, 3910.1104, 9404.307, 2976.0698, 12454.519, 4206.219, 2417.2478, 9148.929, 1587.3026, 7077.263, 11620.551, 9941.811, 24071.334, 27166.398, 4766.194, 26602.322, 28959.71], "tree_param": {"num_deleted": "0", "num_feature": "8", "num_nodes": "127", "size_leaf_vector": "1"}}, {"base_weights": [0.0003785931, -0.4969392, 0.103457496, -0.20186639, -0.60572994, -0.06927442, 0.16341111, -0.44131142, 0.0027360874, -0.6391784, -0.49259093, 0.18220118, -0.21897505, 0.32094434, 0.06064502, -0.5918281, -0.31537938, 0.31091246, -0.07612216, -0.6555345, -0.40252227, -0.34679624, -0.5966909, 0.32250288, 0.04879784, -0.13098477, -0.43271634, 0.44980025, 0.29177877, -0.07892283, 0.12385912, -0.64145696, -0.3177013, -0.09048913, -0.43643314, 0.4093371, 0.105391175, 0.059366982, -0.15619062, -0.66951567, -0.6093299, -0.032841936, -0.4580724, -0.039426442, -0.39569873, -0.45054194, -0.6440662, 0.38466385, 0.20327085, -0.011730851, 0.26376656, -0.3059107, -0.06357793, -0.15018934, -0.46248296, 0.3484078, 0.48781958, 0.12831873, 0.3573408, -0.013066038, -0.23241769, 0.23306744, 0.043970402, -0.042233422, -0.06633661, 0.00087445596, -0.05068813, 0.016743911, -0.020085251, -0.045881692, 0.008638658, 0.031936504, 0.05502509, -0.00068952044, 0.050368942, -0.004598563, 0.024499457, -0.042863905, -0.0103754345, -0.06820825, -0.062177893, -0.040428136, -0.06530603, 0.037325155, -0.012356176, -0.054164775, -0.014349646, -0.024031501, 0.005637257, -0.042510428, -0.016032223, -0.06523373, -0.03591576, -0.05624302, -0.06716238, 0.03003171, 0.04722113, 0.0063198693, 0.029312951, -0.0055832467, 0.017130878, 0.0471655, 0.017311666, -0.016104817, -0.04156239, 0.0075494233, -0.014554429, -0.034948077, -0.0032843675, -0.058079053, -0.038914483, 0.053171344, 0.025212748, 0.053762194, 0.04378381, 0.019838529, 0.0026924356, 0.043583788, 0.029822469, 0.012943878, -0.004128521, -0.032527022, -0.01626329, 0.020569248, 0.037068814, -0.00034842454, 0.019053383], "categories": [], "categories_nodes": [], "categories_segments": [], "categories_sizes": [], "default_left": [0, 0, 0, 0, 0, 0, 0, 0, 0, 0, 0, 0, 0, 0, 0, 0, 0, 0, 0, 0, 0, 0, 0, 0, 0, 0, 0, 0, 0, 0, 0, 0, 0, 0, 0, 0, 0, 0, 0, 0, 0, 0, 0, 0, 0, 0, 0, 0, 0, 0, 0, 0, 0, 0, 0, 0, 0, 0, 0, 0, 0, 0, 0, 0, 0, 0, 0, 0, 0, 0, 0, 0, 0, 0, 0, 0, 0, 0, 0, 0, 0, 0, 0, 0, 0, 0, 0, 0, 0, 0, 0, 0, 0, 0, 0, 0, 0, 0, 0, 0, 0, 0, 0, 0, 0, 0, 0, 0, 0, 0, 0, 0, 0, 0, 0, 0, 0, 0, 0, 0, 0, 0, 0, 0, 0, 0, 0], "id": 8, "left_children": [1, 3, 5, 7, 9, 11, 13, 15, 17, 19, 21, 23, 25, 27, 29, 31, 33, 35, 37, 39, 41, 43, 45, 47, 49, 51, 53, 55, 57, 59, 61, 63, 65, 67, 69, 71, 73, 75, 77, 79, 81, 83, 85, 87, 89, 91, 93, 95, 97, 99, 101, 103, 105, 107, 109, 111, 113, 115, 117, 119, 121, 123, 125, -1, -1, -1, -1, -1, -1, -1, -1, -1, -1, -1, -1, -1, -1, -1, -1, -1, -1, -1, -1, -1, -1, -1, -1, -1, -1, -1, -1, -1, -1, -1, -1, -1, -1, -1, -1, -1, -1, -1, -1, -1, -1, -1, -1, -1, -1, -1, -1, -1, -1, -1, -1, -1, -1, -1, -1, -1, -1, -1, -1, -1, -1, -1, -1], "loss_changes": [16536.375, 1777.7041, 2767.0815, 730.94794, 152.81055, 2591.8442, 3211.1118, 130.12158, 195.56812, 120.60742, 139.98853, 480.8349, 811.5979, 294.1665, 1059.115, 42.385498, 101.917786, 33.12407, 69.52275, 18.458984, 41.493042, 57.860107, 37.014404, 92.7262, 171.37358, 360.47125, 105.76709, 55.53833, 684.312, 378.28784, 720.82983, 12.440186, 29.762684, 37.37441, 28.528412, 13.87616, 23.80975, 46.57215, 57.4982, 13.019531, 60.672607, 9.813515, 46.118683, 10.206056, 22.922974, 24.149902, 8.77063, 60.627197, 54.017273, 82.975006, 54.449814, 135.08716, 251.59253, 28.075504, 98.55371, 69.48276, 25.92041, 129.87875, 211.36816, 105.31681, 72.749146, 131.42615, 331.8832, 0.0, 0.0, 0.0, 0.0, 0.0, 0.0, 0.0, 0.0, 0.0, 0.0, 0.0, 0.0, 0.0, 0.0, 0.0, 0.0, 0.0, 0.0, 0.0, 0.0, 0.0, 0.0, 0.0, 0.0, 0.0, 0.0, 0.0, 0.0, 0.0, 0.0, 0.0, 0.0, 0.0, 0.0, 0.0, 0.0, 0.0, 0.0, 0.0, 0.0, 0.0, 0.0, 0.0, 0.0, 0.0, 0.0, 0.0, 0.0, 0.0, 0.0, 0.0, 0.0, 0.0, 0.0, 0.0, 0.0, 0.0, 0.0, 0.0, 0.0, 0.0, 0.0, 0.0, 0.0], "parents": [2147483647, 0, 0, 1, 1, 2, 2, 3, 3, 4, 4, 5, 5, 6, 6, 7, 7, 8, 8, 9, 9, 10, 10, 11, 11, 12, 12, 13, 13, 14, 14, 15, 15, 16, 16, 17, 17, 18, 18, 19, 19, 20, 20, 21, 21, 22, 22, 23, 23, 24, 24, 25, 25, 26, 26, 27, 27, 28, 28, 29, 29, 30, 30, 31, 31, 32, 32, 33, 33, 34, 34, 35, 35, 36, 36, 37, 37, 38, 38, 39, 39, 40, 40, 41, 41, 42, 42, 43, 43, 44, 44, 45, 45, 46, 46, 47, 47, 48, 48, 49, 49, 50, 50, 51, 51, 52, 52, 53, 53, 54, 54, 55, 55, 56, 56, 57, 57, 58, 58, 59, 59, 60, 60, 61, 61, 62, 62], "right_children": [2, 4, 6, 8, 10, 12, 14, 16, 18, 20, 22, 24, 26, 28, 30, 32, 34, 36, 38, 40, 42, 44, 46, 48, 50, 52, 54, 56, 58, 60, 62, 64, 66, 68, 70, 72, 74, 76, 78, 80, 82, 84, 86, 88, 90, 92, 94, 96, 98, 100, 102, 104, 106, 108, 110, 112, 114, 116, 118, 120, 122, 124, 126, -1, -1, -1, -1, -1, -1, -1, -1, -1, -1, -1, -1, -1, -1, -1, -1, -1, -1, -1, -1, -1, -1, -1, -1, -1, -1, -1, -1, -1, -1, -1, -1, -1, -1, -1, -1, -1, -1, -1, -1, -1, -1, -1, -1, -1, -1, -1, -1, -1, -1, -1, -1, -1, -1, -1, -1, -1, -1, -1, -1, -1, -1, -1, -1], "split_conditions": [0.7861611, 0.8245959, 0.8301498, 0.757519, 0.7633822, 0.8423856, 0.803571, 0.723749, 0.79059106, 0.8379377, 0.8495368, 0.7641827, 0.87751096, 0.85610974, 0.86023206, 0.7625261, 0.78641725, 0.7413663, 0.74655145, 0.7969095, 0.88754416, 0.73882, 0.75410455, 0.82770896, 0.81913066, 0.8062228, 0.7613845, 0.8356441, 0.85498124, 0.8913214, 0.83555984, 0.77082276, 0.8131258, 0.7169253, 12.859099, 0.7743608, 0.7795654, 0.7770083, 0.7664957, 0.7411864, 0.86675376, 0.87349445, 0.872262, 7.4846, 9.284, 0.77016145, 0.8609345, 0.8042501, 0.8076939, 9.0431, 0.83036864, 0.7752227, 0.78391457, 0.80573565, 0.8110865, 0.8358557, 0.84847367, 0.87647927, 0.88416684, 0.8609345, 0.8478613, 0.90490955, 0.90490955, -0.042233422, -0.06633661, 0.00087445596, -0.05068813, 0.016743911, -0.020085251, -0.045881692, 0.008638658, 0.031936504, 0.05502509, -0.00068952044, 0.050368942, -0.004598563, 0.024499457, -0.042863905, -0.0103754345, -0.06820825, -0.062177893, -0.040428136, -0.06530603, 0.037325155, -0.012356176, -0.054164775, -0.014349646, -0.024031501, 0.005637257, -0.042510428, -0.016032223, -0.06523373, -0.03591576, -0.05624302, -0.06716238, 0.03003171, 0.04722113, 0.0063198693, 0.029312951, -0.0055832467, 0.017130878, 0.0471655, 0.017311666, -0.016104817, -0.04156239, 0.0075494233, -0.014554429, -0.034948077, -0.0032843675, -0.058079053, -0.038914483, 0.053171344, 0.025212748, 0.053762194, 0.04378381, 0.019838529, 0.0026924356, 0.043583788, 0.029822469, 0.012943878, -0.004128521, -0.032527022, -0.01626329, 0.020569248, 0.037068814, -0.00034842454, 0.019053383], "split_indices": [4, 6, 4, 4, 4, 6, 7, 4, 6, 7, 6, 7, 6, 6, 4, 7, 6, 7, 7, 7, 6, 7, 7, 6, 4, 4, 7, 4, 4, 6, 7, 6, 6, 7, 0, 4, 4, 4, 4, 4, 6, 6, 7, 3, 0, 4, 6, 4, 4, 0, 6, 7, 7, 4, 4, 6, 6, 6, 6, 6, 4, 4, 4, 0, 0, 0, 0, 0, 0, 0, 0, 0, 0, 0, 0, 0, 0, 0, 0, 0, 0, 0, 0, 0, 0, 0, 0, 0, 0, 0, 0, 0, 0, 0, 0, 0, 0, 0, 0, 0, 0, 0, 0, 0, 0, 0, 0, 0, 0, 0, 0, 0, 0, 0, 0, 0, 0, 0, 0, 0, 0, 0, 0, 0, 0, 0, 0], "split_type": [0, 0, 0, 0, 0, 0, 0, 0, 0, 0, 0, 0, 0, 0, 0, 0, 0, 0, 0, 0, 0, 0, 0, 0, 0, 0, 0, 0, 0, 0, 0, 0, 0, 0, 0, 0, 0, 0, 0, 0, 0, 0, 0, 0, 0, 0, 0, 0, 0, 0, 0, 0, 0, 0, 0, 0, 0, 0, 0, 0, 0, 0, 0, 0, 0, 0, 0, 0, 0, 0, 0, 0, 0, 0, 0, 0, 0, 0, 0, 0, 0, 0, 0, 0, 0, 0, 0, 0, 0, 0, 0, 0, 0, 0, 0, 0, 0, 0, 0, 0, 0, 0, 0, 0, 0, 0, 0, 0, 0, 0, 0, 0, 0, 0, 0, 0, 0, 0, 0, 0, 0, 0, 0, 0, 0, 0, 0], "sum_hessian": [322577.34, 55380.92, 267196.4, 14919.007, 40461.918, 68845.63, 198350.78, 6873.6543, 8045.3525, 31225.697, 9236.22, 25689.965, 43155.668, 78307.99, 120042.79, 3129.5042, 3744.1501, 1638.6398, 6406.713, 29205.438, 2020.2579, 3849.3867, 5386.8335, 12520.55, 13169.414, 30571.852, 12583.818, 14450.423, 63857.566, 37421.387, 82621.41, 2648.6443, 480.86, 1310.7754, 2433.3748, 1107.3403, 531.2995, 2379.8574, 4026.8557, 22410.66, 6794.7793, 264.1249, 1756.133, 528.62054, 3320.766, 1321.2863, 4065.5474, 8228.461, 4292.089, 10276.74, 2892.6736, 8502.825, 22069.025, 1200.018, 11383.801, 3943.581, 10506.842, 18281.328, 45576.24, 26186.979, 11234.408, 34904.65, 47716.758, 242.59753, 2406.0466, 176.77454, 304.08545, 392.636, 918.13947, 2333.588, 99.78681, 677.8232, 429.51712, 415.22412, 116.07536, 1518.6835, 861.1739, 648.775, 3378.0806, 17729.934, 4680.726, 1196.1879, 5598.5913, 47.661427, 216.46347, 1386.9354, 369.1976, 170.20197, 358.41855, 2951.2598, 369.5064, 409.93268, 911.3536, 1031.4392, 3034.1082, 4193.0947, 4035.3667, 1678.0455, 2614.0435, 8281.975, 1994.766, 877.072, 2015.6016, 3665.4824, 4837.343, 8183.751, 13885.274, 443.99335, 756.0246, 4353.6562, 7030.1445, 1356.484, 2587.0972, 5257.966, 5248.8755, 10810.199, 7471.1284, 19575.992, 26000.248, 4327.8833, 21859.094, 4818.9155, 6415.492, 29115.586, 5789.0625, 36046.508, 11670.247], "tree_param": {"num_deleted": "0", "num_feature": "8", "num_nodes": "127", "size_leaf_vector": "1"}}, {"base_weights": [-0.0009082754, -0.45043737, 0.10309749, -0.16407625, -0.5640642, 0.28633338, 0.0495492, -0.4710752, -0.015421144, -0.61214495, -0.39856413, 0.118979596, 0.33842963, -0.15649426, 0.11763746, -0.19876578, -0.53840727, 0.18607992, -0.12424262, -0.62090594, -0.23628375, -0.2736855, -0.5419426, 0.31056133, -0.048640065, 0.43515354, 0.30734116, -0.069219954, -0.3704419, 0.23600273, 0.035431538, -0.5150255, -0.072928466, -0.55624294, 0.0060687126, 0.07640397, 0.3085775, -0.35238504, -0.04864239, -0.63630396, -0.54076546, 0.64738804, -0.28276914, -0.15666872, -0.35656163, -0.03306352, -0.5564821, 0.42583594, 0.19644353, 0.047482662, -0.1699835, 0.37598655, 0.5090684, 0.13532668, 0.37518588, -0.20257717, -0.010068912, -0.5121898, -0.27564663, 0.13062209, 0.2848494, -0.024053179, 0.16695985, -0.056365844, 0.08785701, -0.012144774, 0.040222198, -0.059270333, -0.037940755, 0.030816874, -0.02297882, 0.02750023, -0.0033223915, 0.043837484, 0.02279012, -0.013847629, -0.043878846, -0.009110155, 0.02156691, -0.06560919, -0.05622987, -0.026258156, -0.05842958, -0.049395006, 0.06982907, -0.009947472, -0.042063583, 0.004393842, -0.019811703, -0.03934171, -0.012555136, -0.05711149, 0.010922364, -0.04806092, -0.06163148, 0.034880172, 0.052725937, 0.016115047, 0.0363408, 0.016489891, -0.00268215, -0.013432385, -0.04713502, 0.046927802, 0.02697554, 0.055633068, 0.04738714, 0.016088527, -0.0032974337, 0.04360343, 0.030473685, -0.007673648, -0.029281992, 0.017028488, -0.007321215, -0.045883607, -0.06285922, -0.017458757, -0.03984241, 0.03296304, 0.0016426471, 0.040851224, 0.023781238, -0.012885282, 0.0021577205, 0.024551751, 0.005185268], "categories": [], "categories_nodes": [], "categories_segments": [], "categories_sizes": [], "default_left": [0, 0, 0, 0, 0, 0, 0, 0, 0, 0, 0, 0, 0, 0, 0, 0, 0, 0, 0, 0, 0, 0, 0, 0, 0, 0, 0, 0, 0, 0, 0, 0, 0, 0, 0, 0, 0, 0, 0, 0, 0, 0, 0, 0, 0, 0, 0, 0, 0, 0, 0, 0, 0, 0, 0, 0, 0, 0, 0, 0, 0, 0, 0, 0, 0, 0, 0, 0, 0, 0, 0, 0, 0, 0, 0, 0, 0, 0, 0, 0, 0, 0, 0, 0, 0, 0, 0, 0, 0, 0, 0, 0, 0, 0, 0, 0, 0, 0, 0, 0, 0, 0, 0, 0, 0, 0, 0, 0, 0, 0, 0, 0, 0, 0, 0, 0, 0, 0, 0, 0, 0, 0, 0, 0, 0, 0, 0], "id": 9, "left_children": [1, 3, 5, 7, 9, 11, 13, 15, 17, 19, 21, 23, 25, 27, 29, 31, 33, 35, 37, 39, 41, 43, 45, 47, 49, 51, 53, 55, 57, 59, 61, 63, 65, 67, 69, 71, 73, 75, 77, 79, 81, 83, 85, 87, 89, 91, 93, 95, 97, 99, 101, 103, 105, 107, 109, 111, 113, 115, 117, 119, 121, 123, 125, -1, -1, -1, -1, -1, -1, -1, -1, -1, -1, -1, -1, -1, -1, -1, -1, -1, -1, -1, -1, -1, -1, -1, -1, -1, -1, -1, -1, -1, -1, -1, -1, -1, -1, -1, -1, -1, -1, -1, -1, -1, -1, -1, -1, -1, -1, -1, -1, -1, -1, -1, -1, -1, -1, -1, -1, -1, -1, -1, -1, -1, -1, -1, -1], "loss_changes": [14899.44, 1948.2354, 2539.3425, 776.3364, 340.86816, 510.23047, 2809.7131, 101.64978, 251.36794, 109.228516, 172.68982, 446.24326, 134.07715, 928.8096, 1464.7185, 43.811356, 43.20813, 53.98488, 128.36545, 39.708984, 31.32835, 49.999207, 33.22229, 85.21875, 86.46246, 47.276123, 394.16943, 278.7126, 193.51941, 317.54663, 695.05286, 21.739197, 18.246637, 27.550415, 10.196151, 46.215958, 19.781982, 34.177856, 62.775585, 39.49414, 63.276123, 2.563982, 18.17812, 17.816814, 25.668854, 9.698002, 19.532349, 25.013489, 19.154175, 36.09491, 35.14785, 59.654846, 7.758911, 41.112, 103.71094, 123.26672, 278.76495, 35.575073, 107.11853, 444.1123, 245.10962, 292.53052, 250.15186, 0.0, 0.0, 0.0, 0.0, 0.0, 0.0, 0.0, 0.0, 0.0, 0.0, 0.0, 0.0, 0.0, 0.0, 0.0, 0.0, 0.0, 0.0, 0.0, 0.0, 0.0, 0.0, 0.0, 0.0, 0.0, 0.0, 0.0, 0.0, 0.0, 0.0, 0.0, 0.0, 0.0, 0.0, 0.0, 0.0, 0.0, 0.0, 0.0, 0.0, 0.0, 0.0, 0.0, 0.0, 0.0, 0.0, 0.0, 0.0, 0.0, 0.0, 0.0, 0.0, 0.0, 0.0, 0.0, 0.0, 0.0, 0.0, 0.0, 0.0, 0.0, 0.0, 0.0, 0.0], "parents": [2147483647, 0, 0, 1, 1, 2, 2, 3, 3, 4, 4, 5, 5, 6, 6, 7, 7, 8, 8, 9, 9, 10, 10, 11, 11, 12, 12, 13, 13, 14, 14, 15, 15, 16, 16, 17, 17, 18, 18, 19, 19, 20, 20, 21, 21, 22, 22, 23, 23, 24, 24, 25, 25, 26, 26, 27, 27, 28, 28, 29, 29, 30, 30, 31, 31, 32, 32, 33, 33, 34, 34, 35, 35, 36, 36, 37, 37, 38, 38, 39, 39, 40, 40, 41, 41, 42, 42, 43, 43, 44, 44, 45, 45, 46, 46, 47, 47, 48, 48, 49, 49, 50, 50, 51, 51, 52, 52, 53, 53, 54, 54, 55, 55, 56, 56, 57, 57, 58, 58, 59, 59, 60, 60, 61, 61, 62, 62], "right_children": [2, 4, 6, 8, 10, 12, 14, 16, 18, 20, 22, 24, 26, 28, 30, 32, 34, 36, 38, 40, 42, 44, 46, 48, 50, 52, 54, 56, 58, 60, 62, 64, 66, 68, 70, 72, 74, 76, 78, 80, 82, 84, 86, 88, 90, 92, 94, 96, 98, 100, 102, 104, 106, 108, 110, 112, 114, 116, 118, 120, 122, 124, 126, -1, -1, -1, -1, -1, -1, -1, -1, -1, -1, -1, -1, -1, -1, -1, -1, -1, -1, -1, -1, -1, -1, -1, -1, -1, -1, -1, -1, -1, -1, -1, -1, -1, -1, -1, -1, -1, -1, -1, -1, -1, -1, -1, -1, -1, -1, -1, -1, -1, -1, -1, -1, -1, -1, -1, -1, -1, -1, -1, -1, -1, -1, -1, -1], "split_conditions": [0.7917842, 0.82559335, 0.77316844, 0.7490545, 0.77367985, 0.8148591, 0.8366709, 0.77952045, 0.7398406, 0.856934, 0.8565595, 0.83036864, 0.84847367, 0.8755709, 0.81774646, 0.72031116, 0.78107184, 0.772977, 0.767236, 0.8093556, 0.8889419, 0.76308036, 0.7292224, 0.81486833, 0.8523883, 0.8311426, 0.8478613, 0.81157285, 0.81913066, 0.85498124, 0.89215827, 18.9824, 10.9783, 0.7411864, 8.9393, 0.78641725, 0.7940877, 0.7940877, 8.9643, 0.75205064, 0.8708861, 0.87849873, 0.916083, 0.7320488, 8.6628, 0.7795654, 0.7709955, 0.8042501, 0.8110865, 0.7501641, 0.8913214, 0.8311399, 0.8404621, 0.88488764, 0.88118845, 0.841788, 0.8452755, 0.89853287, 0.8121344, 0.8633426, 0.88153166, 0.85821223, 0.8601002, -0.056365844, 0.08785701, -0.012144774, 0.040222198, -0.059270333, -0.037940755, 0.030816874, -0.02297882, 0.02750023, -0.0033223915, 0.043837484, 0.02279012, -0.013847629, -0.043878846, -0.009110155, 0.02156691, -0.06560919, -0.05622987, -0.026258156, -0.05842958, -0.049395006, 0.06982907, -0.009947472, -0.042063583, 0.004393842, -0.019811703, -0.03934171, -0.012555136, -0.05711149, 0.010922364, -0.04806092, -0.06163148, 0.034880172, 0.052725937, 0.016115047, 0.0363408, 0.016489891, -0.00268215, -0.013432385, -0.04713502, 0.046927802, 0.02697554, 0.055633068, 0.04738714, 0.016088527, -0.0032974337, 0.04360343, 0.030473685, -0.007673648, -0.029281992, 0.017028488, -0.007321215, -0.045883607, -0.06285922, -0.017458757, -0.03984241, 0.03296304, 0.0016426471, 0.040851224, 0.023781238, -0.012885282, 0.0021577205, 0.024551751, 0.005185268], "split_indices": [4, 6, 7, 4, 4, 4, 4, 6, 7, 7, 6, 6, 6, 6, 7, 4, 7, 4, 4, 7, 6, 7, 7, 6, 6, 4, 4, 4, 4, 4, 4, 0, 0, 4, 3, 6, 6, 6, 0, 4, 6, 6, 6, 7, 0, 4, 7, 4, 4, 7, 6, 6, 6, 6, 6, 6, 6, 6, 7, 6, 6, 4, 7, 0, 0, 0, 0, 0, 0, 0, 0, 0, 0, 0, 0, 0, 0, 0, 0, 0, 0, 0, 0, 0, 0, 0, 0, 0, 0, 0, 0, 0, 0, 0, 0, 0, 0, 0, 0, 0, 0, 0, 0, 0, 0, 0, 0, 0, 0, 0, 0, 0, 0, 0, 0, 0, 0, 0, 0, 0, 0, 0, 0, 0, 0, 0, 0], "split_type": [0, 0, 0, 0, 0, 0, 0, 0, 0, 0, 0, 0, 0, 0, 0, 0, 0, 0, 0, 0, 0, 0, 0, 0, 0, 0, 0, 0, 0, 0, 0, 0, 0, 0, 0, 0, 0, 0, 0, 0, 0, 0, 0, 0, 0, 0, 0, 0, 0, 0, 0, 0, 0, 0, 0, 0, 0, 0, 0, 0, 0, 0, 0, 0, 0, 0, 0, 0, 0, 0, 0, 0, 0, 0, 0, 0, 0, 0, 0, 0, 0, 0, 0, 0, 0, 0, 0, 0, 0, 0, 0, 0, 0, 0, 0, 0, 0, 0, 0, 0, 0, 0, 0, 0, 0, 0, 0, 0, 0, 0, 0, 0, 0, 0, 0, 0, 0, 0, 0, 0, 0, 0, 0, 0, 0, 0, 0], "sum_hessian": [318677.94, 59876.98, 258800.95, 17010.287, 42866.69, 58526.355, 200274.6, 5548.823, 11461.465, 33214.57, 9652.123, 13894.62, 44631.734, 49743.465, 150531.12, 1100.8069, 4448.0166, 4018.9678, 7442.497, 32457.367, 757.2019, 5160.436, 4491.687, 6483.4624, 7411.158, 10852.854, 33778.883, 35332.023, 14411.441, 61695.79, 88835.34, 312.4504, 788.35645, 4306.911, 141.10527, 2121.313, 1897.6547, 1851.4941, 5591.003, 27220.348, 5237.018, 37.19578, 720.00616, 2140.7292, 3019.707, 124.86074, 4366.826, 3224.0242, 3259.4382, 4135.6743, 3275.4836, 6031.1553, 4821.698, 9555.28, 24223.602, 10855.547, 24476.475, 5773.658, 8637.783, 19541.379, 42154.41, 61171.066, 27664.277, 302.48984, 9.960591, 715.9887, 72.367714, 3568.7458, 738.16534, 61.73048, 79.37479, 753.95825, 1367.3549, 725.68744, 1171.9673, 533.4459, 1318.0482, 4817.7344, 773.2684, 21471.367, 5748.9814, 709.55963, 4527.4585, 1.2164603, 35.97932, 309.82022, 410.18594, 366.55707, 1774.1721, 2603.621, 416.08588, 25.48327, 99.37747, 1929.3196, 2437.5066, 1834.8429, 1389.1813, 2692.3027, 567.1355, 1602.3708, 2533.3035, 2930.2083, 345.27548, 3209.328, 2821.8274, 2051.7825, 2769.9158, 8295.543, 1259.7366, 12994.643, 11228.959, 4534.365, 6321.182, 6346.758, 18129.717, 3962.4065, 1811.2518, 4739.274, 3898.5095, 7124.1904, 12417.1875, 11613.701, 30540.707, 18554.646, 42616.418, 16441.945, 11222.332], "tree_param": {"num_deleted": "0", "num_feature": "8", "num_nodes": "127", "size_leaf_vector": "1"}}, {"base_weights": [0.00090367906, -0.5928613, 0.051730264, -0.6148076, -0.33971742, -0.012632849, 0.18437731, -0.63099223, -0.5565898, 0.032588445, -0.4024118, 0.029010445, -0.028146435, 0.2168973, 0.08693016, -0.55499554, -0.6470714, -0.2998233, -0.604466, -0.07066149, 0.39690873, -0.4816256, -0.101741865, 0.081481956, 0.009032834, -0.011442608, -0.04354444, 0.26077038, 0.19773923, 0.111079216, -0.02843883, -0.58875144, -0.13352682, -0.06512975, -0.6164168, -0.3782081, 0.4235499, -0.5541058, -0.66183245, -0.079795904, -0.0202355, 0.6966081, 0.18044184, -0.3654837, -0.5659152, -0.1615003, 0.5712994, 0.07803531, 0.2497202, 0.027283449, -0.009161468, -0.037429143, 0.017599748, -0.08622924, -0.025809893, 0.23247664, 0.30571187, 0.16483429, 0.21607, 0.44136766, 0.10629109, 0.25749603, -0.049231343, -0.062269744, -0.045814347, -0.03259313, 0.022339165, -0.023100585, -0.06283674, -0.0070453114, -0.0477982, -0.025080029, 0.06570324, -0.059202135, -0.046501957, -0.06659251, -0.031124387, 0.05878464, -0.017051026, 0.07906083, -0.053071707, -0.018504824, 0.054163862, -0.044746425, -0.01622533, 0.021555008, -0.057609927, 0.040959712, -0.024816126, 0.06629557, -0.054568227, 0.007894753, -0.050058085, 0.040449888, 0.005997126, 0.0070411833, 0.0013616479, -0.0015748496, 0.0071512978, -0.0022495633, -0.006924306, 0.007503006, 8.4597756e-05, -0.009989213, -0.0029693914, -0.0015549985, -0.006826171, 0.0265287, 0.012465652, 0.034363117, 0.021629054, 0.020912219, 0.009081727, 0.030784814, 0.01913456, 0.022138027, 0.06226602, -0.07162705, 0.0107935695, 0.008813863, 0.049197014, -0.049278762, -0.0030078052], "categories": [], "categories_nodes": [], "categories_segments": [], "categories_sizes": [], "default_left": [0, 0, 0, 0, 0, 0, 0, 0, 0, 0, 0, 0, 0, 0, 0, 0, 0, 0, 0, 0, 0, 0, 0, 0, 0, 0, 0, 0, 0, 0, 0, 0, 0, 0, 0, 0, 0, 0, 0, 0, 0, 0, 0, 0, 0, 0, 0, 0, 0, 0, 0, 0, 0, 0, 0, 0, 0, 0, 0, 0, 0, 0, 0, 0, 0, 0, 0, 0, 0, 0, 0, 0, 0, 0, 0, 0, 0, 0, 0, 0, 0, 0, 0, 0, 0, 0, 0, 0, 0, 0, 0, 0, 0, 0, 0, 0, 0, 0, 0, 0, 0, 0, 0, 0, 0, 0, 0, 0, 0, 0, 0, 0, 0, 0, 0, 0, 0, 0, 0, 0, 0, 0, 0], "id": 10, "left_children": [1, 3, 5, 7, 9, 11, 13, 15, 17, 19, 21, 23, 25, 27, 29, 31, 33, 35, 37, 39, 41, 43, 45, 47, 49, 51, 53, 55, 57, 59, 61, 63, 65, -1, 67, 69, 71, 73, 75, -1, 77, 79, 81, 83, 85, 87, 89, 91, 93, 95, 97, 99, 101, 103, 105, 107, 109, 111, 113, 115, 117, 119, 121, -1, -1, -1, -1, -1, -1, -1, -1, -1, -1, -1, -1, -1, -1, -1, -1, -1, -1, -1, -1, -1, -1, -1, -1, -1, -1, -1, -1, -1, -1, -1, -1, -1, -1, -1, -1, -1, -1, -1, -1, -1, -1, -1, -1, -1, -1, -1, -1, -1, -1, -1, -1, -1, -1, -1, -1, -1, -1, -1, -1], "loss_changes": [9543.076, 138.3125, 2486.8403, 21.266602, 46.495773, 126.70215, 301.54614, 21.568848, 61.275513, 10.85914, 40.546967, 55.799847, 36.751633, 59.91992, 66.34659, 44.60547, 1.5166016, 44.821404, 11.803467, 8.243135, 4.0090647, 12.997253, 14.43822, 8.491882, 12.802538, 51.728634, 56.28105, 27.500732, 29.92273, 31.093979, 24.52229, 12.605896, 16.155205, 0.0, 8.202698, 21.80368, 12.363577, 7.322876, 2.611084, 0.0, 19.438671, 3.4628954, 5.163665, 9.424896, 6.3297424, 16.353802, 3.362236, 7.632309, 8.6167145, 11.344293, 10.261367, 17.184216, 31.143316, 16.854172, 22.877823, 47.053894, 28.32019, 58.244965, 72.31494, 11.071518, 26.33641, 11.060274, 32.641254, 0.0, 0.0, 0.0, 0.0, 0.0, 0.0, 0.0, 0.0, 0.0, 0.0, 0.0, 0.0, 0.0, 0.0, 0.0, 0.0, 0.0, 0.0, 0.0, 0.0, 0.0, 0.0, 0.0, 0.0, 0.0, 0.0, 0.0, 0.0, 0.0, 0.0, 0.0, 0.0, 0.0, 0.0, 0.0, 0.0, 0.0, 0.0, 0.0, 0.0, 0.0, 0.0, 0.0, 0.0, 0.0, 0.0, 0.0, 0.0, 0.0, 0.0, 0.0, 0.0, 0.0, 0.0, 0.0, 0.0, 0.0, 0.0, 0.0, 0.0], "parents": [2147483647, 0, 0, 1, 1, 2, 2, 3, 3, 4, 4, 5, 5, 6, 6, 7, 7, 8, 8, 9, 9, 10, 10, 11, 11, 12, 12, 13, 13, 14, 14, 15, 15, 16, 16, 17, 17, 18, 18, 19, 19, 20, 20, 21, 21, 22, 22, 23, 23, 24, 24, 25, 25, 26, 26, 27, 27, 28, 28, 29, 29, 30, 30, 31, 31, 32, 32, 34, 34, 35, 35, 36, 36, 37, 37, 38, 38, 40, 40, 41, 41, 42, 42, 43, 43, 44, 44, 45, 45, 46, 46, 47, 47, 48, 48, 49, 49, 50, 50, 51, 51, 52, 52, 53, 53, 54, 54, 55, 55, 56, 56, 57, 57, 58, 58, 59, 59, 60, 60, 61, 61, 62, 62], "right_children": [2, 4, 6, 8, 10, 12, 14, 16, 18, 20, 22, 24, 26, 28, 30, 32, 34, 36, 38, 40, 42, 44, 46, 48, 50, 52, 54, 56, 58, 60, 62, 64, 66, -1, 68, 70, 72, 74, 76, -1, 78, 80, 82, 84, 86, 88, 90, 92, 94, 96, 98, 100, 102, 104, 106, 108, 110, 112, 114, 116, 118, 120, 122, -1, -1, -1, -1, -1, -1, -1, -1, -1, -1, -1, -1, -1, -1, -1, -1, -1, -1, -1, -1, -1, -1, -1, -1, -1, -1, -1, -1, -1, -1, -1, -1, -1, -1, -1, -1, -1, -1, -1, -1, -1, -1, -1, -1, -1, -1, -1, -1, -1, -1, -1, -1, -1, -1, -1, -1, -1, -1, -1, -1], "split_conditions": [1.0, 0.837334, 7.5792, 0.8027406, 0.88754416, 11.5534, 0.82448614, 0.83036864, 0.86675376, 0.85035294, 0.872262, 0.75410455, 16.1181, 0.7676193, 0.8650907, 0.7800816, 0.7936843, 0.82600856, 0.89561194, 0.8685851, 0.8798672, 0.9075988, 0.904046, 4.5858, 0.8031666, 9.8153, 12.575961, 14.3593, 11.9684, 5.9352, 8.0075, 0.7594983, 13.340897, -0.06512975, 0.8385039, 0.85103804, 16.483, 0.8230188, 27.6411, -0.079795904, 0.87349445, 0.8589318, 0.85788655, 0.85211366, 4.8610954, 0.9075988, 0.9470029, 0.92858243, 9.8171, 9.2516, 5.552898, 13.5159, 0.76014817, 0.82868844, 25.7025, 15.7511, 0.88118845, 13.1755, 10.4004, 9.2424, 7.6534, 9.0431, 10.5785, -0.062269744, -0.045814347, -0.03259313, 0.022339165, -0.023100585, -0.06283674, -0.0070453114, -0.0477982, -0.025080029, 0.06570324, -0.059202135, -0.046501957, -0.06659251, -0.031124387, 0.05878464, -0.017051026, 0.07906083, -0.053071707, -0.018504824, 0.054163862, -0.044746425, -0.01622533, 0.021555008, -0.057609927, 0.040959712, -0.024816126, 0.06629557, -0.054568227, 0.007894753, -0.050058085, 0.040449888, 0.005997126, 0.0070411833, 0.0013616479, -0.0015748496, 0.0071512978, -0.0022495633, -0.006924306, 0.007503006, 8.4597756e-05, -0.009989213, -0.0029693914, -0.0015549985, -0.006826171, 0.0265287, 0.012465652, 0.034363117, 0.021629054, 0.020912219, 0.009081727, 0.030784814, 0.01913456, 0.022138027, 0.06226602, -0.07162705, 0.0107935695, 0.008813863, 0.049197014, -0.049278762, -0.0030078052], "split_indices": [5, 7, 0, 7, 6, 2, 7, 6, 6, 7, 7, 7, 2, 7, 7, 7, 7, 7, 6, 6, 6, 6, 7, 0, 7, 3, 3, 0, 0, 3, 3, 7, 0, 0, 6, 6, 2, 7, 0, 0, 6, 7, 7, 7, 3, 6, 6, 6, 2, 2, 0, 2, 7, 7, 2, 2, 6, 2, 3, 0, 0, 0, 0, 0, 0, 0, 0, 0, 0, 0, 0, 0, 0, 0, 0, 0, 0, 0, 0, 0, 0, 0, 0, 0, 0, 0, 0, 0, 0, 0, 0, 0, 0, 0, 0, 0, 0, 0, 0, 0, 0, 0, 0, 0, 0, 0, 0, 0, 0, 0, 0, 0, 0, 0, 0, 0, 0, 0, 0, 0, 0, 0, 0], "split_type": [0, 0, 0, 0, 0, 0, 0, 0, 0, 0, 0, 0, 0, 0, 0, 0, 0, 0, 0, 0, 0, 0, 0, 0, 0, 0, 0, 0, 0, 0, 0, 0, 0, 0, 0, 0, 0, 0, 0, 0, 0, 0, 0, 0, 0, 0, 0, 0, 0, 0, 0, 0, 0, 0, 0, 0, 0, 0, 0, 0, 0, 0, 0, 0, 0, 0, 0, 0, 0, 0, 0, 0, 0, 0, 0, 0, 0, 0, 0, 0, 0, 0, 0, 0, 0, 0, 0, 0, 0, 0, 0, 0, 0, 0, 0, 0, 0, 0, 0, 0, 0, 0, 0, 0, 0, 0, 0, 0, 0, 0, 0, 0, 0, 0, 0, 0, 0, 0, 0, 0, 0, 0, 0], "sum_hessian": [316213.28, 24932.842, 291280.44, 22942.424, 1990.4187, 196119.9, 95160.555, 17944.1, 4998.324, 286.9381, 1703.4806, 53230.85, 142889.05, 71348.85, 23811.703, 3139.7788, 14804.32, 786.65515, 4211.6694, 224.20383, 62.73428, 1347.7925, 355.68808, 14677.387, 38553.465, 68539.18, 74349.87, 21682.37, 49666.48, 19690.188, 4121.516, 2906.5898, 233.18901, 12992.862, 1811.4578, 710.17737, 76.477745, 2248.4678, 1963.2017, 13.575732, 210.6281, 25.378942, 37.35534, 569.0459, 778.7466, 327.38046, 28.307632, 14384.167, 293.21994, 19246.697, 19306.768, 36172.47, 32366.709, 21822.36, 52527.508, 13309.373, 8372.996, 17772.924, 31893.559, 280.06305, 19410.123, 278.61868, 3842.8975, 2303.9968, 602.5931, 151.56921, 81.61979, 55.090424, 1756.3674, 174.288, 535.8894, 19.649986, 56.82776, 1573.2426, 675.2251, 1939.6592, 23.542446, 41.160732, 169.46736, 23.903978, 1.4749641, 18.80972, 18.54562, 404.624, 164.42192, 9.758628, 768.988, 42.642048, 284.7384, 26.53659, 1.7710423, 14362.388, 21.779358, 160.86786, 132.35208, 4630.437, 14616.262, 17850.12, 1456.6486, 24618.3, 11554.168, 7308.928, 25057.781, 17574.39, 4247.969, 42304.555, 10222.952, 10203.059, 3106.315, 5877.7007, 2495.2954, 11118.42, 6654.5034, 6766.0845, 25127.475, 127.53194, 152.53111, 37.86347, 19372.26, 162.57146, 116.04722, 158.04839, 3684.849], "tree_param": {"num_deleted": "0", "num_feature": "8", "num_nodes": "123", "size_leaf_vector": "1"}}, {"base_weights": [-0.0012299815, -0.3896323, 0.10402704, -0.124906234, -0.5162098, 0.25600812, 0.0376671, -0.419175, 0.024716947, -0.5806593, -0.34941545, 0.119213596, 0.31471524, -0.11491577, 0.117926486, -0.262311, -0.53115326, 0.17556019, -0.07907334, -0.59504807, -0.35103053, -0.20369862, -0.49303466, 0.26707944, -0.039776802, 0.41295877, 0.2751989, -0.049375065, -0.31171003, 0.22191925, 0.035886116, -0.5213962, -0.15045016, -0.5498232, -0.16646092, 0.29546306, 0.08204602, -0.17548798, 0.020640144, -0.5567808, -0.6273355, -0.058836114, -0.40135273, -0.037855733, -0.25957415, -0.23089622, -0.5264156, 0.37358, 0.16867667, 0.033822175, -0.17438203, 0.3753938, 0.47178614, 0.13759555, 0.33684456, -0.16546942, 0.035860524, -0.48582035, -0.22456047, 0.34076256, 0.185495, -0.037107617, 0.1313977, -0.054545213, 0.024130834, 0.017834542, -0.020397231, -0.06065005, -0.04193198, 0.0039217924, -0.031403866, 0.0070496514, 0.03565096, -0.004511008, 0.019846108, -0.0076991664, -0.028806029, 0.020449508, -0.0053941985, -0.057146545, -0.01971645, -0.0638287, -0.05766478, -0.019537484, 0.020981202, -0.04927568, -0.01622388, -0.008754429, 0.019135613, -0.029966885, -0.011188287, -0.016811369, -0.060697854, -0.048430987, -0.06334655, 0.02530014, 0.043496862, 0.0042552473, 0.022632688, -0.007719913, 0.007833392, -0.02684987, -0.007014654, 0.04628907, 0.026716346, 0.05672404, 0.04559533, 0.007353267, 0.021405067, 0.04206637, 0.028784016, -0.008723439, -0.029015008, 0.017364783, -0.0045149345, -0.05170096, -0.033340905, -0.015857669, -0.037354328, 0.029096687, 0.04741202, 0.0049771774, 0.02801168, -0.0004287438, -0.013240906, 0.02112763, 0.003248617], "categories": [], "categories_nodes": [], "categories_segments": [], "categories_sizes": [], "default_left": [0, 0, 0, 0, 0, 0, 0, 0, 0, 0, 0, 0, 0, 0, 0, 0, 0, 0, 0, 0, 0, 0, 0, 0, 0, 0, 0, 0, 0, 0, 0, 0, 0, 0, 0, 0, 0, 0, 0, 0, 0, 0, 0, 0, 0, 0, 0, 0, 0, 0, 0, 0, 0, 0, 0, 0, 0, 0, 0, 0, 0, 0, 0, 0, 0, 0, 0, 0, 0, 0, 0, 0, 0, 0, 0, 0, 0, 0, 0, 0, 0, 0, 0, 0, 0, 0, 0, 0, 0, 0, 0, 0, 0, 0, 0, 0, 0, 0, 0, 0, 0, 0, 0, 0, 0, 0, 0, 0, 0, 0, 0, 0, 0, 0, 0, 0, 0, 0, 0, 0, 0, 0, 0, 0, 0, 0, 0], "id": 11, "left_children": [1, 3, 5, 7, 9, 11, 13, 15, 17, 19, 21, 23, 25, 27, 29, 31, 33, 35, 37, 39, 41, 43, 45, 47, 49, 51, 53, 55, 57, 59, 61, 63, 65, 67, 69, 71, 73, 75, 77, 79, 81, 83, 85, 87, 89, 91, 93, 95, 97, 99, 101, 103, 105, 107, 109, 111, 113, 115, 117, 119, 121, 123, 125, -1, -1, -1, -1, -1, -1, -1, -1, -1, -1, -1, -1, -1, -1, -1, -1, -1, -1, -1, -1, -1, -1, -1, -1, -1, -1, -1, -1, -1, -1, -1, -1, -1, -1, -1, -1, -1, -1, -1, -1, -1, -1, -1, -1, -1, -1, -1, -1, -1, -1, -1, -1, -1, -1, -1, -1, -1, -1, -1, -1, -1, -1, -1, -1], "loss_changes": [12837.792, 2243.4775, 2491.7573, 953.6693, 486.72266, 602.9956, 2106.0732, 128.10315, 224.83035, 107.737305, 264.1521, 530.152, 203.86084, 764.5777, 961.48413, 88.11047, 28.906738, 65.607956, 81.791306, 37.63379, 28.338425, 58.085785, 55.51819, 122.385376, 107.665855, 33.123535, 317.81836, 440.06073, 224.61304, 215.07422, 439.2203, 16.960175, 37.462242, 29.70996, 6.351569, 35.193466, 48.710114, 47.936493, 57.369442, 74.22803, 8.883301, 10.478946, 35.880188, 18.024525, 27.734558, 16.898632, 25.112793, 41.418396, 44.160248, 34.729725, 37.669167, 87.01306, 8.61084, 56.7771, 106.17334, 183.625, 286.2532, 23.307617, 96.98361, 77.27698, 488.54285, 111.693054, 215.61307, 0.0, 0.0, 0.0, 0.0, 0.0, 0.0, 0.0, 0.0, 0.0, 0.0, 0.0, 0.0, 0.0, 0.0, 0.0, 0.0, 0.0, 0.0, 0.0, 0.0, 0.0, 0.0, 0.0, 0.0, 0.0, 0.0, 0.0, 0.0, 0.0, 0.0, 0.0, 0.0, 0.0, 0.0, 0.0, 0.0, 0.0, 0.0, 0.0, 0.0, 0.0, 0.0, 0.0, 0.0, 0.0, 0.0, 0.0, 0.0, 0.0, 0.0, 0.0, 0.0, 0.0, 0.0, 0.0, 0.0, 0.0, 0.0, 0.0, 0.0, 0.0, 0.0, 0.0, 0.0], "parents": [2147483647, 0, 0, 1, 1, 2, 2, 3, 3, 4, 4, 5, 5, 6, 6, 7, 7, 8, 8, 9, 9, 10, 10, 11, 11, 12, 12, 13, 13, 14, 14, 15, 15, 16, 16, 17, 17, 18, 18, 19, 19, 20, 20, 21, 21, 22, 22, 23, 23, 24, 24, 25, 25, 26, 26, 27, 27, 28, 28, 29, 29, 30, 30, 31, 31, 32, 32, 33, 33, 34, 34, 35, 35, 36, 36, 37, 37, 38, 38, 39, 39, 40, 40, 41, 41, 42, 42, 43, 43, 44, 44, 45, 45, 46, 46, 47, 47, 48, 48, 49, 49, 50, 50, 51, 51, 52, 52, 53, 53, 54, 54, 55, 55, 56, 56, 57, 57, 58, 58, 59, 59, 60, 60, 61, 61, 62, 62], "right_children": [2, 4, 6, 8, 10, 12, 14, 16, 18, 20, 22, 24, 26, 28, 30, 32, 34, 36, 38, 40, 42, 44, 46, 48, 50, 52, 54, 56, 58, 60, 62, 64, 66, 68, 70, 72, 74, 76, 78, 80, 82, 84, 86, 88, 90, 92, 94, 96, 98, 100, 102, 104, 106, 108, 110, 112, 114, 116, 118, 120, 122, 124, 126, -1, -1, -1, -1, -1, -1, -1, -1, -1, -1, -1, -1, -1, -1, -1, -1, -1, -1, -1, -1, -1, -1, -1, -1, -1, -1, -1, -1, -1, -1, -1, -1, -1, -1, -1, -1, -1, -1, -1, -1, -1, -1, -1, -1, -1, -1, -1, -1, -1, -1, -1, -1, -1, -1, -1, -1, -1, -1, -1, -1, -1, -1, -1, -1], "split_conditions": [0.8002, 0.8294554, 0.78538495, 0.757519, 0.780809, 0.82626575, 0.8513223, 0.8002137, 0.74655145, 0.8367567, 0.8552351, 0.8423856, 0.8587281, 0.8858814, 0.82763076, 0.723749, 0.7800816, 0.8002137, 0.7832266, 0.8652909, 0.88719916, 0.7568766, 0.7508319, 0.82559335, 0.866423, 0.843467, 0.8588669, 0.82819515, 0.8301498, 0.8798672, 0.88894165, 0.76014817, 0.71104133, 0.7411864, 0.78342927, 0.76496464, 0.7814208, 0.8116494, 0.7587572, 0.80621606, 0.81031495, 0.8472448, 0.8650907, 