[{"name": "splade+mmlw-retrieval-roberta-base", "type": "hybrid", "models": [{"name": "sdadas/polish-splade", "fp16": true, "type": "splade"}, {"name": "sdadas/mmlw-retrieval-roberta-base", "fp16": true, "q_prefix": "zapytanie: "}], "k0": 100, "strategy": {"type": "xbgranker", "model": {"learner": {"attributes": {"scikit_learn": "{\"_estimator_type\": \"ranker\"}"}, "feature_names": [], "feature_types": [], "gradient_booster": {"model": {"gbtree_model_param": {"num_parallel_tree": "1", "num_trees": "100"}, "iteration_indptr": [0, 1, 2, 3, 4, 5, 6, 7, 8, 9, 10, 11, 12, 13, 14, 15, 16, 17, 18, 19, 20, 21, 22, 23, 24, 25, 26, 27, 28, 29, 30, 31, 32, 33, 34, 35, 36, 37, 38, 39, 40, 41, 42, 43, 44, 45, 46, 47, 48, 49, 50, 51, 52, 53, 54, 55, 56, 57, 58, 59, 60, 61, 62, 63, 64, 65, 66, 67, 68, 69, 70, 71, 72, 73, 74, 75, 76, 77, 78, 79, 80, 81, 82, 83, 84, 85, 86, 87, 88, 89, 90, 91, 92, 93, 94, 95, 96, 97, 98, 99, 100], "tree_info": [0, 0, 0, 0, 0, 0, 0, 0, 0, 0, 0, 0, 0, 0, 0, 0, 0, 0, 0, 0, 0, 0, 0, 0, 0, 0, 0, 0, 0, 0, 0, 0, 0, 0, 0, 0, 0, 0, 0, 0, 0, 0, 0, 0, 0, 0, 0, 0, 0, 0, 0, 0, 0, 0, 0, 0, 0, 0, 0, 0, 0, 0, 0, 0, 0, 0, 0, 0, 0, 0, 0, 0, 0, 0, 0, 0, 0, 0, 0, 0, 0, 0, 0, 0, 0, 0, 0, 0, 0, 0, 0, 0, 0, 0, 0, 0, 0, 0, 0, 0], "trees": [{"base_weights": [-0.0019468159, -0.6191191, 0.38972184, -0.24466427, -0.7600491, -0.37245148, 0.5925015, -0.5652606, 0.23177265, -0.8002244, -0.4710508, -0.5110034, -0.10470081, 0.8181237, 0.43478677, -0.2693695, -0.66427237, -0.43042067, 0.6566554, -0.85746, -0.6606342, -0.78640115, -0.054052692, -0.27107826, -0.71090794, 0.37972024, -0.21906967, 0.6082432, 0.8968994, 0.16335616, 0.57536983, -0.69259363, -0.058898345, -0.880837, -0.58396816, -0.068705656, -0.4946858, 0.7887905, 0.4570693, -0.7397883, -0.9130155, -0.69514334, -0.4344777, -0.52476543, -0.9073438, 0.24768442, -0.43736055, 0.14648676, -0.37362343, -0.6398706, -0.9016121, 0.53124684, 0.077696346, -0.33860627, -0.058626674, 0.7303476, 0.030154869, 0.8282172, 0.9339036, 0.31704533, -0.27124435, 0.7475232, 0.3508545, -0.043770928, -0.07972484, -0.04484656, 0.06549352, -0.06087032, -0.089776784, -0.0669406, 0.014476356, 0.032576997, -0.031289745, -0.06279175, -0.032313637, 0.086517654, 0.06442683, 0.058824856, 0.033273324, -0.07985966, -0.045924406, -0.09372301, -0.08113948, -0.059409052, -0.08249947, 0.012195223, -0.045461345, -0.011426847, -0.0552691, 0.016340973, -0.09111955, 0.049615256, 0.003922706, -0.0021147435, -0.06254318, -0.006077561, 0.04631337, -0.058774825, -0.022720424, -0.084592186, -0.056982886, -0.09170925, -0.07132747, 0.038635436, 0.071305715, -0.03962673, 0.03570227, -0.017976362, -0.059957463, 0.032927435, -0.017278124, 0.083963, 0.051189687, 0.017256608, -0.03585296, 0.088077314, 0.05224047, 0.095745526, 0.09019194, 0.013853584, 0.04478564, -0.05336106, -0.009351929, 0.06296646, 0.08422234, 0.020186199, 0.049727686], "categories": [], "categories_nodes": [], "categories_segments": [], "categories_sizes": [], "default_left": [0, 0, 0, 0, 0, 0, 0, 0, 0, 0, 0, 0, 0, 0, 0, 0, 0, 0, 0, 0, 0, 0, 0, 0, 0, 0, 0, 0, 0, 0, 0, 0, 0, 0, 0, 0, 0, 0, 0, 0, 0, 0, 0, 0, 0, 0, 0, 0, 0, 0, 0, 0, 0, 0, 0, 0, 0, 0, 0, 0, 0, 0, 0, 0, 0, 0, 0, 0, 0, 0, 0, 0, 0, 0, 0, 0, 0, 0, 0, 0, 0, 0, 0, 0, 0, 0, 0, 0, 0, 0, 0, 0, 0, 0, 0, 0, 0, 0, 0, 0, 0, 0, 0, 0, 0, 0, 0, 0, 0, 0, 0, 0, 0, 0, 0, 0, 0, 0, 0, 0, 0, 0, 0, 0, 0, 0, 0], "id": 0, "left_children": [1, 3, 5, 7, 9, 11, 13, 15, 17, 19, 21, 23, 25, 27, 29, 31, 33, 35, 37, 39, 41, 43, 45, 47, 49, 51, 53, 55, 57, 59, 61, 63, 65, 67, 69, 71, 73, 75, 77, 79, 81, 83, 85, 87, 89, 91, 93, 95, 97, 99, 101, 103, 105, 107, 109, 111, 113, 115, 117, 119, 121, 123, 125, -1, -1, -1, -1, -1, -1, -1, -1, -1, -1, -1, -1, -1, -1, -1, -1, -1, -1, -1, -1, -1, -1, -1, -1, -1, -1, -1, -1, -1, -1, -1, -1, -1, -1, -1, -1, -1, -1, -1, -1, -1, -1, -1, -1, -1, -1, -1, -1, -1, -1, -1, -1, -1, -1, -1, -1, -1, -1, -1, -1, -1, -1, -1, -1], "loss_changes": [43693.613, 3703.1406, 17090.717, 2931.4138, 591.60547, 862.03, 3107.6387, 335.90894, 2172.332, 357.06055, 818.5807, 734.2842, 439.18866, 593.56836, 1961.625, 256.31763, 148.95996, 70.12024, 123.66907, 206.83203, 101.31885, 111.684326, 310.26614, 298.15213, 112.58154, 69.25444, 122.964905, 692.4121, 65.62305, 1171.8348, 1308.7646, 25.146088, 535.10516, 10.156616, 390.656, 44.071835, 58.36493, 30.665527, 30.398193, 167.67285, 52.28711, 147.72559, 19.399109, 12.8090515, 10.140259, 77.73182, 92.4751, 90.156555, 175.10693, 87.40112, 5.9483643, 26.281738, 67.26902, 152.21127, 121.3427, 192.91455, 94.81035, 146.6997, 11.917969, 302.5746, 213.67776, 213.41211, 320.60205, 0.0, 0.0, 0.0, 0.0, 0.0, 0.0, 0.0, 0.0, 0.0, 0.0, 0.0, 0.0, 0.0, 0.0, 0.0, 0.0, 0.0, 0.0, 0.0, 0.0, 0.0, 0.0, 0.0, 0.0, 0.0, 0.0, 0.0, 0.0, 0.0, 0.0, 0.0, 0.0, 0.0, 0.0, 0.0, 0.0, 0.0, 0.0, 0.0, 0.0, 0.0, 0.0, 0.0, 0.0, 0.0, 0.0, 0.0, 0.0, 0.0, 0.0, 0.0, 0.0, 0.0, 0.0, 0.0, 0.0, 0.0, 0.0, 0.0, 0.0, 0.0, 0.0, 0.0, 0.0], "parents": [2147483647, 0, 0, 1, 1, 2, 2, 3, 3, 4, 4, 5, 5, 6, 6, 7, 7, 8, 8, 9, 9, 10, 10, 11, 11, 12, 12, 13, 13, 14, 14, 15, 15, 16, 16, 17, 17, 18, 18, 19, 19, 20, 20, 21, 21, 22, 22, 23, 23, 24, 24, 25, 25, 26, 26, 27, 27, 28, 28, 29, 29, 30, 30, 31, 31, 32, 32, 33, 33, 34, 34, 35, 35, 36, 36, 37, 37, 38, 38, 39, 39, 40, 40, 41, 41, 42, 42, 43, 43, 44, 44, 45, 45, 46, 46, 47, 47, 48, 48, 49, 49, 50, 50, 51, 51, 52, 52, 53, 53, 54, 54, 55, 55, 56, 56, 57, 57, 58, 58, 59, 59, 60, 60, 61, 61, 62, 62], "right_children": [2, 4, 6, 8, 10, 12, 14, 16, 18, 20, 22, 24, 26, 28, 30, 32, 34, 36, 38, 40, 42, 44, 46, 48, 50, 52, 54, 56, 58, 60, 62, 64, 66, 68, 70, 72, 74, 76, 78, 80, 82, 84, 86, 88, 90, 92, 94, 96, 98, 100, 102, 104, 106, 108, 110, 112, 114, 116, 118, 120, 122, 124, 126, -1, -1, -1, -1, -1, -1, -1, -1, -1, -1, -1, -1, -1, -1, -1, -1, -1, -1, -1, -1, -1, -1, -1, -1, -1, -1, -1, -1, -1, -1, -1, -1, -1, -1, -1, -1, -1, -1, -1, -1, -1, -1, -1, -1, -1, -1, -1, -1, -1, -1, -1, -1, -1, -1, -1, -1, -1, -1, -1, -1, -1, -1, -1, -1], "split_conditions": [0.81390643, 0.84562314, 1.0, 0.78036684, 0.80252063, 0.8564114, 0.80501324, 0.81025225, 1.0, 0.8201779, 1.0, 0.8811416, 0.8410319, 0.83756024, 0.8620471, 1.0, 1.0, 0.76995575, 0.77246594, 0.86417705, 0.8700519, 0.86417705, 0.87030864, 0.80244064, 0.90897155, 0.8987037, 0.87817883, 0.87774533, 0.8580475, 0.8954997, 0.8460696, 2145.1538, 0.7320874, 1963.652, 0.7610955, 0.8163513, 0.79799354, 0.8271053, 0.8323156, 0.7899463, 0.7847257, 0.8993995, 0.89715326, 0.77988046, 0.754079, 0.78525734, 0.7812342, 0.8261393, 0.82783055, 0.82652044, 0.85378414, 0.86701477, 0.8650975, 0.90808797, 0.86275434, 0.7871618, 0.899055, 0.8862183, 0.78525734, 0.8416822, 0.845918, 0.88176763, 0.8930577, -0.043770928, -0.07972484, -0.04484656, 0.06549352, -0.06087032, -0.089776784, -0.0669406, 0.014476356, 0.032576997, -0.031289745, -0.06279175, -0.032313637, 0.086517654, 0.06442683, 0.058824856, 0.033273324, -0.07985966, -0.045924406, -0.09372301, -0.08113948, -0.059409052, -0.08249947, 0.012195223, -0.045461345, -0.011426847, -0.0552691, 0.016340973, -0.09111955, 0.049615256, 0.003922706, -0.0021147435, -0.06254318, -0.006077561, 0.04631337, -0.058774825, -0.022720424, -0.084592186, -0.056982886, -0.09170925, -0.07132747, 0.038635436, 0.071305715, -0.03962673, 0.03570227, -0.017976362, -0.059957463, 0.032927435, -0.017278124, 0.083963, 0.051189687, 0.017256608, -0.03585296, 0.088077314, 0.05224047, 0.095745526, 0.09019194, 0.013853584, 0.04478564, -0.05336106, -0.009351929, 0.06296646, 0.08422234, 0.020186199, 0.049727686], "split_indices": [4, 6, 1, 4, 4, 4, 7, 6, 1, 7, 1, 6, 7, 4, 4, 1, 1, 7, 7, 6, 7, 6, 6, 7, 6, 6, 4, 6, 4, 6, 7, 2, 4, 2, 4, 6, 4, 6, 6, 4, 4, 6, 6, 7, 7, 7, 7, 4, 4, 4, 4, 4, 4, 6, 7, 7, 6, 6, 7, 4, 4, 4, 4, 0, 0, 0, 0, 0, 0, 0, 0, 0, 0, 0, 0, 0, 0, 0, 0, 0, 0, 0, 0, 0, 0, 0, 0, 0, 0, 0, 0, 0, 0, 0, 0, 0, 0, 0, 0, 0, 0, 0, 0, 0, 0, 0, 0, 0, 0, 0, 0, 0, 0, 0, 0, 0, 0, 0, 0, 0, 0, 0, 0, 0, 0, 0, 0], "split_type": [0, 0, 0, 0, 0, 0, 0, 0, 0, 0, 0, 0, 0, 0, 0, 0, 0, 0, 0, 0, 0, 0, 0, 0, 0, 0, 0, 0, 0, 0, 0, 0, 0, 0, 0, 0, 0, 0, 0, 0, 0, 0, 0, 0, 0, 0, 0, 0, 0, 0, 0, 0, 0, 0, 0, 0, 0, 0, 0, 0, 0, 0, 0, 0, 0, 0, 0, 0, 0, 0, 0, 0, 0, 0, 0, 0, 0, 0, 0, 0, 0, 0, 0, 0, 0, 0, 0, 0, 0, 0, 0, 0, 0, 0, 0, 0, 0, 0, 0, 0, 0, 0, 0, 0, 0, 0, 0, 0, 0, 0, 0, 0, 0, 0, 0, 0, 0, 0, 0, 0, 0, 0, 0, 0, 0, 0, 0], "sum_hessian": [180753.98, 70175.03, 110578.96, 19189.834, 50985.195, 23237.398, 87341.56, 11470.86, 7718.9736, 44760.945, 6224.25, 15312.69, 7924.7075, 35932.863, 51408.695, 2876.9587, 8593.901, 3016.949, 4702.0244, 31741.121, 13019.824, 3543.5742, 2680.6755, 6960.7563, 8351.935, 1513.1758, 6411.5317, 9808.633, 26124.23, 17541.885, 33866.812, 954.7724, 1922.1862, 2321.9883, 6271.913, 455.4616, 2561.4875, 2827.2817, 1874.7429, 10184.245, 21556.877, 11294.351, 1725.4733, 1121.9012, 2421.673, 1500.1345, 1180.541, 1372.3016, 5588.4546, 6088.3706, 2263.5635, 1007.13385, 506.04193, 3673.5078, 2738.024, 8097.9194, 1710.7129, 9155.12, 16969.111, 12959.3125, 4582.5728, 19167.371, 14699.439, 279.42392, 675.3485, 1243.7786, 678.4076, 138.16577, 2183.8223, 5613.821, 658.09235, 174.0161, 281.44553, 1440.2643, 1121.2231, 1846.3973, 980.8843, 910.45123, 964.2917, 8417.835, 1766.4097, 17402.03, 4154.8467, 6354.63, 4939.7207, 60.083252, 1665.39, 71.78437, 1050.1168, 8.531283, 2413.1418, 683.7579, 816.37665, 367.76566, 812.7753, 829.8974, 542.4042, 2268.2827, 3320.172, 1541.741, 4546.63, 2088.0657, 175.49773, 562.20984, 444.92404, 187.48941, 318.55252, 2284.6233, 1388.8845, 622.12787, 2115.896, 5395.778, 2702.1416, 1252.399, 458.31396, 7810.887, 1344.233, 9756.175, 7212.936, 5481.3403, 7477.9727, 1849.8027, 2732.7698, 8542.944, 10624.427, 7286.956, 7412.484], "tree_param": {"num_deleted": "0", "num_feature": "8", "num_nodes": "127", "size_leaf_vector": "1"}}, {"base_weights": [-0.0012189877, -0.27540094, 0.31600308, -0.13168544, -0.5699473, 0.46057191, 0.109455034, -0.27288303, 0.09529697, -0.696481, -0.3879102, 0.32136396, 0.57236296, -0.110917635, 0.33801684, -0.6339839, -0.20689128, 0.3045554, -0.07816959, -0.87150866, -0.62614423, -0.45059463, -0.07393854, 0.44429123, -0.0379384, 0.64497447, 0.51782477, -0.01880442, -0.42076147, 0.42928672, 0.12347914, -0.45874846, -0.7277596, -0.087679945, -0.33859208, 0.44423246, 0.11710453, -0.00032633514, -0.19274291, -0.89753675, -0.7954789, -0.7320105, -0.41403377, -0.70194703, -0.39892316, 0.040556658, -0.32266447, 0.56949073, 0.303169, 0.08651164, -0.22769782, 0.7335646, 0.5999705, 0.46274585, 0.59874535, -0.16867116, 0.07361409, -0.7263602, -0.3113908, 0.3404118, 0.5670462, 0.055040967, 0.44184044, -0.05817769, -0.02448018, -0.08336325, -0.063523464, -0.02016463, 0.0019316772, -0.03921938, -0.0072719306, 0.056592, 0.03544597, -0.005096259, 0.02088699, -0.012479776, 0.0077724527, -0.031287257, -0.0064910254, -0.083324805, -0.090589456, -0.0020487006, -0.08220458, -0.07773091, -0.037314773, -0.020612525, -0.056209024, -0.08470795, -0.061387904, -0.030905679, -0.055448454, -0.0005405673, 0.055200752, -0.021117559, -0.065655164, 0.06476171, 0.04282071, 0.019784784, 0.040028904, -0.008973536, 0.015693268, -0.07522208, -0.017120562, 0.06901224, 0.079906575, 0.038049527, 0.0695897, 0.058204006, 0.025824701, 0.06863733, 0.056207474, -0.008889317, -0.034137707, 0.018802918, -0.0078982925, -0.07916164, -0.020026881, -0.028218001, -0.074151985, 0.046288785, 0.016318893, 0.06893051, 0.05426332, 0.018280875, -0.004458063, 0.05025342, 0.03060748], "categories": [], "categories_nodes": [], "categories_segments": [], "categories_sizes": [], "default_left": [0, 0, 0, 0, 0, 0, 0, 0, 0, 0, 0, 0, 0, 0, 0, 0, 0, 0, 0, 0, 0, 0, 0, 0, 0, 0, 0, 0, 0, 0, 0, 0, 0, 0, 0, 0, 0, 0, 0, 0, 0, 0, 0, 0, 0, 0, 0, 0, 0, 0, 0, 0, 0, 0, 0, 0, 0, 0, 0, 0, 0, 0, 0, 0, 0, 0, 0, 0, 0, 0, 0, 0, 0, 0, 0, 0, 0, 0, 0, 0, 0, 0, 0, 0, 0, 0, 0, 0, 0, 0, 0, 0, 0, 0, 0, 0, 0, 0, 0, 0, 0, 0, 0, 0, 0, 0, 0, 0, 0, 0, 0, 0, 0, 0, 0, 0, 0, 0, 0, 0, 0, 0, 0, 0, 0, 0, 0], "id": 1, "left_children": [1, 3, 5, 7, 9, 11, 13, 15, 17, 19, 21, 23, 25, 27, 29, 31, 33, 35, 37, 39, 41, 43, 45, 47, 49, 51, 53, 55, 57, 59, 61, 63, 65, 67, 69, 71, 73, 75, 77, 79, 81, 83, 85, 87, 89, 91, 93, 95, 97, 99, 101, 103, 105, 107, 109, 111, 113, 115, 117, 119, 121, 123, 125, -1, -1, -1, -1, -1, -1, -1, -1, -1, -1, -1, -1, -1, -1, -1, -1, -1, -1, -1, -1, -1, -1, -1, -1, -1, -1, -1, -1, -1, -1, -1, -1, -1, -1, -1, -1, -1, -1, -1, -1, -1, -1, -1, -1, -1, -1, -1, -1, -1, -1, -1, -1, -1, -1, -1, -1, -1, -1, -1, -1, -1, -1, -1, -1], "loss_changes": [31887.955, 8324.475, 5075.4004, 4235.9414, 1485.1094, 1555.8457, 3525.1377, 1941.5562, 1839.948, 467.78125, 520.45435, 1967.0537, 219.26758, 1016.9539, 672.64307, 206.54932, 1081.6108, 601.4629, 247.18053, 20.861328, 609.1406, 286.0293, 125.38526, 586.1138, 268.1416, 94.375, 140.88965, 380.45047, 272.6919, 294.88477, 223.40756, 115.44501, 79.78906, 440.97192, 466.43872, 143.60742, 151.31914, 160.34328, 172.15878, 3.6049805, 57.412964, 293.9922, 278.1029, 47.5094, 255.48804, 70.89162, 51.523804, 193.79443, 159.5055, 85.12551, 133.12798, 22.231934, 331.86914, 459.70605, 40.822754, 144.33221, 296.66534, 73.6991, 75.3667, 317.96082, 27.83081, 107.4552, 14.796112, 0.0, 0.0, 0.0, 0.0, 0.0, 0.0, 0.0, 0.0, 0.0, 0.0, 0.0, 0.0, 0.0, 0.0, 0.0, 0.0, 0.0, 0.0, 0.0, 0.0, 0.0, 0.0, 0.0, 0.0, 0.0, 0.0, 0.0, 0.0, 0.0, 0.0, 0.0, 0.0, 0.0, 0.0, 0.0, 0.0, 0.0, 0.0, 0.0, 0.0, 0.0, 0.0, 0.0, 0.0, 0.0, 0.0, 0.0, 0.0, 0.0, 0.0, 0.0, 0.0, 0.0, 0.0, 0.0, 0.0, 0.0, 0.0, 0.0, 0.0, 0.0, 0.0, 0.0, 0.0], "parents": [2147483647, 0, 0, 1, 1, 2, 2, 3, 3, 4, 4, 5, 5, 6, 6, 7, 7, 8, 8, 9, 9, 10, 10, 11, 11, 12, 12, 13, 13, 14, 14, 15, 15, 16, 16, 17, 17, 18, 18, 19, 19, 20, 20, 21, 21, 22, 22, 23, 23, 24, 24, 25, 25, 26, 26, 27, 27, 28, 28, 29, 29, 30, 30, 31, 31, 32, 32, 33, 33, 34, 34, 35, 35, 36, 36, 37, 37, 38, 38, 39, 39, 40, 40, 41, 41, 42, 42, 43, 43, 44, 44, 45, 45, 46, 46, 47, 47, 48, 48, 49, 49, 50, 50, 51, 51, 52, 52, 53, 53, 54, 54, 55, 55, 56, 56, 57, 57, 58, 58, 59, 59, 60, 60, 61, 61, 62, 62], "right_children": [2, 4, 6, 8, 10, 12, 14, 16, 18, 20, 22, 24, 26, 28, 30, 32, 34, 36, 38, 40, 42, 44, 46, 48, 50, 52, 54, 56, 58, 60, 62, 64, 66, 68, 70, 72, 74, 76, 78, 80, 82, 84, 86, 88, 90, 92, 94, 96, 98, 100, 102, 104, 106, 108, 110, 112, 114, 116, 118, 120, 122, 124, 126, -1, -1, -1, -1, -1, -1, -1, -1, -1, -1, -1, -1, -1, -1, -1, -1, -1, -1, -1, -1, -1, -1, -1, -1, -1, -1, -1, -1, -1, -1, -1, -1, -1, -1, -1, -1, -1, -1, -1, -1, -1, -1, -1, -1, -1, -1, -1, -1, -1, -1, -1, -1, -1, -1, -1, -1, -1, -1, -1, -1, -1, -1, -1, -1], "split_conditions": [2105.7515, 2442.3452, 1943.7262, 1861.8574, 0.80244064, 2344.3342, 2448.0635, 1.0, 1728.4292, 1.0, 2096.1685, 2541.4517, 0.8791305, 2771.8242, 2228.968, 2096.2917, 2153.3965, 2199.4207, 2307.4075, 0.78257865, 1785.8013, 1.0, 2847.308, 2348.604, 2709.601, 2579.2393, 2649.2039, 2230.5298, 1.0, 2739.1753, 2914.274, 1672.7576, 1704.407, 1572.2346, 1849.1737, 1583.7886, 1948.5608, 1951.3773, 2009.1577, 1521.8219, 0.8323156, 2096.1685, 2579.2393, 1902.3992, 2607.133, 0.8829027, 0.90771323, 1746.0027, 2219.8188, 2180.2117, 1.0, 2461.501, 2564.9175, 2653.662, 2810.9822, 2567.4912, 2102.1616, 0.8371366, 0.93000877, 2788.608, 0.86757636, 2328.9746, 2462.8757, -0.05817769, -0.02448018, -0.08336325, -0.063523464, -0.02016463, 0.0019316772, -0.03921938, -0.0072719306, 0.056592, 0.03544597, -0.005096259, 0.02088699, -0.012479776, 0.0077724527, -0.031287257, -0.0064910254, -0.083324805, -0.090589456, -0.0020487006, -0.08220458, -0.07773091, -0.037314773, -0.020612525, -0.056209024, -0.08470795, -0.061387904, -0.030905679, -0.055448454, -0.0005405673, 0.055200752, -0.021117559, -0.065655164, 0.06476171, 0.04282071, 0.019784784, 0.040028904, -0.008973536, 0.015693268, -0.07522208, -0.017120562, 0.06901224, 0.079906575, 0.038049527, 0.0695897, 0.058204006, 0.025824701, 0.06863733, 0.056207474, -0.008889317, -0.034137707, 0.018802918, -0.0078982925, -0.07916164, -0.020026881, -0.028218001, -0.074151985, 0.046288785, 0.016318893, 0.06893051, 0.05426332, 0.018280875, -0.004458063, 0.05025342, 0.03060748], "split_indices": [0, 2, 3, 0, 7, 0, 0, 5, 3, 5, 3, 2, 6, 2, 3, 2, 2, 2, 2, 7, 0, 5, 2, 2, 2, 2, 0, 0, 5, 0, 0, 0, 0, 0, 3, 3, 0, 0, 0, 3, 6, 3, 2, 0, 2, 7, 6, 3, 0, 0, 5, 0, 0, 2, 2, 2, 3, 7, 6, 2, 6, 3, 3, 0, 0, 0, 0, 0, 0, 0, 0, 0, 0, 0, 0, 0, 0, 0, 0, 0, 0, 0, 0, 0, 0, 0, 0, 0, 0, 0, 0, 0, 0, 0, 0, 0, 0, 0, 0, 0, 0, 0, 0, 0, 0, 0, 0, 0, 0, 0, 0, 0, 0, 0, 0, 0, 0, 0, 0, 0, 0, 0, 0, 0, 0, 0, 0], "split_type": [0, 0, 0, 0, 0, 0, 0, 0, 0, 0, 0, 0, 0, 0, 0, 0, 0, 0, 0, 0, 0, 0, 0, 0, 0, 0, 0, 0, 0, 0, 0, 0, 0, 0, 0, 0, 0, 0, 0, 0, 0, 0, 0, 0, 0, 0, 0, 0, 0, 0, 0, 0, 0, 0, 0, 0, 0, 0, 0, 0, 0, 0, 0, 0, 0, 0, 0, 0, 0, 0, 0, 0, 0, 0, 0, 0, 0, 0, 0, 0, 0, 0, 0, 0, 0, 0, 0, 0, 0, 0, 0, 0, 0, 0, 0, 0, 0, 0, 0, 0, 0, 0, 0, 0, 0, 0, 0, 0, 0, 0, 0, 0, 0, 0, 0, 0, 0, 0, 0, 0, 0, 0, 0, 0, 0, 0, 0], "sum_hessian": [366624.94, 196653.33, 169971.62, 132167.44, 64485.89, 99986.805, 69984.81, 81480.9, 50686.543, 38040.895, 26444.998, 44534.28, 55452.523, 35630.977, 34353.84, 12588.6045, 68892.3, 22972.865, 27713.676, 10901.636, 27139.258, 22043.564, 4401.4336, 33181.676, 11352.607, 23780.535, 31671.986, 27466.535, 8164.443, 24100.055, 10253.783, 4390.3667, 8198.237, 36161.625, 32730.672, 13163.127, 9809.739, 16502.543, 11211.133, 8113.3096, 2788.326, 18101.955, 9037.303, 3756.7122, 18286.852, 3014.579, 1386.8544, 17581.154, 15600.52, 6856.4688, 4496.1387, 8005.8115, 15774.724, 18849.027, 12822.96, 10476.659, 16989.877, 2150.3596, 6014.083, 14651.308, 9448.747, 8440.501, 1813.2828, 2786.3677, 1603.9993, 3819.6016, 4378.6357, 17510.076, 18651.547, 27238.695, 5491.9766, 5585.9844, 7577.142, 3464.6748, 6345.0645, 6359.7495, 10142.794, 5778.9585, 5432.175, 944.9974, 7168.312, 92.47528, 2695.8506, 16072.044, 2029.9102, 3759.8787, 5277.4243, 1415.465, 2341.247, 11592.79, 6694.0615, 2766.9153, 247.66376, 1040.9135, 345.94092, 11318.642, 6262.5127, 7485.7173, 8114.802, 1957.3685, 4899.1006, 435.96286, 4060.1755, 4820.349, 3185.4622, 4799.2437, 10975.48, 11903.364, 6945.6626, 3777.8079, 9045.151, 7167.357, 3309.3018, 9709.556, 7280.3203, 1912.6149, 237.7448, 5633.1807, 380.9026, 8662.899, 5988.408, 1568.1803, 7880.5674, 3697.5034, 4742.9976, 1251.224, 562.0587], "tree_param": {"num_deleted": "0", "num_feature": "8", "num_nodes": "127", "size_leaf_vector": "1"}}, {"base_weights": [-0.0035919268, -0.5042692, 0.14556257, -0.2215016, -0.61533415, -0.25124928, 0.21401349, -0.44249505, -0.009333838, -0.6429185, -0.04953021, -0.4206065, -0.0009969391, 0.39353418, 0.11777631, -0.76407987, -0.35424432, -0.3930376, 0.18204443, -0.52779067, -0.7133399, -0.1690431, 0.4607811, -0.23486343, -0.57654554, 0.15985337, -0.08211897, 0.20321102, 0.46838465, -0.0174294, 0.23658243, -0.7698815, 0.07445429, -0.43331724, 0.055141456, -0.105184466, -0.45299158, 0.41580492, 0.041651614, -0.62372947, -0.31856054, -0.7682216, -0.49171212, 0.10895714, -0.38487244, 0.13462721, 0.5012912, 0.16475412, -0.27656642, -0.7160344, -0.42428783, 0.40438542, 0.07047612, -0.31417608, 0.05251525, 0.3981311, -0.06954665, 0.5828699, 0.42247087, 0.11204991, -0.14571966, 0.3494892, 0.022552207, -0.064230934, -0.08107412, -0.07601239, 0.043785717, -0.047787666, 0.006038818, 0.0425982, -0.014982733, 0.014873819, -0.019425016, -0.055740118, -0.024741389, 0.05046084, 0.028620949, 0.007933482, -0.028294114, -0.07403253, -0.034668673, -0.06303707, -0.001218571, -0.08026638, -0.06517005, -0.02536182, -0.06414459, 0.039907, 0.006597685, -0.052696176, -0.014157036, -0.08915048, 0.043155964, 0.06395999, 0.041976027, -0.007062758, 0.032593727, -0.041667674, -0.015774362, -0.066483304, -0.08232442, -0.02746745, -0.06310826, 0.05726709, 0.03403537, 0.0037838963, 0.031514857, -0.01797704, -0.046522036, -0.0039988654, 0.025776852, 0.057226785, 0.027125452, -0.0029923068, -0.047067072, 0.054381102, 0.0697168, 0.022542682, 0.05166402, -0.011905554, 0.021852372, -0.041308183, -0.009979464, 0.04460753, 0.026755486, -0.0033226397, 0.023509027], "categories": [], "categories_nodes": [], "categories_segments": [], "categories_sizes": [], "default_left": [0, 0, 0, 0, 0, 0, 0, 0, 0, 0, 0, 0, 0, 0, 0, 0, 0, 0, 0, 0, 0, 0, 0, 0, 0, 0, 0, 0, 0, 0, 0, 0, 0, 0, 0, 0, 0, 0, 0, 0, 0, 0, 0, 0, 0, 0, 0, 0, 0, 0, 0, 0, 0, 0, 0, 0, 0, 0, 0, 0, 0, 0, 0, 0, 0, 0, 0, 0, 0, 0, 0, 0, 0, 0, 0, 0, 0, 0, 0, 0, 0, 0, 0, 0, 0, 0, 0, 0, 0, 0, 0, 0, 0, 0, 0, 0, 0, 0, 0, 0, 0, 0, 0, 0, 0, 0, 0, 0, 0, 0, 0, 0, 0, 0, 0, 0, 0, 0, 0, 0, 0, 0, 0, 0, 0, 0, 0], "id": 2, "left_children": [1, 3, 5, 7, 9, 11, 13, 15, 17, 19, 21, 23, 25, 27, 29, 31, 33, 35, 37, 39, 41, 43, 45, 47, 49, 51, 53, 55, 57, 59, 61, 63, 65, 67, 69, 71, 73, 75, 77, 79, 81, 83, 85, 87, 89, 91, 93, 95, 97, 99, 101, 103, 105, 107, 109, 111, 113, 115, 117, 119, 121, 123, 125, -1, -1, -1, -1, -1, -1, -1, -1, -1, -1, -1, -1, -1, -1, -1, -1, -1, -1, -1, -1, -1, -1, -1, -1, -1, -1, -1, -1, -1, -1, -1, -1, -1, -1, -1, -1, -1, -1, -1, -1, -1, -1, -1, -1, -1, -1, -1, -1, -1, -1, -1, -1, -1, -1, -1, -1, -1, -1, -1, -1, -1, -1, -1, -1], "loss_changes": [26143.432, 2523.4082, 7326.4297, 1062.5677, 900.3906, 1681.8726, 3974.3408, 314.7527, 849.1666, 445.61914, 163.70947, 685.3711, 209.01851, 1143.6035, 2405.6804, 11.681274, 282.0359, 66.36572, 253.19705, 418.96875, 414.75, 130.51923, 6.662712, 180.08026, 272.92725, 117.342316, 332.69922, 1204.9441, 302.63574, 1163.5746, 1926.3628, 11.848877, 5.5886774, 160.65869, 107.3281, 15.060641, 68.21765, 33.172943, 58.999157, 462.1787, 627.3303, 109.25293, 241.43494, 11.834225, 42.253906, 17.948677, 4.836754, 38.777, 162.79681, 36.300293, 190.2096, 15.292313, 31.402979, 79.28934, 127.97186, 291.8767, 150.1288, 73.24365, 763.0864, 857.88525, 431.9922, 412.86768, 326.3867, 0.0, 0.0, 0.0, 0.0, 0.0, 0.0, 0.0, 0.0, 0.0, 0.0, 0.0, 0.0, 0.0, 0.0, 0.0, 0.0, 0.0, 0.0, 0.0, 0.0, 0.0, 0.0, 0.0, 0.0, 0.0, 0.0, 0.0, 0.0, 0.0, 0.0, 0.0, 0.0, 0.0, 0.0, 0.0, 0.0, 0.0, 0.0, 0.0, 0.0, 0.0, 0.0, 0.0, 0.0, 0.0, 0.0, 0.0, 0.0, 0.0, 0.0, 0.0, 0.0, 0.0, 0.0, 0.0, 0.0, 0.0, 0.0, 0.0, 0.0, 0.0, 0.0, 0.0, 0.0], "parents": [2147483647, 0, 0, 1, 1, 2, 2, 3, 3, 4, 4, 5, 5, 6, 6, 7, 7, 8, 8, 9, 9, 10, 10, 11, 11, 12, 12, 13, 13, 14, 14, 15, 15, 16, 16, 17, 17, 18, 18, 19, 19, 20, 20, 21, 21, 22, 22, 23, 23, 24, 24, 25, 25, 26, 26, 27, 27, 28, 28, 29, 29, 30, 30, 31, 31, 32, 32, 33, 33, 34, 34, 35, 35, 36, 36, 37, 37, 38, 38, 39, 39, 40, 40, 41, 41, 42, 42, 43, 43, 44, 44, 45, 45, 46, 46, 47, 47, 48, 48, 49, 49, 50, 50, 51, 51, 52, 52, 53, 53, 54, 54, 55, 55, 56, 56, 57, 57, 58, 58, 59, 59, 60, 60, 61, 61, 62, 62], "right_children": [2, 4, 6, 8, 10, 12, 14, 16, 18, 20, 22, 24, 26, 28, 30, 32, 34, 36, 38, 40, 42, 44, 46, 48, 50, 52, 54, 56, 58, 60, 62, 64, 66, 68, 70, 72, 74, 76, 78, 80, 82, 84, 86, 88, 90, 92, 94, 96, 98, 100, 102, 104, 106, 108, 110, 112, 114, 116, 118, 120, 122, 124, 126, -1, -1, -1, -1, -1, -1, -1, -1, -1, -1, -1, -1, -1, -1, -1, -1, -1, -1, -1, -1, -1, -1, -1, -1, -1, -1, -1, -1, -1, -1, -1, -1, -1, -1, -1, -1, -1, -1, -1, -1, -1, -1, -1, -1, -1, -1, -1, -1, -1, -1, -1, -1, -1, -1, -1, -1, -1, -1, -1, -1, -1, -1, -1, -1], "split_conditions": [0.80252063, 0.8374224, 1.0, 0.76854897, 0.8539355, 0.8473464, 0.7969911, 1.0, 1.0, 0.86417705, 0.8829027, 0.8711369, 0.89215434, 0.83002436, 0.86971146, 2306.2246, 0.74690974, 1954.875, 0.8145817, 0.7829038, 0.82353765, 0.90587467, 1812.78, 0.7794164, 0.8291458, 0.82181585, 0.8683361, 0.85278606, 0.86417705, 0.88012505, 0.8539355, 2121.6467, 0.8145817, 0.7923165, 0.792887, 0.76263756, 0.7905086, 0.7595078, 0.7857722, 0.789688, 1.0, 0.7829038, 0.88943464, 0.88690364, 0.87155527, 0.88934, 0.920638, 0.8116289, 0.82009923, 0.89975977, 0.89433885, 0.8629917, 0.87733245, 0.90506375, 0.8917332, 0.83149284, 0.89584726, 0.8527732, 0.8638526, 0.8326646, 0.8357687, 0.82579374, 0.91340375, -0.064230934, -0.08107412, -0.07601239, 0.043785717, -0.047787666, 0.006038818, 0.0425982, -0.014982733, 0.014873819, -0.019425016, -0.055740118, -0.024741389, 0.05046084, 0.028620949, 0.007933482, -0.028294114, -0.07403253, -0.034668673, -0.06303707, -0.001218571, -0.08026638, -0.06517005, -0.02536182, -0.06414459, 0.039907, 0.006597685, -0.052696176, -0.014157036, -0.08915048, 0.043155964, 0.06395999, 0.041976027, -0.007062758, 0.032593727, -0.041667674, -0.015774362, -0.066483304, -0.08232442, -0.02746745, -0.06310826, 0.05726709, 0.03403537, 0.0037838963, 0.031514857, -0.01797704, -0.046522036, -0.0039988654, 0.025776852, 0.057226785, 0.027125452, -0.0029923068, -0.047067072, 0.054381102, 0.0697168, 0.022542682, 0.05166402, -0.011905554, 0.021852372, -0.041308183, -0.009979464, 0.04460753, 0.026755486, -0.0033226397, 0.023509027], "split_indices": [4, 6, 1, 4, 7, 4, 7, 1, 1, 6, 7, 6, 6, 4, 4, 3, 4, 2, 6, 4, 7, 6, 3, 7, 4, 7, 4, 6, 6, 6, 7, 2, 6, 7, 6, 7, 4, 7, 7, 7, 1, 4, 6, 6, 7, 7, 6, 4, 4, 6, 6, 6, 4, 6, 4, 6, 6, 4, 4, 4, 4, 7, 4, 0, 0, 0, 0, 0, 0, 0, 0, 0, 0, 0, 0, 0, 0, 0, 0, 0, 0, 0, 0, 0, 0, 0, 0, 0, 0, 0, 0, 0, 0, 0, 0, 0, 0, 0, 0, 0, 0, 0, 0, 0, 0, 0, 0, 0, 0, 0, 0, 0, 0, 0, 0, 0, 0, 0, 0, 0, 0, 0, 0, 0, 0, 0, 0], "split_type": [0, 0, 0, 0, 0, 0, 0, 0, 0, 0, 0, 0, 0, 0, 0, 0, 0, 0, 0, 0, 0, 0, 0, 0, 0, 0, 0, 0, 0, 0, 0, 0, 0, 0, 0, 0, 0, 0, 0, 0, 0, 0, 0, 0, 0, 0, 0, 0, 0, 0, 0, 0, 0, 0, 0, 0, 0, 0, 0, 0, 0, 0, 0, 0, 0, 0, 0, 0, 0, 0, 0, 0, 0, 0, 0, 0, 0, 0, 0, 0, 0, 0, 0, 0, 0, 0, 0, 0, 0, 0, 0, 0, 0, 0, 0, 0, 0, 0, 0, 0, 0, 0, 0, 0, 0, 0, 0, 0, 0, 0, 0, 0, 0, 0, 0, 0, 0, 0, 0, 0, 0, 0, 0, 0, 0, 0, 0], "sum_hessian": [350078.9, 80352.32, 269726.56, 22661.062, 57691.26, 39682.62, 230043.95, 11099.139, 11561.924, 55009.28, 2681.9788, 23666.045, 16016.576, 80282.33, 149761.62, 2388.3513, 8710.787, 3847.276, 7714.6475, 20880.861, 34128.42, 2173.5994, 508.3796, 10802.004, 12864.041, 5369.285, 10647.291, 22662.309, 57620.016, 70046.734, 79714.89, 2372.0217, 16.329569, 7300.6147, 1410.1729, 663.65704, 3183.619, 2894.016, 4820.6313, 14314.993, 6565.868, 27352.625, 6775.796, 950.19293, 1223.4064, 56.64492, 451.73468, 1020.46606, 9781.537, 6711.598, 6152.443, 1436.2489, 3933.0361, 3908.765, 6738.526, 13216.779, 9445.53, 16490.219, 41129.797, 34861.87, 35184.86, 52185.164, 27529.727, 579.4825, 1792.5393, 4.622353, 11.707216, 6696.274, 604.34076, 501.59036, 908.58246, 172.16154, 491.4955, 2110.1807, 1073.4382, 1715.559, 1178.4572, 4319.8765, 500.7551, 10073.714, 4241.279, 3253.5452, 3312.3228, 21107.604, 6245.023, 2617.0608, 4158.735, 121.53801, 828.6549, 771.6147, 451.79166, 12.263306, 44.381615, 164.99431, 286.7404, 414.99515, 605.47095, 4487.536, 5294.0015, 4547.1606, 2164.4373, 3571.115, 2581.328, 393.67245, 1042.5765, 3471.1675, 461.86868, 2069.4607, 1839.3043, 4645.6304, 2092.8955, 5569.3696, 7647.4097, 8597.347, 848.183, 12294.574, 4195.6445, 13301.189, 27828.61, 10995.532, 23866.34, 5156.605, 30028.256, 23949.035, 28236.129, 21807.42, 5722.3076], "tree_param": {"num_deleted": "0", "num_feature": "8", "num_nodes": "127", "size_leaf_vector": "1"}}, {"base_weights": [-0.0026227836, -0.44379777, 0.14056, -0.23341034, -0.59856504, -0.21304056, 0.19819841, -0.46388903, -0.018810967, -0.6494187, -0.2059743, -0.40268275, -0.06930961, 0.36720917, 0.1076113, -0.23231569, -0.5456366, -0.3953238, 0.16414545, -0.54932916, -0.7219657, -0.25573295, 0.26223245, -0.20511323, -0.56725496, -0.17362502, 0.015674353, 0.25079438, 0.44180143, -0.07925787, 0.1772679, -0.5764286, -0.12932904, -0.65079135, -0.25305003, -0.19576138, -0.4857587, 0.35315046, 0.04051822, -0.62280804, -0.33770698, -0.7535452, -0.63074076, -0.1632896, -0.5191199, 0.075847395, 0.62833273, 0.16375251, -0.2606596, -0.69218904, -0.44808185, -0.041130107, -0.44923007, 0.07358235, -0.10368364, 0.5044115, 0.11343426, 0.5523384, 0.3762747, 0.051157918, -0.18336517, 0.30734542, 0.052147, -0.039088838, -0.07159888, -0.03099491, 0.017970491, -0.05819712, -0.07594263, -0.03346027, -0.0020099885, -0.043371614, -0.0040498087, -0.055822063, -0.032950666, 0.046595994, 0.023151373, 0.01912299, -0.0022446064, -0.06887302, -0.018237105, -0.06526799, -0.0074600736, -0.07973506, -0.06723973, -0.05703779, -0.07180778, 0.020711338, -0.020304149, -0.06673817, -0.019404856, 0.012418504, -0.091238566, 0.0793661, 0.047777306, 0.033570193, 0.0058816364, -0.012037975, -0.03142026, -0.05193719, -0.07339514, -0.03244782, -0.05925717, 0.009675059, -0.011125055, -0.034855254, -0.066218644, 0.036700293, 0.0051512877, -0.018448023, 0.016821705, 0.04190324, 0.062097628, 0.019829514, -0.0035714258, 0.047373384, 0.060005255, 0.017625257, 0.047673404, -0.014774861, 0.010861713, -0.0418779, -0.01362007, 0.02627633, 0.04314782, -0.007864834, 0.014950372], "categories": [], "categories_nodes": [], "categories_segments": [], "categories_sizes": [], "default_left": [0, 0, 0, 0, 0, 0, 0, 0, 0, 0, 0, 0, 0, 0, 0, 0, 0, 0, 0, 0, 0, 0, 0, 0, 0, 0, 0, 0, 0, 0, 0, 0, 0, 0, 0, 0, 0, 0, 0, 0, 0, 0, 0, 0, 0, 0, 0, 0, 0, 0, 0, 0, 0, 0, 0, 0, 0, 0, 0, 0, 0, 0, 0, 0, 0, 0, 0, 0, 0, 0, 0, 0, 0, 0, 0, 0, 0, 0, 0, 0, 0, 0, 0, 0, 0, 0, 0, 0, 0, 0, 0, 0, 0, 0, 0, 0, 0, 0, 0, 0, 0, 0, 0, 0, 0, 0, 0, 0, 0, 0, 0, 0, 0, 0, 0, 0, 0, 0, 0, 0, 0, 0, 0, 0, 0, 0, 0], "id": 3, "left_children": [1, 3, 5, 7, 9, 11, 13, 15, 17, 19, 21, 23, 25, 27, 29, 31, 33, 35, 37, 39, 41, 43, 45, 47, 49, 51, 53, 55, 57, 59, 61, 63, 65, 67, 69, 71, 73, 75, 77, 79, 81, 83, 85, 87, 89, 91, 93, 95, 97, 99, 101, 103, 105, 107, 109, 111, 113, 115, 117, 119, 121, 123, 125, -1, -1, -1, -1, -1, -1, -1, -1, -1, -1, -1, -1, -1, -1, -1, -1, -1, -1, -1, -1, -1, -1, -1, -1, -1, -1, -1, -1, -1, -1, -1, -1, -1, -1, -1, -1, -1, -1, -1, -1, -1, -1, -1, -1, -1, -1, -1, -1, -1, -1, -1, -1, -1, -1, -1, -1, -1, -1, -1, -1, -1, -1, -1, -1], "loss_changes": [21580.883, 2725.5605, 5256.88, 1754.9264, 962.7617, 985.3627, 3395.4326, 323.73267, 1265.8163, 309.64453, 128.95767, 506.65674, 182.3245, 671.9131, 1879.4894, 158.17033, 388.83594, 108.35449, 288.94507, 278.8662, 70.831055, 121.69235, 36.251564, 145.19873, 126.28247, 337.13766, 78.34654, 1052.8726, 341.4209, 532.34686, 1711.8779, 26.345886, 191.95773, 69.08862, 63.527664, 69.27824, 46.628662, 66.99304, 70.961365, 386.6328, 383.4583, 64.80469, 33.178955, 54.573944, 62.47177, 17.006393, 4.084549, 16.72168, 46.212738, 29.564087, 77.575806, 60.30698, 64.03589, 49.40413, 81.3801, 105.41577, 248.173, 65.54492, 595.0029, 198.94568, 242.0299, 285.2788, 682.7228, 0.0, 0.0, 0.0, 0.0, 0.0, 0.0, 0.0, 0.0, 0.0, 0.0, 0.0, 0.0, 0.0, 0.0, 0.0, 0.0, 0.0, 0.0, 0.0, 0.0, 0.0, 0.0, 0.0, 0.0, 0.0, 0.0, 0.0, 0.0, 0.0, 0.0, 0.0, 0.0, 0.0, 0.0, 0.0, 0.0, 0.0, 0.0, 0.0, 0.0, 0.0, 0.0, 0.0, 0.0, 0.0, 0.0, 0.0, 0.0, 0.0, 0.0, 0.0, 0.0, 0.0, 0.0, 0.0, 0.0, 0.0, 0.0, 0.0, 0.0, 0.0, 0.0, 0.0, 0.0], "parents": [2147483647, 0, 0, 1, 1, 2, 2, 3, 3, 4, 4, 5, 5, 6, 6, 7, 7, 8, 8, 9, 9, 10, 10, 11, 11, 12, 12, 13, 13, 14, 14, 15, 15, 16, 16, 17, 17, 18, 18, 19, 19, 20, 20, 21, 21, 22, 22, 23, 23, 24, 24, 25, 25, 26, 26, 27, 27, 28, 28, 29, 29, 30, 30, 31, 31, 32, 32, 33, 33, 34, 34, 35, 35, 36, 36, 37, 37, 38, 38, 39, 39, 40, 40, 41, 41, 42, 42, 43, 43, 44, 44, 45, 45, 46, 46, 47, 47, 48, 48, 49, 49, 50, 50, 51, 51, 52, 52, 53, 53, 54, 54, 55, 55, 56, 56, 57, 57, 58, 58, 59, 59, 60, 60, 61, 61, 62, 62], "right_children": [2, 4, 6, 8, 10, 12, 14, 16, 18, 20, 22, 24, 26, 28, 30, 32, 34, 36, 38, 40, 42, 44, 46, 48, 50, 52, 54, 56, 58, 60, 62, 64, 66, 68, 70, 72, 74, 76, 78, 80, 82, 84, 86, 88, 90, 92, 94, 96, 98, 100, 102, 104, 106, 108, 110, 112, 114, 116, 118, 120, 122, 124, 126, -1, -1, -1, -1, -1, -1, -1, -1, -1, -1, -1, -1, -1, -1, -1, -1, -1, -1, -1, -1, -1, -1, -1, -1, -1, -1, -1, -1, -1, -1, -1, -1, -1, -1, -1, -1, -1, -1, -1, -1, -1, -1, -1, -1, -1, -1, -1, -1, -1, -1, -1, -1, -1, -1, -1, -1, -1, -1, -1, -1, -1, -1, -1, -1], "split_conditions": [0.80834085, 0.850804, 1.0, 0.7733112, 0.8371366, 0.83801365, 0.7982408, 0.81025225, 1.0, 0.87254274, 0.8860433, 0.8687655, 0.8602923, 0.8430855, 0.85378414, 1.0, 0.78302985, 0.82353973, 0.7619708, 0.7921898, 0.80695844, 0.9140519, 2228.968, 0.8374224, 0.82522595, 0.8952073, 0.9135744, 0.8431649, 0.8761429, 0.87216306, 0.8371366, 2226.67, 1.0, 0.83659256, 0.8033005, 0.7853191, 0.79901713, 0.8194778, 0.82353973, 0.81222606, 1.0, 0.7822833, 0.8987037, 0.8791305, 0.8700519, 2474.648, 2607.133, 0.78257865, 0.7977904, 0.7994515, 0.89000297, 2162.4321, 0.9113213, 0.81462413, 0.90289104, 0.82565427, 0.86917794, 0.8527732, 0.8757121, 0.8235356, 0.82870436, 0.8944323, 0.8847276, -0.039088838, -0.07159888, -0.03099491, 0.017970491, -0.05819712, -0.07594263, -0.03346027, -0.0020099885, -0.043371614, -0.0040498087, -0.055822063, -0.032950666, 0.046595994, 0.023151373, 0.01912299, -0.0022446064, -0.06887302, -0.018237105, -0.06526799, -0.0074600736, -0.07973506, -0.06723973, -0.05703779, -0.07180778, 0.020711338, -0.020304149, -0.06673817, -0.019404856, 0.012418504, -0.091238566, 0.0793661, 0.047777306, 0.033570193, 0.0058816364, -0.012037975, -0.03142026, -0.05193719, -0.07339514, -0.03244782, -0.05925717, 0.009675059, -0.011125055, -0.034855254, -0.066218644, 0.036700293, 0.0051512877, -0.018448023, 0.016821705, 0.04190324, 0.062097628, 0.019829514, -0.0035714258, 0.047373384, 0.060005255, 0.017625257, 0.047673404, -0.014774861, 0.010861713, -0.0418779, -0.01362007, 0.02627633, 0.04314782, -0.007864834, 0.014950372], "split_indices": [4, 6, 1, 4, 7, 4, 7, 6, 1, 6, 7, 6, 4, 4, 4, 1, 7, 6, 7, 4, 7, 6, 3, 6, 4, 6, 6, 6, 6, 6, 7, 2, 5, 6, 7, 4, 4, 6, 6, 7, 1, 4, 6, 6, 7, 2, 2, 7, 7, 7, 6, 2, 6, 7, 4, 4, 6, 4, 4, 4, 4, 4, 4, 0, 0, 0, 0, 0, 0, 0, 0, 0, 0, 0, 0, 0, 0, 0, 0, 0, 0, 0, 0, 0, 0, 0, 0, 0, 0, 0, 0, 0, 0, 0, 0, 0, 0, 0, 0, 0, 0, 0, 0, 0, 0, 0, 0, 0, 0, 0, 0, 0, 0, 0, 0, 0, 0, 0, 0, 0, 0, 0, 0, 0, 0, 0, 0], "split_type": [0, 0, 0, 0, 0, 0, 0, 0, 0, 0, 0, 0, 0, 0, 0, 0, 0, 0, 0, 0, 0, 0, 0, 0, 0, 0, 0, 0, 0, 0, 0, 0, 0, 0, 0, 0, 0, 0, 0, 0, 0, 0, 0, 0, 0, 0, 0, 0, 0, 0, 0, 0, 0, 0, 0, 0, 0, 0, 0, 0, 0, 0, 0, 0, 0, 0, 0, 0, 0, 0, 0, 0, 0, 0, 0, 0, 0, 0, 0, 0, 0, 0, 0, 0, 0, 0, 0, 0, 0, 0, 0, 0, 0, 0, 0, 0, 0, 0, 0, 0, 0, 0, 0, 0, 0, 0, 0, 0, 0, 0, 0, 0, 0, 0, 0, 0, 0, 0, 0, 0, 0, 0, 0, 0, 0, 0, 0], "sum_hessian": [341637.06, 83709.414, 257927.66, 35480.484, 48228.93, 36150.234, 221777.42, 17106.754, 18373.732, 42697.51, 5531.4165, 15585.085, 20565.15, 77388.55, 144388.88, 4464.271, 12642.482, 6008.158, 12365.573, 17946.35, 24751.162, 5000.4478, 530.9687, 7083.53, 8501.556, 9232.039, 11333.11, 30223.564, 47164.98, 39207.09, 105181.79, 1027.2585, 3437.0125, 9299.165, 3343.3176, 1874.6149, 4133.5435, 4889.106, 7476.468, 13319.608, 4626.7407, 18380.93, 6370.2334, 3702.5496, 1297.8983, 352.64233, 178.32634, 926.8262, 6156.703, 4148.1113, 4353.444, 6235.5146, 2996.5247, 7631.1484, 3701.9622, 10617.358, 19606.205, 17550.922, 29614.059, 17404.67, 21802.418, 51568.727, 53613.066, 442.61664, 584.6419, 2169.1902, 1267.8223, 5696.68, 3602.4849, 2476.0496, 867.26794, 739.489, 1135.1259, 2822.1826, 1311.3607, 2535.1255, 2353.9805, 2202.5042, 5273.964, 11585.058, 1734.5505, 2105.1355, 2521.6055, 11931.315, 6449.6143, 3771.261, 2598.9722, 358.44022, 3344.1094, 890.6353, 407.26297, 337.0314, 15.610949, 82.958694, 95.367645, 350.4221, 576.4041, 1701.6681, 4455.035, 809.93665, 3338.1748, 2348.0515, 2005.3922, 2101.9617, 4133.5527, 2036.4204, 960.1042, 532.72845, 7098.42, 2854.1572, 847.8048, 6131.137, 4486.2217, 12496.026, 7110.18, 6633.605, 10917.316, 9901.726, 19712.334, 3900.554, 13504.116, 3637.6738, 18164.744, 37944.227, 13624.5, 22877.773, 30735.293], "tree_param": {"num_deleted": "0", "num_feature": "8", "num_nodes": "127", "size_leaf_vector": "1"}}, {"base_weights": [0.0020729061, -0.2415141, 0.23948449, -0.49612334, -0.043000687, -0.34658352, 0.27529335, -0.31874508, -0.6281757, 0.065478005, -0.14994271, -0.14652847, -0.4660534, 0.39939737, 0.16403441, -0.444739, -0.13479294, -0.70531976, -0.50034857, 0.31079844, 0.01485829, -0.27148443, -0.05644929, -0.22444527, 0.06315446, -0.52924347, 0.024185726, 0.30221757, 0.44882745, 0.04977293, 0.34375623, -0.59799254, -0.3527056, -0.35669965, 0.09479557, -0.62581414, -0.7473184, -0.60581833, -0.2713581, 0.11380573, 0.41916263, -0.08857571, 0.096570626, -0.03426838, -0.34707192, 0.12065915, -0.112611055, -0.37028372, -0.0044023236, 0.42415774, -0.014948031, -0.58507776, -0.23646408, 0.48365816, -0.29386842, 0.48478037, 0.17919485, 0.56858736, 0.41734463, 0.09167111, -0.1343669, 0.4066714, 0.19165999, -0.04955588, -0.0709323, -0.012716827, -0.042609487, -0.0064357296, -0.041014496, 0.018976592, -0.019426066, -0.06702392, -0.0412351, -0.075463556, -0.056351006, -0.044260725, -0.06358647, -0.016150868, -0.04886487, 0.031260867, 0.0037697281, 0.053589977, 0.03323048, -0.01637263, 0.006945184, 0.02523919, 0.0019509441, 0.0035096526, -0.021848135, -0.044247717, -0.022361517, 0.028358838, 0.005998609, -0.020001255, -0.005986881, 0.017924204, -0.042508177, 0.02118836, -0.011326129, 0.0664431, 0.028312642, -0.006335586, 0.05848028, 0.022609117, -0.05951583, -0.027563242, 0.026420867, 0.0081161475, 0.053388447, 0.02727952, -0.039555173, 0.054574598, 0.03608607, 0.024763232, 0.0036224914, 0.052791514, 0.06368851, 0.025469555, 0.047298316, 0.001373192, 0.020831157, -0.034186132, -0.0046562837, 0.049650963, 0.03794813, 0.04470584, 0.015120426], "categories": [], "categories_nodes": [], "categories_segments": [], "categories_sizes": [], "default_left": [0, 0, 0, 0, 0, 0, 0, 0, 0, 0, 0, 0, 0, 0, 0, 0, 0, 0, 0, 0, 0, 0, 0, 0, 0, 0, 0, 0, 0, 0, 0, 0, 0, 0, 0, 0, 0, 0, 0, 0, 0, 0, 0, 0, 0, 0, 0, 0, 0, 0, 0, 0, 0, 0, 0, 0, 0, 0, 0, 0, 0, 0, 0, 0, 0, 0, 0, 0, 0, 0, 0, 0, 0, 0, 0, 0, 0, 0, 0, 0, 0, 0, 0, 0, 0, 0, 0, 0, 0, 0, 0, 0, 0, 0, 0, 0, 0, 0, 0, 0, 0, 0, 0, 0, 0, 0, 0, 0, 0, 0, 0, 0, 0, 0, 0, 0, 0, 0, 0, 0, 0, 0, 0, 0, 0, 0, 0], "id": 4, "left_children": [1, 3, 5, 7, 9, 11, 13, 15, 17, 19, 21, 23, 25, 27, 29, 31, 33, 35, 37, 39, 41, 43, 45, 47, 49, 51, 53, 55, 57, 59, 61, 63, 65, 67, 69, 71, 73, 75, 77, 79, 81, 83, 85, 87, 89, 91, 93, 95, 97, 99, 101, 103, 105, 107, 109, 111, 113, 115, 117, 119, 121, 123, 125, -1, -1, -1, -1, -1, -1, -1, -1, -1, -1, -1, -1, -1, -1, -1, -1, -1, -1, -1, -1, -1, -1, -1, -1, -1, -1, -1, -1, -1, -1, -1, -1, -1, -1, -1, -1, -1, -1, -1, -1, -1, -1, -1, -1, -1, -1, -1, -1, -1, -1, -1, -1, -1, -1, -1, -1, -1, -1, -1, -1, -1, -1, -1, -1], "loss_changes": [19490.086, 8407.7295, 3581.9395, 1706.8105, 1084.3666, 234.83093, 2220.8584, 720.80664, 411.59375, 576.2312, 534.8512, 60.075356, 190.62158, 365.10156, 1741.6704, 260.1438, 644.2533, 86.515625, 379.64526, 169.38434, 325.12537, 366.93152, 264.65363, 86.01637, 28.109724, 88.96155, 102.9495, 575.7285, 189.77734, 400.04956, 315.36328, 78.61572, 190.88184, 100.44116, 170.66716, 85.170654, 22.49414, 52.515137, 118.334656, 42.62703, 51.73633, 201.63414, 258.048, 63.211132, 182.69482, 63.309372, 93.10831, 48.619186, 25.20339, 5.82061, 23.856003, 37.55945, 17.22485, 5.781906, 24.098022, 77.7749, 149.87283, 28.79712, 361.0454, 384.00046, 175.0939, 56.77002, 99.61557, 0.0, 0.0, 0.0, 0.0, 0.0, 0.0, 0.0, 0.0, 0.0, 0.0, 0.0, 0.0, 0.0, 0.0, 0.0, 0.0, 0.0, 0.0, 0.0, 0.0, 0.0, 0.0, 0.0, 0.0, 0.0, 0.0, 0.0, 0.0, 0.0, 0.0, 0.0, 0.0, 0.0, 0.0, 0.0, 0.0, 0.0, 0.0, 0.0, 0.0, 0.0, 0.0, 0.0, 0.0, 0.0, 0.0, 0.0, 0.0, 0.0, 0.0, 0.0, 0.0, 0.0, 0.0, 0.0, 0.0, 0.0, 0.0, 0.0, 0.0, 0.0, 0.0, 0.0, 0.0], "parents": [2147483647, 0, 0, 1, 1, 2, 2, 3, 3, 4, 4, 5, 5, 6, 6, 7, 7, 8, 8, 9, 9, 10, 10, 11, 11, 12, 12, 13, 13, 14, 14, 15, 15, 16, 16, 17, 17, 18, 18, 19, 19, 20, 20, 21, 21, 22, 22, 23, 23, 24, 24, 25, 25, 26, 26, 27, 27, 28, 28, 29, 29, 30, 30, 31, 31, 32, 32, 33, 33, 34, 34, 35, 35, 36, 36, 37, 37, 38, 38, 39, 39, 40, 40, 41, 41, 42, 42, 43, 43, 44, 44, 45, 45, 46, 46, 47, 47, 48, 48, 49, 49, 50, 50, 51, 51, 52, 52, 53, 53, 54, 54, 55, 55, 56, 56, 57, 57, 58, 58, 59, 59, 60, 60, 61, 61, 62, 62], "right_children": [2, 4, 6, 8, 10, 12, 14, 16, 18, 20, 22, 24, 26, 28, 30, 32, 34, 36, 38, 40, 42, 44, 46, 48, 50, 52, 54, 56, 58, 60, 62, 64, 66, 68, 70, 72, 74, 76, 78, 80, 82, 84, 86, 88, 90, 92, 94, 96, 98, 100, 102, 104, 106, 108, 110, 112, 114, 116, 118, 120, 122, 124, 126, -1, -1, -1, -1, -1, -1, -1, -1, -1, -1, -1, -1, -1, -1, -1, -1, -1, -1, -1, -1, -1, -1, -1, -1, -1, -1, -1, -1, -1, -1, -1, -1, -1, -1, -1, -1, -1, -1, -1, -1, -1, -1, -1, -1, -1, -1, -1, -1, -1, -1, -1, -1, -1, -1, -1, -1, -1, -1, -1, -1, -1, -1, -1, -1], "split_conditions": [2069.954, 0.81834316, 1.0, 2325.351, 2229.9329, 2579.2393, 1859.3813, 1720.7306, 0.78412026, 0.8002894, 0.8473464, 2265.4673, 2589.394, 2247.4211, 2543.8826, 0.7668375, 1.0, 2525.8076, 1765.9517, 1760.1885, 0.8591579, 0.7982408, 0.8227337, 0.8321495, 1779.4899, 0.8376589, 2121.7913, 2283.9133, 2439.0251, 2771.8242, 2165.451, 2100.7793, 1954.875, 2052.4993, 0.790177, 1959.7887, 2053.2805, 0.7746462, 2615.14, 1899.4384, 2069.4443, 1805.1699, 0.8393251, 2579.2393, 1763.093, 0.7977904, 0.8657306, 1653.0857, 2335.1746, 1648.1604, 0.9057753, 1657.9382, 0.89287055, 2616.2349, 2788.608, 1715.8105, 2499.7004, 2344.3342, 2435.4885, 2328.209, 2284.7192, 2745.4866, 0.7892356, -0.04955588, -0.0709323, -0.012716827, -0.042609487, -0.0064357296, -0.041014496, 0.018976592, -0.019426066, -0.06702392, -0.0412351, -0.075463556, -0.056351006, -0.044260725, -0.06358647, -0.016150868, -0.04886487, 0.031260867, 0.0037697281, 0.053589977, 0.03323048, -0.01637263, 0.006945184, 0.02523919, 0.0019509441, 0.0035096526, -0.021848135, -0.044247717, -0.022361517, 0.028358838, 0.005998609, -0.020001255, -0.005986881, 0.017924204, -0.042508177, 0.02118836, -0.011326129, 0.0664431, 0.028312642, -0.006335586, 0.05848028, 0.022609117, -0.05951583, -0.027563242, 0.026420867, 0.0081161475, 0.053388447, 0.02727952, -0.039555173, 0.054574598, 0.03608607, 0.024763232, 0.0036224914, 0.052791514, 0.06368851, 0.025469555, 0.047298316, 0.001373192, 0.020831157, -0.034186132, -0.0046562837, 0.049650963, 0.03794813, 0.04470584, 0.015120426], "split_indices": [0, 4, 5, 2, 2, 2, 3, 0, 4, 7, 4, 0, 0, 0, 0, 4, 5, 2, 0, 0, 4, 7, 7, 7, 3, 7, 3, 2, 2, 2, 3, 2, 2, 2, 7, 0, 3, 7, 2, 2, 2, 0, 7, 2, 0, 7, 4, 3, 2, 3, 7, 3, 7, 0, 2, 3, 2, 0, 0, 0, 0, 2, 7, 0, 0, 0, 0, 0, 0, 0, 0, 0, 0, 0, 0, 0, 0, 0, 0, 0, 0, 0, 0, 0, 0, 0, 0, 0, 0, 0, 0, 0, 0, 0, 0, 0, 0, 0, 0, 0, 0, 0, 0, 0, 0, 0, 0, 0, 0, 0, 0, 0, 0, 0, 0, 0, 0, 0, 0, 0, 0, 0, 0, 0, 0, 0, 0], "split_type": [0, 0, 0, 0, 0, 0, 0, 0, 0, 0, 0, 0, 0, 0, 0, 0, 0, 0, 0, 0, 0, 0, 0, 0, 0, 0, 0, 0, 0, 0, 0, 0, 0, 0, 0, 0, 0, 0, 0, 0, 0, 0, 0, 0, 0, 0, 0, 0, 0, 0, 0, 0, 0, 0, 0, 0, 0, 0, 0, 0, 0, 0, 0, 0, 0, 0, 0, 0, 0, 0, 0, 0, 0, 0, 0, 0, 0, 0, 0, 0, 0, 0, 0, 0, 0, 0, 0, 0, 0, 0, 0, 0, 0, 0, 0, 0, 0, 0, 0, 0, 0, 0, 0, 0, 0, 0, 0, 0, 0, 0, 0, 0, 0, 0, 0, 0, 0, 0, 0, 0, 0, 0, 0, 0, 0, 0, 0], "sum_hessian": [337019.6, 166346.33, 170673.27, 72875.81, 93470.516, 9827.195, 160846.06, 31101.871, 41773.938, 46402.08, 47068.44, 3675.205, 6151.9897, 76032.67, 84813.4, 18458.035, 12643.837, 26048.85, 15725.088, 7936.063, 38466.01, 20463.69, 26604.754, 2679.4636, 995.7415, 5449.49, 702.4994, 25637.096, 50395.574, 51850.043, 32963.35, 6923.523, 11534.512, 6429.1987, 6214.638, 9009.433, 17039.418, 10765.162, 4959.926, 2817.0552, 5119.008, 16976.523, 21489.49, 4945.3047, 15518.385, 6405.042, 20199.71, 1611.0325, 1068.4312, 176.32161, 819.4199, 4575.856, 873.63446, 287.1506, 415.34875, 10319.807, 15317.29, 10486.832, 39908.742, 42239.582, 9610.464, 23316.654, 9646.696, 3608.6768, 3314.8462, 2832.5002, 8702.012, 994.0441, 5435.155, 4678.0073, 1536.6309, 7455.6543, 1553.7782, 16384.082, 655.3349, 1676.1434, 9089.019, 3295.6042, 1664.3215, 779.0336, 2038.0215, 2181.6694, 2937.3384, 11505.163, 5471.3594, 7110.155, 14379.336, 3593.1304, 1352.1742, 8752.229, 6766.156, 1736.9705, 4668.072, 7600.9883, 12598.724, 145.87703, 1465.1555, 357.39536, 711.0357, 63.8426, 112.47901, 759.049, 60.370922, 55.9036, 4519.952, 810.66455, 62.96992, 32.14749, 255.00311, 62.935772, 352.413, 6914.5864, 3405.2202, 10358.233, 4959.056, 6578.1743, 3908.6577, 10173.612, 29735.13, 25321.117, 16918.463, 2856.7156, 6753.748, 5413.3286, 17903.324, 1317.7356, 8328.961], "tree_param": {"num_deleted": "0", "num_feature": "8", "num_nodes": "127", "size_leaf_vector": "1"}}, {"base_weights": [-0.00073184236, -0.40869042, 0.12574606, -0.48668915, 0.004657449, -0.131131, 0.22613525, -0.3572277, -0.6302773, -0.27386507, 0.2638297, -0.017291663, -0.24562114, 0.31628922, 0.11072537, -0.47343415, -0.14140633, -0.68769085, -0.5055419, -0.16969767, -0.4826525, 0.41837654, 0.12877785, 0.2494409, -0.04919159, -0.36840037, -0.10773608, 0.20148057, 0.37378544, -0.0034839807, 0.18480505, -0.3251273, -0.563525, -0.3274615, 0.14899643, -0.73226374, -0.60521656, -0.61660784, -0.23896736, 0.57932484, -0.19787388, -0.5690379, -0.04579973, 0.32369697, 0.51986295, 0.031273533, 0.5096011, 0.13521817, 0.32822755, -0.16389307, 0.016774554, -0.18329054, -0.418496, -0.14483587, 0.102229506, 0.30296066, 0.028766045, 0.40217674, 0.31382486, 0.20903462, -0.04047001, 0.26499617, 0.005297728, -0.040258035, -0.019794088, -0.0636434, -0.04765335, -0.03863085, 0.002915981, 0.031091502, -0.0071036965, -0.060837775, -0.07374228, -0.06365701, -0.04196332, -0.067636244, -0.048926815, -0.0026160735, -0.04380454, 0.078293286, 0.049595483, -0.024850452, 0.009556598, 0.052576423, -0.05828896, 0.015129367, -0.032341067, 0.05477068, 0.015412276, 0.060061123, 0.038868196, 0.029158516, -0.011338814, 0.05505938, 0.022450766, 0.006872907, 0.0372059, 0.052368313, 0.023346847, -0.023648046, -0.00089114317, 0.019981846, -0.00391208, -0.03329729, -0.0021301683, -0.053931225, -0.035066266, 0.0028361587, -0.019264499, 0.00072737824, 0.01666543, 0.044342373, 0.02309742, 0.016113805, -0.011255327, 0.035641912, 0.047833335, 0.015689602, 0.039967656, 0.016453356, 0.043184303, -0.009886867, 0.0043723076, 0.022002691, 0.038398188, -0.009276311, 0.009879711], "categories": [], "categories_nodes": [], "categories_segments": [], "categories_sizes": [], "default_left": [0, 0, 0, 0, 0, 0, 0, 0, 0, 0, 0, 0, 0, 0, 0, 0, 0, 0, 0, 0, 0, 0, 0, 0, 0, 0, 0, 0, 0, 0, 0, 0, 0, 0, 0, 0, 0, 0, 0, 0, 0, 0, 0, 0, 0, 0, 0, 0, 0, 0, 0, 0, 0, 0, 0, 0, 0, 0, 0, 0, 0, 0, 0, 0, 0, 0, 0, 0, 0, 0, 0, 0, 0, 0, 0, 0, 0, 0, 0, 0, 0, 0, 0, 0, 0, 0, 0, 0, 0, 0, 0, 0, 0, 0, 0, 0, 0, 0, 0, 0, 0, 0, 0, 0, 0, 0, 0, 0, 0, 0, 0, 0, 0, 0, 0, 0, 0, 0, 0, 0, 0, 0, 0, 0, 0, 0, 0], "id": 5, "left_children": [1, 3, 5, 7, 9, 11, 13, 15, 17, 19, 21, 23, 25, 27, 29, 31, 33, 35, 37, 39, 41, 43, 45, 47, 49, 51, 53, 55, 57, 59, 61, 63, 65, 67, 69, 71, 73, 75, 77, 79, 81, 83, 85, 87, 89, 91, 93, 95, 97, 99, 101, 103, 105, 107, 109, 111, 113, 115, 117, 119, 121, 123, 125, -1, -1, -1, -1, -1, -1, -1, -1, -1, -1, -1, -1, -1, -1, -1, -1, -1, -1, -1, -1, -1, -1, -1, -1, -1, -1, -1, -1, -1, -1, -1, -1, -1, -1, -1, -1, -1, -1, -1, -1, -1, -1, -1, -1, -1, -1, -1, -1, -1, -1, -1, -1, -1, -1, -1, -1, -1, -1, -1, -1, -1, -1, -1, -1], "loss_changes": [17039.406, 2519.6836, 6500.6685, 1221.9375, 895.69556, 923.2113, 1885.8096, 867.0957, 222.88379, 129.99527, 134.09784, 302.23535, 597.84033, 671.6416, 672.5515, 300.0996, 653.97034, 78.01758, 290.86084, 84.35744, 75.07953, 28.628174, 127.40155, 34.101517, 240.05322, 173.15527, 129.60497, 595.1752, 115.29785, 245.84518, 694.079, 83.60901, 88.36377, 154.82483, 168.42471, 8.403809, 43.336426, 52.458008, 122.52402, 2.0724907, 57.18936, 25.503479, 18.08664, 58.912292, 15.070923, 102.9522, 8.050354, 24.39137, 41.453552, 130.314, 206.09529, 96.5092, 120.293945, 117.077545, 15.284584, 216.18042, 235.1433, 160.16504, 293.5359, 45.90042, 130.98987, 178.24536, 136.52791, 0.0, 0.0, 0.0, 0.0, 0.0, 0.0, 0.0, 0.0, 0.0, 0.0, 0.0, 0.0, 0.0, 0.0, 0.0, 0.0, 0.0, 0.0, 0.0, 0.0, 0.0, 0.0, 0.0, 0.0, 0.0, 0.0, 0.0, 0.0, 0.0, 0.0, 0.0, 0.0, 0.0, 0.0, 0.0, 0.0, 0.0, 0.0, 0.0, 0.0, 0.0, 0.0, 0.0, 0.0, 0.0, 0.0, 0.0, 0.0, 0.0, 0.0, 0.0, 0.0, 0.0, 0.0, 0.0, 0.0, 0.0, 0.0, 0.0, 0.0, 0.0, 0.0, 0.0, 0.0], "parents": [2147483647, 0, 0, 1, 1, 2, 2, 3, 3, 4, 4, 5, 5, 6, 6, 7, 7, 8, 8, 9, 9, 10, 10, 11, 11, 12, 12, 13, 13, 14, 14, 15, 15, 16, 16, 17, 17, 18, 18, 19, 19, 20, 20, 21, 21, 22, 22, 23, 23, 24, 24, 25, 25, 26, 26, 27, 27, 28, 28, 29, 29, 30, 30, 31, 31, 32, 32, 33, 33, 34, 34, 35, 35, 36, 36, 37, 37, 38, 38, 39, 39, 40, 40, 41, 41, 42, 42, 43, 43, 44, 44, 45, 45, 46, 46, 47, 47, 48, 48, 49, 49, 50, 50, 51, 51, 52, 52, 53, 53, 54, 54, 55, 55, 56, 56, 57, 57, 58, 58, 59, 59, 60, 60, 61, 61, 62, 62], "right_children": [2, 4, 6, 8, 10, 12, 14, 16, 18, 20, 22, 24, 26, 28, 30, 32, 34, 36, 38, 40, 42, 44, 46, 48, 50, 52, 54, 56, 58, 60, 62, 64, 66, 68, 70, 72, 74, 76, 78, 80, 82, 84, 86, 88, 90, 92, 94, 96, 98, 100, 102, 104, 106, 108, 110, 112, 114, 116, 118, 120, 122, 124, 126, -1, -1, -1, -1, -1, -1, -1, -1, -1, -1, -1, -1, -1, -1, -1, -1, -1, -1, -1, -1, -1, -1, -1, -1, -1, -1, -1, -1, -1, -1, -1, -1, -1, -1, -1, -1, -1, -1, -1, -1, -1, -1, -1, -1, -1, -1, -1, -1, -1, -1, -1, -1, -1, -1, -1, -1, -1, -1, -1, -1, -1, -1, -1, -1], "split_conditions": [0.80787295, 2184.8765, 1915.9305, 2442.3452, 1.0, 2215.582, 0.81659913, 1807.867, 1921.3691, 2822.3853, 1801.5051, 0.7892356, 0.84496975, 0.84401566, 0.8757121, 2096.2917, 0.73782605, 0.7790555, 0.7621123, 1624.6174, 2689.006, 2400.9714, 2649.2039, 1683.5996, 0.844491, 0.7944565, 0.88802636, 0.79148126, 2828.2344, 1753.0208, 0.86275434, 0.7829038, 0.7717854, 0.8564267, 1672.1503, 2460.1997, 2049.1265, 0.8082138, 2639.8862, 1480.9099, 2475.479, 1657.9382, 2383.7222, 2405.291, 2745.4866, 2644.2542, 3187.874, 0.8389172, 1972.1091, 1707.7488, 0.82623684, 0.82095826, 0.8231057, 0.8201779, 1941.1052, 2463.8516, 2517.8635, 2475.479, 2805.9678, 2204.361, 2247.4211, 0.9050466, 0.90289104, -0.040258035, -0.019794088, -0.0636434, -0.04765335, -0.03863085, 0.002915981, 0.031091502, -0.0071036965, -0.060837775, -0.07374228, -0.06365701, -0.04196332, -0.067636244, -0.048926815, -0.0026160735, -0.04380454, 0.078293286, 0.049595483, -0.024850452, 0.009556598, 0.052576423, -0.05828896, 0.015129367, -0.032341067, 0.05477068, 0.015412276, 0.060061123, 0.038868196, 0.029158516, -0.011338814, 0.05505938, 0.022450766, 0.006872907, 0.0372059, 0.052368313, 0.023346847, -0.023648046, -0.00089114317, 0.019981846, -0.00391208, -0.03329729, -0.0021301683, -0.053931225, -0.035066266, 0.0028361587, -0.019264499, 0.00072737824, 0.01666543, 0.044342373, 0.02309742, 0.016113805, -0.011255327, 0.035641912, 0.047833335, 0.015689602, 0.039967656, 0.016453356, 0.043184303, -0.009886867, 0.0043723076, 0.022002691, 0.038398188, -0.009276311, 0.009879711], "split_indices": [4, 0, 0, 2, 5, 2, 7, 0, 0, 2, 3, 7, 4, 4, 4, 2, 4, 4, 4, 3, 0, 0, 0, 0, 4, 7, 4, 7, 2, 3, 7, 4, 4, 7, 3, 2, 3, 7, 2, 3, 0, 3, 3, 2, 2, 2, 2, 4, 2, 0, 7, 4, 4, 7, 3, 2, 2, 0, 0, 0, 0, 4, 4, 0, 0, 0, 0, 0, 0, 0, 0, 0, 0, 0, 0, 0, 0, 0, 0, 0, 0, 0, 0, 0, 0, 0, 0, 0, 0, 0, 0, 0, 0, 0, 0, 0, 0, 0, 0, 0, 0, 0, 0, 0, 0, 0, 0, 0, 0, 0, 0, 0, 0, 0, 0, 0, 0, 0, 0, 0, 0, 0, 0, 0, 0, 0, 0], "split_type": [0, 0, 0, 0, 0, 0, 0, 0, 0, 0, 0, 0, 0, 0, 0, 0, 0, 0, 0, 0, 0, 0, 0, 0, 0, 0, 0, 0, 0, 0, 0, 0, 0, 0, 0, 0, 0, 0, 0, 0, 0, 0, 0, 0, 0, 0, 0, 0, 0, 0, 0, 0, 0, 0, 0, 0, 0, 0, 0, 0, 0, 0, 0, 0, 0, 0, 0, 0, 0, 0, 0, 0, 0, 0, 0, 0, 0, 0, 0, 0, 0, 0, 0, 0, 0, 0, 0, 0, 0, 0, 0, 0, 0, 0, 0, 0, 0, 0, 0, 0, 0, 0, 0, 0, 0, 0, 0, 0, 0, 0, 0, 0, 0, 0, 0, 0, 0, 0, 0, 0, 0, 0, 0, 0, 0, 0, 0], "sum_hessian": [330233.53, 78151.41, 252082.12, 65745.125, 12406.278, 70833.14, 181248.98, 34575.117, 31170.01, 5979.8765, 6426.4014, 35518.098, 35315.043, 101757.79, 79491.19, 22473.393, 12101.725, 21342.09, 9827.919, 3990.6765, 1989.2002, 2995.9192, 3430.4824, 3793.3154, 31724.783, 18679.914, 16635.129, 33956.945, 67800.84, 31275.064, 48216.12, 8494.472, 13978.92, 7375.9653, 4725.7593, 13849.371, 7492.719, 6936.5527, 2891.3665, 143.96703, 3846.7095, 1660.5353, 328.66495, 1552.1052, 1443.8138, 2732.0598, 698.4225, 1549.5444, 2243.771, 11582.947, 20141.836, 3979.567, 14700.348, 14137.431, 2497.6987, 21388.924, 12568.022, 46009.605, 21791.24, 4635.459, 26639.605, 33327.35, 14888.77, 5278.0933, 3216.3787, 7601.5913, 6377.3286, 6331.161, 1044.8041, 2722.1587, 2003.6005, 558.43066, 13290.94, 6407.7305, 1084.9889, 4718.207, 2218.3457, 1398.0438, 1493.3225, 39.386208, 104.580826, 3280.7893, 565.92017, 20.285255, 1640.25, 192.47202, 136.19293, 667.75806, 884.34717, 891.4837, 552.3301, 975.56415, 1756.4957, 609.8088, 88.6137, 1210.8959, 338.64862, 731.144, 1512.627, 7887.992, 3694.955, 4711.202, 15430.634, 2067.8027, 1911.7643, 5283.354, 9416.993, 3058.359, 11079.072, 1010.06964, 1487.629, 7245.6807, 14143.244, 6489.371, 6078.6514, 28744.531, 17265.072, 7706.785, 14084.455, 3865.2073, 770.2515, 15729.214, 10910.392, 24188.459, 9138.894, 7267.122, 7621.6475], "tree_param": {"num_deleted": "0", "num_feature": "8", "num_nodes": "127", "size_leaf_vector": "1"}}, {"base_weights": [0.00025866978, -0.23845316, 0.19351727, -0.4869854, -0.07346969, -0.33654174, 0.22903265, -0.32578552, -0.60215145, -0.00026949242, -0.22760212, -0.4255539, -0.061377663, 0.29142112, 0.11302008, -0.4201369, -0.14081249, -0.6655102, -0.49825978, -0.1270344, 0.087173104, -0.32965383, -0.07387838, -0.1712336, -0.5322847, 0.36301437, -0.10449644, 0.17935748, 0.34888482, -0.022176946, 0.18054746, -0.29311562, -0.52891004, -0.3248916, 0.10087466, -0.6841659, -0.5398209, -0.31545645, -0.64066344, -0.19190314, 0.037831962, 0.28473216, 0.037919756, -0.22293866, -0.5183018, 0.16608882, -0.10450648, -0.026480084, -0.2965686, -0.64794344, -0.38793528, -0.090320565, 0.42502952, -0.3474796, 0.035434227, 0.34958315, -0.0020387094, 0.44065312, 0.2962301, 0.11354296, -0.076842874, 0.2838039, 0.07620509, -0.02088911, -0.041905966, -0.0427088, -0.05950273, -0.037377805, 0.0004473268, 0.01919481, -0.010576187, -0.05969261, -0.070255525, -0.06358438, -0.043639503, -0.04142567, -0.008344129, -0.06842512, -0.047138717, -0.0070117447, -0.029226905, -0.00048117596, 0.01847988, 0.046437796, 0.02101626, 0.012614213, -0.00087733456, -0.031352066, -0.012604634, -0.058589894, -0.038713958, 0.05516506, 0.009747965, -0.016628549, -0.0033316084, -0.019011013, 0.014772129, -0.07325426, -0.018054215, -0.052392196, -0.07036027, -0.013866824, -0.050758123, 0.04925471, -0.090993285, -0.0104343705, -0.047231328, -0.0041483166, 0.015613526, 0.039955657, 0.02390783, 0.0067185587, -0.021145105, 0.037428703, 0.04982555, 0.015327314, 0.038492505, -0.0011784566, 0.033078324, -0.005045879, -0.024681706, 0.03921288, 0.02327135, 0.00043802452, 0.016805155], "categories": [], "categories_nodes": [], "categories_segments": [], "categories_sizes": [], "default_left": [0, 0, 0, 0, 0, 0, 0, 0, 0, 0, 0, 0, 0, 0, 0, 0, 0, 0, 0, 0, 0, 0, 0, 0, 0, 0, 0, 0, 0, 0, 0, 0, 0, 0, 0, 0, 0, 0, 0, 0, 0, 0, 0, 0, 0, 0, 0, 0, 0, 0, 0, 0, 0, 0, 0, 0, 0, 0, 0, 0, 0, 0, 0, 0, 0, 0, 0, 0, 0, 0, 0, 0, 0, 0, 0, 0, 0, 0, 0, 0, 0, 0, 0, 0, 0, 0, 0, 0, 0, 0, 0, 0, 0, 0, 0, 0, 0, 0, 0, 0, 0, 0, 0, 0, 0, 0, 0, 0, 0, 0, 0, 0, 0, 0, 0, 0, 0, 0, 0, 0, 0, 0, 0, 0, 0], "id": 6, "left_children": [1, 3, 5, 7, 9, 11, 13, 15, 17, 19, 21, 23, 25, 27, 29, 31, 33, 35, 37, 39, 41, 43, 45, 47, 49, 51, 53, 55, 57, 59, 61, 63, 65, 67, 69, 71, 73, 75, 77, 79, 81, 83, 85, 87, 89, 91, 93, 95, 97, 99, 101, -1, 103, 105, 107, 109, 111, 113, 115, 117, 119, 121, 123, -1, -1, -1, -1, -1, -1, -1, -1, -1, -1, -1, -1, -1, -1, -1, -1, -1, -1, -1, -1, -1, -1, -1, -1, -1, -1, -1, -1, -1, -1, -1, -1, -1, -1, -1, -1, -1, -1, -1, -1, -1, -1, -1, -1, -1, -1, -1, -1, -1, -1, -1, -1, -1, -1, -1, -1, -1, -1, -1, -1, -1, -1], "loss_changes": [15046.625, 5983.174, 3393.1006, 1080.6084, 989.4956, 277.19702, 1222.5869, 423.38306, 223.18555, 659.13824, 442.99133, 232.03882, 50.68371, 707.30566, 539.32587, 221.82861, 364.71484, 49.083008, 334.76465, 259.61075, 342.40323, 341.55774, 82.83847, 45.88404, 100.31018, 20.445755, 85.46161, 1149.7908, 350.73145, 146.00941, 424.44287, 78.55524, 58.004395, 74.926575, 66.7289, 29.03418, 26.839722, 129.172, 53.038086, 212.9082, 42.962288, 93.97363, 116.03851, 95.11511, 54.134033, 33.696445, 43.9476, 33.518566, 68.439255, 22.704712, 79.912384, 0.0, 22.462013, 27.828362, 14.820638, 105.98535, 261.35025, 101.00879, 584.99365, 153.85287, 62.901512, 109.49573, 129.27678, 0.0, 0.0, 0.0, 0.0, 0.0, 0.0, 0.0, 0.0, 0.0, 0.0, 0.0, 0.0, 0.0, 0.0, 0.0, 0.0, 0.0, 0.0, 0.0, 0.0, 0.0, 0.0, 0.0, 0.0, 0.0, 0.0, 0.0, 0.0, 0.0, 0.0, 0.0, 0.0, 0.0, 0.0, 0.0, 0.0, 0.0, 0.0, 0.0, 0.0, 0.0, 0.0, 0.0, 0.0, 0.0, 0.0, 0.0, 0.0, 0.0, 0.0, 0.0, 0.0, 0.0, 0.0, 0.0, 0.0, 0.0, 0.0, 0.0, 0.0, 0.0, 0.0], "parents": [2147483647, 0, 0, 1, 1, 2, 2, 3, 3, 4, 4, 5, 5, 6, 6, 7, 7, 8, 8, 9, 9, 10, 10, 11, 11, 12, 12, 13, 13, 14, 14, 15, 15, 16, 16, 17, 17, 18, 18, 19, 19, 20, 20, 21, 21, 22, 22, 23, 23, 24, 24, 25, 25, 26, 26, 27, 27, 28, 28, 29, 29, 30, 30, 31, 31, 32, 32, 33, 33, 34, 34, 35, 35, 36, 36, 37, 37, 38, 38, 39, 39, 40, 40, 41, 41, 42, 42, 43, 43, 44, 44, 45, 45, 46, 46, 47, 47, 48, 48, 49, 49, 50, 50, 52, 52, 53, 53, 54, 54, 55, 55, 56, 56, 57, 57, 58, 58, 59, 59, 60, 60, 61, 61, 62, 62], "right_children": [2, 4, 6, 8, 10, 12, 14, 16, 18, 20, 22, 24, 26, 28, 30, 32, 34, 36, 38, 40, 42, 44, 46, 48, 50, 52, 54, 56, 58, 60, 62, 64, 66, 68, 70, 72, 74, 76, 78, 80, 82, 84, 86, 88, 90, 92, 94, 96, 98, 100, 102, -1, 104, 106, 108, 110, 112, 114, 116, 118, 120, 122, 124, -1, -1, -1, -1, -1, -1, -1, -1, -1, -1, -1, -1, -1, -1, -1, -1, -1, -1, -1, -1, -1, -1, -1, -1, -1, -1, -1, -1, -1, -1, -1, -1, -1, -1, -1, -1, -1, -1, -1, -1, -1, -1, -1, -1, -1, -1, -1, -1, -1, -1, -1, -1, -1, -1, -1, -1, -1, -1, -1, -1, -1, -1], "split_conditions": [2024.4852, 0.8116289, 1.0, 2311.4048, 2348.604, 0.83453363, 0.8213513, 1754.3375, 0.77768356, 1701.0012, 0.8527732, 0.8431649, 0.8791305, 0.8416822, 0.8757121, 2069.4443, 0.752384, 0.81222606, 0.8591117, 0.8657306, 0.7994515, 0.8897336, 0.8098599, 0.8209085, 0.8033005, 2251.6123, 0.8525289, 0.85278606, 0.879828, 0.88208807, 0.85115075, 0.84623396, 0.8431649, 0.8564267, 0.7817099, 0.83149284, 1905.1165, 1813.3243, 1701.0012, 0.87030864, 0.8930577, 2040.7865, 2091.2156, 0.83047, 1745.3767, 0.8633899, 0.87336004, 2265.4673, 0.767725, 0.8599886, 0.8714903, -0.090320565, 2435.4885, 0.8925146, 0.8804617, 0.84170747, 0.8836888, 0.8564114, 0.8799254, 0.8597312, 0.914531, 0.90216726, 0.9050466, -0.02088911, -0.041905966, -0.0427088, -0.05950273, -0.037377805, 0.0004473268, 0.01919481, -0.010576187, -0.05969261, -0.070255525, -0.06358438, -0.043639503, -0.04142567, -0.008344129, -0.06842512, -0.047138717, -0.0070117447, -0.029226905, -0.00048117596, 0.01847988, 0.046437796, 0.02101626, 0.012614213, -0.00087733456, -0.031352066, -0.012604634, -0.058589894, -0.038713958, 0.05516506, 0.009747965, -0.016628549, -0.0033316084, -0.019011013, 0.014772129, -0.07325426, -0.018054215, -0.052392196, -0.07036027, -0.013866824, -0.050758123, 0.04925471, -0.090993285, -0.0104343705, -0.047231328, -0.0041483166, 0.015613526, 0.039955657, 0.02390783, 0.0067185587, -0.021145105, 0.037428703, 0.04982555, 0.015327314, 0.038492505, -0.0011784566, 0.033078324, -0.005045879, -0.024681706, 0.03921288, 0.02327135, 0.00043802452, 0.016805155], "split_indices": [0, 4, 5, 2, 2, 7, 7, 0, 4, 0, 4, 6, 6, 4, 4, 2, 4, 7, 6, 4, 7, 6, 7, 6, 7, 2, 7, 6, 6, 6, 7, 6, 6, 7, 7, 6, 0, 0, 0, 6, 4, 2, 2, 4, 0, 6, 4, 0, 7, 6, 6, 0, 0, 6, 7, 6, 6, 4, 4, 4, 6, 6, 4, 0, 0, 0, 0, 0, 0, 0, 0, 0, 0, 0, 0, 0, 0, 0, 0, 0, 0, 0, 0, 0, 0, 0, 0, 0, 0, 0, 0, 0, 0, 0, 0, 0, 0, 0, 0, 0, 0, 0, 0, 0, 0, 0, 0, 0, 0, 0, 0, 0, 0, 0, 0, 0, 0, 0, 0, 0, 0, 0, 0, 0, 0], "split_type": [0, 0, 0, 0, 0, 0, 0, 0, 0, 0, 0, 0, 0, 0, 0, 0, 0, 0, 0, 0, 0, 0, 0, 0, 0, 0, 0, 0, 0, 0, 0, 0, 0, 0, 0, 0, 0, 0, 0, 0, 0, 0, 0, 0, 0, 0, 0, 0, 0, 0, 0, 0, 0, 0, 0, 0, 0, 0, 0, 0, 0, 0, 0, 0, 0, 0, 0, 0, 0, 0, 0, 0, 0, 0, 0, 0, 0, 0, 0, 0, 0, 0, 0, 0, 0, 0, 0, 0, 0, 0, 0, 0, 0, 0, 0, 0, 0, 0, 0, 0, 0, 0, 0, 0, 0, 0, 0, 0, 0, 0, 0, 0, 0, 0, 0, 0, 0, 0, 0, 0, 0, 0, 0, 0, 0], "sum_hessian": [326154.7, 145917.75, 180236.94, 58217.13, 87700.62, 11317.49, 168919.45, 24261.596, 33955.53, 59462.05, 28238.57, 8550.851, 2766.64, 109845.805, 59073.645, 16065.57, 8196.026, 21088.951, 12866.58, 24273.084, 35188.965, 16970.992, 11267.578, 2528.4985, 6022.3516, 254.48444, 2512.1555, 37235.195, 72610.61, 19677.623, 39396.023, 7412.832, 8652.738, 4652.297, 3543.7292, 18359.455, 2729.4946, 5635.5063, 7231.0737, 17419.139, 6853.945, 7021.2793, 28167.688, 10840.739, 6130.2524, 1274.8524, 9992.726, 1173.9159, 1354.5826, 3341.508, 2680.8438, 11.248532, 243.23592, 917.49115, 1594.6643, 19208.574, 18026.621, 26470.172, 46140.438, 5649.7725, 14027.85, 19800.188, 19595.836, 4443.752, 2969.08, 3409.4958, 5243.2427, 4050.9011, 601.3959, 2459.7048, 1084.0245, 3202.084, 15157.372, 1412.7334, 1316.7612, 3951.8733, 1683.633, 5747.963, 1483.111, 7870.5615, 9548.577, 5313.231, 1540.7135, 2058.0344, 4963.245, 9748.009, 18419.678, 5601.662, 5239.0767, 4043.093, 2087.1594, 191.52155, 1083.3308, 5349.2827, 4643.443, 605.2778, 568.6381, 283.60654, 1070.9761, 1038.3165, 2303.1914, 870.152, 1810.6917, 232.1268, 11.109102, 311.8817, 605.60944, 974.38715, 620.2772, 13225.165, 5983.41, 13548.61, 4478.0107, 12302.939, 14167.231, 17667.303, 28473.133, 3583.4177, 2066.3545, 12144.092, 1883.7585, 6343.549, 13456.638, 10997.067, 8598.769], "tree_param": {"num_deleted": "0", "num_feature": "8", "num_nodes": "125", "size_leaf_vector": "1"}}, {"base_weights": [0.0011713349, -0.34692183, 0.12476462, -0.16859424, -0.49465284, -0.1717502, 0.16949677, -0.396135, 0.0014380809, -0.5339247, -0.18730137, -0.29396322, -0.020775996, 0.2981491, 0.09006481, -0.6358509, -0.33211234, -0.31969538, 0.14267339, -0.59649837, -0.3991146, -0.25721315, 0.024599146, -0.17121753, -0.45997173, 0.049289677, -0.07067949, 0.13015851, 0.33334953, -0.026909268, 0.16492292, -0.5777968, -0.6895655, -0.41716024, 0.035614297, -0.4400788, -0.20779933, 0.29189333, 0.025011098, -0.6415595, -0.46019647, -0.59293365, -0.22005388, -0.06502733, -0.45829535, 0.0027787979, 0.32138467, -0.30969357, -0.09862607, -0.6233513, -0.392013, -0.014681113, 0.15854158, -0.16956796, 0.04730756, 0.30325955, -0.08352354, 0.42510763, 0.29046118, 0.07233755, -0.1252073, 0.2779116, 0.05805922, -0.06253218, -0.04597811, -0.06962152, -0.020457713, -0.05025905, -0.023077777, 0.018207913, -0.02224838, -0.027258698, -0.054599296, 0.0037834793, -0.027743781, 0.019363519, 0.037414208, 0.009470261, -0.0067687035, -0.05802641, -0.06740152, -0.025114363, -0.05594493, -0.04499482, -0.06433139, -0.00076942326, -0.03109332, 0.004229126, -0.018401913, -0.05155268, -0.020143408, 0.023729553, -0.0030232843, 0.07899621, 0.01122048, 0.005020036, -0.036237907, 0.009656935, -0.014199599, -0.0068745874, -0.06314166, -0.031491254, -0.058207154, 0.0040101395, -0.01619517, 0.054933783, 0.012519561, -0.011037226, -0.028806766, 0.0028496145, 0.051553693, 0.047749206, 0.022070382, -0.0041782013, -0.036584806, 0.03868981, 0.05220749, 0.013145137, 0.037040915, -0.0062193125, 0.014184276, -0.025105847, -0.005442836, 0.04143172, 0.023609033, 0.00016079313, 0.015339658], "categories": [], "categories_nodes": [], "categories_segments": [], "categories_sizes": [], "default_left": [0, 0, 0, 0, 0, 0, 0, 0, 0, 0, 0, 0, 0, 0, 0, 0, 0, 0, 0, 0, 0, 0, 0, 0, 0, 0, 0, 0, 0, 0, 0, 0, 0, 0, 0, 0, 0, 0, 0, 0, 0, 0, 0, 0, 0, 0, 0, 0, 0, 0, 0, 0, 0, 0, 0, 0, 0, 0, 0, 0, 0, 0, 0, 0, 0, 0, 0, 0, 0, 0, 0, 0, 0, 0, 0, 0, 0, 0, 0, 0, 0, 0, 0, 0, 0, 0, 0, 0, 0, 0, 0, 0, 0, 0, 0, 0, 0, 0, 0, 0, 0, 0, 0, 0, 0, 0, 0, 0, 0, 0, 0, 0, 0, 0, 0, 0, 0, 0, 0, 0, 0, 0, 0, 0, 0, 0, 0], "id": 7, "left_children": [1, 3, 5, 7, 9, 11, 13, 15, 17, 19, 21, 23, 25, 27, 29, 31, 33, 35, 37, 39, 41, 43, 45, 47, 49, 51, 53, 55, 57, 59, 61, 63, 65, 67, 69, 71, 73, 75, 77, 79, 81, 83, 85, 87, 89, 91, 93, 95, 97, 99, 101, 103, 105, 107, 109, 111, 113, 115, 117, 119, 121, 123, 125, -1, -1, -1, -1, -1, -1, -1, -1, -1, -1, -1, -1, -1, -1, -1, -1, -1, -1, -1, -1, -1, -1, -1, -1, -1, -1, -1, -1, -1, -1, -1, -1, -1, -1, -1, -1, -1, -1, -1, -1, -1, -1, -1, -1, -1, -1, -1, -1, -1, -1, -1, -1, -1, -1, -1, -1, -1, -1, -1, -1, -1, -1, -1, -1], "loss_changes": [13867.636, 2224.9883, 3155.1812, 1480.6, 557.45703, 575.34406, 2112.225, 250.97266, 993.4765, 345.26953, 77.56056, 351.06836, 48.783157, 466.5298, 1119.0415, 10.355835, 404.04834, 90.03766, 267.10245, 171.50684, 450.6045, 152.09497, 8.415445, 99.575226, 81.08325, 40.56427, 95.07727, 505.6751, 256.58838, 486.5309, 940.8982, 9.042969, 5.61792, 166.95154, 91.808914, 57.01416, 59.35965, 54.131958, 54.965492, 41.424805, 144.13623, 44.6333, 130.31177, 25.725552, 28.173218, 9.387338, 8.634753, 64.62738, 55.06073, 9.573914, 75.65979, 29.545696, 27.862823, 31.064796, 32.71686, 108.53003, 72.09328, 76.774414, 565.115, 232.05252, 223.16852, 215.98047, 215.54547, 0.0, 0.0, 0.0, 0.0, 0.0, 0.0, 0.0, 0.0, 0.0, 0.0, 0.0, 0.0, 0.0, 0.0, 0.0, 0.0, 0.0, 0.0, 0.0, 0.0, 0.0, 0.0, 0.0, 0.0, 0.0, 0.0, 0.0, 0.0, 0.0, 0.0, 0.0, 0.0, 0.0, 0.0, 0.0, 0.0, 0.0, 0.0, 0.0, 0.0, 0.0, 0.0, 0.0, 0.0, 0.0, 0.0, 0.0, 0.0, 0.0, 0.0, 0.0, 0.0, 0.0, 0.0, 0.0, 0.0, 0.0, 0.0, 0.0, 0.0, 0.0, 0.0, 0.0, 0.0], "parents": [2147483647, 0, 0, 1, 1, 2, 2, 3, 3, 4, 4, 5, 5, 6, 6, 7, 7, 8, 8, 9, 9, 10, 10, 11, 11, 12, 12, 13, 13, 14, 14, 15, 15, 16, 16, 17, 17, 18, 18, 19, 19, 20, 20, 21, 21, 22, 22, 23, 23, 24, 24, 25, 25, 26, 26, 27, 27, 28, 28, 29, 29, 30, 30, 31, 31, 32, 32, 33, 33, 34, 34, 35, 35, 36, 36, 37, 37, 38, 38, 39, 39, 40, 40, 41, 41, 42, 42, 43, 43, 44, 44, 45, 45, 46, 46, 47, 47, 48, 48, 49, 49, 50, 50, 51, 51, 52, 52, 53, 53, 54, 54, 55, 55, 56, 56, 57, 57, 58, 58, 59, 59, 60, 60, 61, 61, 62, 62], "right_children": [2, 4, 6, 8, 10, 12, 14, 16, 18, 20, 22, 24, 26, 28, 30, 32, 34, 36, 38, 40, 42, 44, 46, 48, 50, 52, 54, 56, 58, 60, 62, 64, 66, 68, 70, 72, 74, 76, 78, 80, 82, 84, 86, 88, 90, 92, 94, 96, 98, 100, 102, 104, 106, 108, 110, 112, 114, 116, 118, 120, 122, 124, 126, -1, -1, -1, -1, -1, -1, -1, -1, -1, -1, -1, -1, -1, -1, -1, -1, -1, -1, -1, -1, -1, -1, -1, -1, -1, -1, -1, -1, -1, -1, -1, -1, -1, -1, -1, -1, -1, -1, -1, -1, -1, -1, -1, -1, -1, -1, -1, -1, -1, -1, -1, -1, -1, -1, -1, -1, -1, -1, -1, -1, -1, -1, -1, -1], "split_conditions": [0.8147998, 0.85231435, 1.0, 0.7740679, 0.83508193, 0.8527732, 0.80287325, 1.0, 1.0, 0.7916355, 0.8700519, 0.8811416, 0.89743114, 0.8291458, 0.86701477, 2405.291, 1.0, 0.7937974, 0.8271053, 0.8065498, 1.0, 0.8993995, 0.94147325, 0.82565427, 0.8282631, 1963.0701, 0.88176763, 0.85328496, 0.86684513, 0.8804794, 0.84159756, 1634.9141, 2306.2246, 0.78302985, 0.81788754, 0.82484883, 0.7771062, 0.7937974, 0.7789807, 0.8679768, 0.8754482, 0.86417705, 0.7735232, 0.8875424, 0.86172915, 2085.8462, 2073.3218, 0.8374224, 0.8518168, 0.7756308, 0.90506375, 2304.2112, 0.8661294, 0.9135744, 0.9057753, 0.8303913, 0.8909186, 0.8527732, 0.8657306, 0.83756024, 0.84929156, 0.8905567, 0.90097547, -0.06253218, -0.04597811, -0.06962152, -0.020457713, -0.05025905, -0.023077777, 0.018207913, -0.02224838, -0.027258698, -0.054599296, 0.0037834793, -0.027743781, 0.019363519, 0.037414208, 0.009470261, -0.0067687035, -0.05802641, -0.06740152, -0.025114363, -0.05594493, -0.04499482, -0.06433139, -0.00076942326, -0.03109332, 0.004229126, -0.018401913, -0.05155268, -0.020143408, 0.023729553, -0.0030232843, 0.07899621, 0.01122048, 0.005020036, -0.036237907, 0.009656935, -0.014199599, -0.0068745874, -0.06314166, -0.031491254, -0.058207154, 0.0040101395, -0.01619517, 0.054933783, 0.012519561, -0.011037226, -0.028806766, 0.0028496145, 0.051553693, 0.047749206, 0.022070382, -0.0041782013, -0.036584806, 0.03868981, 0.05220749, 0.013145137, 0.037040915, -0.0062193125, 0.014184276, -0.025105847, -0.005442836, 0.04143172, 0.023609033, 0.00016079313, 0.015339658], "split_indices": [4, 6, 1, 4, 7, 4, 7, 1, 1, 4, 7, 6, 6, 4, 4, 2, 5, 4, 6, 7, 1, 6, 6, 4, 4, 3, 4, 6, 6, 6, 7, 3, 3, 7, 6, 6, 7, 4, 7, 6, 6, 6, 7, 6, 7, 2, 3, 6, 6, 7, 6, 2, 6, 6, 7, 6, 6, 4, 4, 4, 4, 6, 4, 0, 0, 0, 0, 0, 0, 0, 0, 0, 0, 0, 0, 0, 0, 0, 0, 0, 0, 0, 0, 0, 0, 0, 0, 0, 0, 0, 0, 0, 0, 0, 0, 0, 0, 0, 0, 0, 0, 0, 0, 0, 0, 0, 0, 0, 0, 0, 0, 0, 0, 0, 0, 0, 0, 0, 0, 0, 0, 0, 0, 0, 0, 0, 0], "split_type": [0, 0, 0, 0, 0, 0, 0, 0, 0, 0, 0, 0, 0, 0, 0, 0, 0, 0, 0, 0, 0, 0, 0, 0, 0, 0, 0, 0, 0, 0, 0, 0, 0, 0, 0, 0, 0, 0, 0, 0, 0, 0, 0, 0, 0, 0, 0, 0, 0, 0, 0, 0, 0, 0, 0, 0, 0, 0, 0, 0, 0, 0, 0, 0, 0, 0, 0, 0, 0, 0, 0, 0, 0, 0, 0, 0, 0, 0, 0, 0, 0, 0, 0, 0, 0, 0, 0, 0, 0, 0, 0, 0, 0, 0, 0, 0, 0, 0, 0, 0, 0, 0, 0, 0, 0, 0, 0, 0, 0, 0, 0, 0, 0, 0, 0, 0, 0, 0, 0, 0, 0, 0, 0, 0, 0, 0, 0], "sum_hessian": [322336.4, 84459.484, 237876.92, 38267.973, 46191.508, 31181.576, 206695.34, 16365.71, 21902.262, 40957.43, 5234.0786, 17231.666, 13949.911, 78900.71, 127794.64, 3447.7168, 12917.993, 6689.8857, 15212.376, 27970.96, 12986.47, 3935.4514, 1298.6272, 9907.874, 7323.7915, 5802.74, 8147.1704, 13669.428, 65231.28, 49869.176, 77925.46, 1662.5782, 1785.1387, 10491.404, 2426.5884, 3221.3079, 3468.578, 6706.1367, 8506.239, 21018.564, 6952.396, 6235.127, 6751.343, 2012.9155, 1922.5358, 1210.6284, 87.9988, 3406.4453, 6501.4287, 2149.0605, 5174.731, 3660.346, 2142.3943, 4432.077, 3715.0933, 7551.576, 6117.8516, 20775.0, 44456.28, 24814.96, 25054.217, 37876.47, 40048.992, 1182.2058, 480.3725, 1760.564, 24.574636, 7192.811, 3298.5935, 1548.2731, 878.31537, 1249.2802, 1972.0276, 766.2522, 2702.3257, 3057.2078, 3648.929, 4855.6704, 3650.5693, 7282.956, 13735.608, 2239.3218, 4713.074, 1627.1112, 4608.0156, 2023.6715, 4727.6714, 1058.7103, 954.2052, 1571.4034, 351.13235, 148.6218, 1062.0066, 26.302622, 61.69618, 435.00153, 2971.4438, 1181.7024, 5319.7266, 30.940985, 2118.1196, 3683.2246, 1491.5063, 2668.4495, 991.8965, 167.21803, 1975.1764, 2956.9067, 1475.1707, 3572.6218, 142.4715, 2426.2441, 5125.332, 5330.8384, 787.0134, 14906.248, 5868.7524, 14874.598, 29581.684, 8453.298, 16361.663, 9017.595, 16036.621, 8885.697, 28990.77, 25155.123, 14893.87], "tree_param": {"num_deleted": "0", "num_feature": "8", "num_nodes": "127", "size_leaf_vector": "1"}}, {"base_weights": [-0.00041290987, -0.2429552, 0.15889856, -0.438888, -0.06744759, -0.32669207, 0.19465552, -0.24274284, -0.53882265, 0.0018575367, -0.18546025, -0.38017052, 0.017951299, 0.31012052, 0.11494686, -0.33830717, -0.06956384, -0.6034123, -0.42509657, 0.16919234, -0.036836226, -0.2755224, -0.036639914, -0.0247443, -0.43016016, -0.029441684, 0.3756896, 0.21594533, 0.368533, -0.024318356, 0.23014617, -0.4881345, -0.25702745, -0.26206318, 0.08628849, -0.5326195, -0.6468288, -0.11941521, -0.5076586, 0.06830145, 0.27512208, -0.13127565, 0.042215053, -0.18106535, -0.42990044, 0.15987943, -0.06590992, 0.36680862, -0.15103613, -0.61334527, -0.33234602, 0.20015287, -0.08172417, -0.08658453, 0.42260307, 0.3336914, 0.04318249, 0.41903007, 0.2961056, 0.018395383, -0.2552788, 0.28820786, 0.0956542, -0.034464553, -0.05555246, -0.0148313, -0.04316953, -0.028248558, 0.049310155, 0.029591233, -0.0007735554, -0.060299415, -0.044445734, -0.0654866, -0.047513124, 0.030106401, -0.015782533, -0.039209362, -0.058673155, -0.0018338328, 0.02846014, 0.040690783, 0.0179699, -0.009809048, -0.034427073, 0.016873077, -0.0007577368, -0.022887547, -0.0026033276, -0.04767004, -0.024690097, 0.06374629, 0.0113903005, -0.014895855, 0.0031539015, 0.025313143, 0.07076748, -0.04260556, 0.008544036, 0.03341442, -0.062423896, -0.023912514, -0.052795064, -0.024350688, 0.02841851, -0.019549733, 0.0065689893, -0.067302525, 0.04521882, 0.04291402, 0.026680136, 0.0075863823, -0.019612871, 0.048340168, 0.035665393, 0.01607421, 0.036892604, -0.005227558, 0.00966772, -0.040756654, -0.013918365, 0.034125235, 0.023103451, 0.00068807317, 0.02263653], "categories": [], "categories_nodes": [], "categories_segments": [], "categories_sizes": [], "default_left": [0, 0, 0, 0, 0, 0, 0, 0, 0, 0, 0, 0, 0, 0, 0, 0, 0, 0, 0, 0, 0, 0, 0, 0, 0, 0, 0, 0, 0, 0, 0, 0, 0, 0, 0, 0, 0, 0, 0, 0, 0, 0, 0, 0, 0, 0, 0, 0, 0, 0, 0, 0, 0, 0, 0, 0, 0, 0, 0, 0, 0, 0, 0, 0, 0, 0, 0, 0, 0, 0, 0, 0, 0, 0, 0, 0, 0, 0, 0, 0, 0, 0, 0, 0, 0, 0, 0, 0, 0, 0, 0, 0, 0, 0, 0, 0, 0, 0, 0, 0, 0, 0, 0, 0, 0, 0, 0, 0, 0, 0, 0, 0, 0, 0, 0, 0, 0, 0, 0, 0, 0, 0, 0, 0, 0], "id": 8, "left_children": [1, 3, 5, 7, 9, 11, 13, 15, 17, 19, 21, 23, 25, 27, 29, 31, 33, 35, 37, 39, 41, 43, 45, 47, 49, 51, 53, 55, 57, 59, 61, 63, 65, 67, 69, 71, 73, 75, 77, 79, 81, 83, 85, 87, 89, 91, 93, 95, 97, 99, 101, 103, 105, -1, 107, 109, 111, 113, 115, 117, 119, 121, 123, -1, -1, -1, -1, -1, -1, -1, -1, -1, -1, -1, -1, -1, -1, -1, -1, -1, -1, -1, -1, -1, -1, -1, -1, -1, -1, -1, -1, -1, -1, -1, -1, -1, -1, -1, -1, -1, -1, -1, -1, -1, -1, -1, -1, -1, -1, -1, -1, -1, -1, -1, -1, -1, -1, -1, -1, -1, -1, -1, -1, -1, -1], "loss_changes": [12298.914, 4339.218, 3335.7295, 1168.5879, 544.41644, 242.8612, 1646.8062, 333.0608, 289.87793, 271.54013, 330.07678, 202.65588, 30.03542, 401.91406, 1698.3446, 157.81213, 214.77615, 77.075195, 361.10132, 84.15753, 254.29506, 223.64832, 53.42559, 69.657974, 178.97656, 18.79824, 12.436298, 569.0968, 164.8252, 472.79416, 452.38452, 43.903564, 159.63385, 49.533432, 77.980156, 59.176758, 21.228027, 49.218086, 102.72778, 75.62949, 48.239746, 109.669464, 116.80823, 70.559296, 49.754883, 26.366367, 65.42082, 13.133415, 69.297745, 36.12561, 118.78461, 10.899671, 21.399542, 0.0, 6.7989388, 106.10889, 88.70887, 106.5166, 182.60059, 223.76288, 132.18832, 122.64282, 202.72873, 0.0, 0.0, 0.0, 0.0, 0.0, 0.0, 0.0, 0.0, 0.0, 0.0, 0.0, 0.0, 0.0, 0.0, 0.0, 0.0, 0.0, 0.0, 0.0, 0.0, 0.0, 0.0, 0.0, 0.0, 0.0, 0.0, 0.0, 0.0, 0.0, 0.0, 0.0, 0.0, 0.0, 0.0, 0.0, 0.0, 0.0, 0.0, 0.0, 0.0, 0.0, 0.0, 0.0, 0.0, 0.0, 0.0, 0.0, 0.0, 0.0, 0.0, 0.0, 0.0, 0.0, 0.0, 0.0, 0.0, 0.0, 0.0, 0.0, 0.0, 0.0, 0.0], "parents": [2147483647, 0, 0, 1, 1, 2, 2, 3, 3, 4, 4, 5, 5, 6, 6, 7, 7, 8, 8, 9, 9, 10, 10, 11, 11, 12, 12, 13, 13, 14, 14, 15, 15, 16, 16, 17, 17, 18, 18, 19, 19, 20, 20, 21, 21, 22, 22, 23, 23, 24, 24, 25, 25, 26, 26, 27, 27, 28, 28, 29, 29, 30, 30, 31, 31, 32, 32, 33, 33, 34, 34, 35, 35, 36, 36, 37, 37, 38, 38, 39, 39, 40, 40, 41, 41, 42, 42, 43, 43, 44, 44, 45, 45, 46, 46, 47, 47, 48, 48, 49, 49, 50, 50, 51, 51, 52, 52, 54, 54, 55, 55, 56, 56, 57, 57, 58, 58, 59, 59, 60, 60, 61, 61, 62, 62], "right_children": [2, 4, 6, 8, 10, 12, 14, 16, 18, 20, 22, 24, 26, 28, 30, 32, 34, 36, 38, 40, 42, 44, 46, 48, 50, 52, 54, 56, 58, 60, 62, 64, 66, 68, 70, 72, 74, 76, 78, 80, 82, 84, 86, 88, 90, 92, 94, 96, 98, 100, 102, 104, 106, -1, 108, 110, 112, 114, 116, 118, 120, 122, 124, -1, -1, -1, -1, -1, -1, -1, -1, -1, -1, -1, -1, -1, -1, -1, -1, -1, -1, -1, -1, -1, -1, -1, -1, -1, -1, -1, -1, -1, -1, -1, -1, -1, -1, -1, -1, -1, -1, -1, -1, -1, -1, -1, -1, -1, -1, -1, -1, -1, -1, -1, -1, -1, -1, -1, -1, -1, -1, -1, -1, -1, -1], "split_conditions": [1968.2986, 0.82095826, 1.0, 2219.4507, 2290.7017, 0.8517426, 1806.0292, 1701.0012, 0.7893826, 0.8057525, 0.8597312, 0.8209085, 0.8985541, 2194.467, 2361.7295, 0.76772195, 0.752384, 2460.1997, 0.8431649, 1788.5771, 0.8597312, 0.89026797, 0.88526046, 1728.4292, 0.7867405, 0.89680636, 0.91836566, 2311.4048, 0.8891227, 2704.649, 2128.4814, 1954.875, 0.8497294, 0.8860433, 2013.116, 1751.3458, 2053.2805, 0.75475097, 0.86757636, 0.845918, 2085.8462, 0.8964979, 0.83819526, 1986.7535, 1856.4985, 0.8637754, 0.8799254, 2312.858, 2241.6597, 1517.9268, 0.89215434, 0.88592565, 2204.361, -0.08658453, 2056.5166, 2166.227, 2681.121, 2560.1702, 0.88802636, 2184.8765, 2209.427, 0.8933684, 2689.006, -0.034464553, -0.05555246, -0.0148313, -0.04316953, -0.028248558, 0.049310155, 0.029591233, -0.0007735554, -0.060299415, -0.044445734, -0.0654866, -0.047513124, 0.030106401, -0.015782533, -0.039209362, -0.058673155, -0.0018338328, 0.02846014, 0.040690783, 0.0179699, -0.009809048, -0.034427073, 0.016873077, -0.0007577368, -0.022887547, -0.0026033276, -0.04767004, -0.024690097, 0.06374629, 0.0113903005, -0.014895855, 0.0031539015, 0.025313143, 0.07076748, -0.04260556, 0.008544036, 0.03341442, -0.062423896, -0.023912514, -0.052795064, -0.024350688, 0.02841851, -0.019549733, 0.0065689893, -0.067302525, 0.04521882, 0.04291402, 0.026680136, 0.0075863823, -0.019612871, 0.048340168, 0.035665393, 0.01607421, 0.036892604, -0.005227558, 0.00966772, -0.040756654, -0.013918365, 0.034125235, 0.023103451, 0.00068807317, 0.02263653], "split_indices": [0, 4, 5, 2, 2, 7, 3, 0, 4, 7, 4, 6, 7, 0, 0, 4, 4, 2, 6, 0, 4, 6, 6, 3, 7, 6, 6, 2, 6, 2, 3, 2, 6, 7, 2, 0, 3, 7, 6, 4, 2, 6, 7, 3, 0, 6, 4, 0, 0, 3, 6, 6, 0, 0, 0, 2, 2, 2, 4, 0, 0, 6, 0, 0, 0, 0, 0, 0, 0, 0, 0, 0, 0, 0, 0, 0, 0, 0, 0, 0, 0, 0, 0, 0, 0, 0, 0, 0, 0, 0, 0, 0, 0, 0, 0, 0, 0, 0, 0, 0, 0, 0, 0, 0, 0, 0, 0, 0, 0, 0, 0, 0, 0, 0, 0, 0, 0, 0, 0, 0, 0, 0, 0, 0, 0], "split_type": [0, 0, 0, 0, 0, 0, 0, 0, 0, 0, 0, 0, 0, 0, 0, 0, 0, 0, 0, 0, 0, 0, 0, 0, 0, 0, 0, 0, 0, 0, 0, 0, 0, 0, 0, 0, 0, 0, 0, 0, 0, 0, 0, 0, 0, 0, 0, 0, 0, 0, 0, 0, 0, 0, 0, 0, 0, 0, 0, 0, 0, 0, 0, 0, 0, 0, 0, 0, 0, 0, 0, 0, 0, 0, 0, 0, 0, 0, 0, 0, 0, 0, 0, 0, 0, 0, 0, 0, 0, 0, 0, 0, 0, 0, 0, 0, 0, 0, 0, 0, 0, 0, 0, 0, 0, 0, 0, 0, 0, 0, 0, 0, 0, 0, 0, 0, 0, 0, 0, 0, 0, 0, 0, 0, 0], "sum_hessian": [318294.78, 126185.02, 192109.75, 59622.395, 66562.625, 13175.412, 178934.33, 20125.268, 39497.13, 41935.95, 24626.678, 11405.512, 1769.9008, 73075.37, 105858.97, 12968.167, 7157.1016, 25187.71, 14309.417, 7875.2627, 34060.688, 15341.533, 9285.145, 1406.5363, 9998.976, 1563.6649, 206.23581, 27975.963, 45099.406, 47924.05, 57934.914, 4559.1094, 8409.057, 3201.7783, 3955.3232, 9580.114, 15607.597, 3043.4937, 11265.923, 4034.408, 3840.855, 15519.497, 18541.19, 9519.28, 5822.253, 1203.0933, 8082.0513, 342.5612, 1063.9751, 3478.7483, 6520.227, 289.5036, 1274.1614, 6.873619, 199.36218, 16636.482, 11339.48, 26569.854, 18529.553, 40445.074, 7478.9766, 40464.703, 17470.21, 1458.8972, 3100.2124, 5184.216, 3224.8416, 3118.0798, 83.6983, 1224.0942, 2731.2292, 5324.2437, 4255.8706, 14906.981, 700.61523, 254.17523, 2789.3184, 4579.276, 6686.647, 2881.234, 1153.1741, 1611.7101, 2229.1448, 13428.729, 2090.7693, 5235.6733, 13305.517, 7275.2124, 2244.0684, 4635.2397, 1187.013, 104.51996, 1098.5734, 4363.138, 3718.913, 258.19653, 84.36467, 491.5298, 572.44525, 39.204803, 3439.5437, 4417.2734, 2102.9536, 45.79973, 243.70386, 718.9526, 555.20874, 4.669972, 194.69221, 6852.6562, 9783.826, 9977.583, 1361.8972, 13072.455, 13497.397, 6482.553, 12047.0, 21255.998, 19189.076, 3234.1157, 4244.861, 20987.693, 19477.012, 10404.777, 7065.4336], "tree_param": {"num_deleted": "0", "num_feature": "8", "num_nodes": "125", "size_leaf_vector": "1"}}, {"base_weights": [-0.00016145215, -0.3756856, 0.09675509, -0.46912786, -0.13337663, -0.12673993, 0.18186162, -0.3156924, -0.5713384, 0.15080948, -0.26602402, -0.22930467, -0.028013129, 0.28497174, 0.1125938, -0.3757637, -0.1074572, -0.61391234, -0.47789234, -0.12300245, 0.27367067, 0.09848328, -0.30522192, -0.08962412, -0.37994817, 0.109486714, -0.068766594, 0.19049077, 0.35359153, 0.0029738713, 0.2390733, -0.27431566, -0.46625435, -0.23506261, 0.11716292, -0.6436434, -0.5300157, -0.29645947, -0.5843799, 0.3045718, -0.23067573, 0.42598543, 0.20940991, 0.17822449, -0.17463323, -0.39470813, -0.12018594, 0.09860628, -0.16292405, -0.29771557, -0.49192876, 0.24389543, 0.020157777, -0.1290307, 0.021238742, 0.33065334, 0.09164526, 0.4051034, 0.2890728, -0.0798507, 0.0680925, 0.27730134, 0.07770389, -0.035547588, -0.016619122, -0.052434076, -0.029904557, 0.03740639, -0.026168907, 0.021782113, -0.010891511, -0.0598363, -0.066134654, 0.008863318, -0.054501023, -0.008653082, -0.036695015, -0.06232472, -0.03461316, -0.0036845764, 0.045403037, -0.03752797, -0.0035639647, 0.036658157, 0.05021755, 0.013909208, 0.034331333, 0.050536215, 0.012568983, -0.024406042, 0.02011857, -0.049784996, -0.012693857, 0.015684187, -0.018166406, 0.02371218, -0.0023613367, -0.023875313, -0.0063025537, -0.040959235, -0.018494483, -0.056428123, -0.04233521, 0.04730346, 0.021285497, 0.004033265, -0.039682344, -0.0077783028, -0.027474955, 0.013276844, -0.0023365745, 0.040050756, 0.022920849, 0.013454402, -0.0071924827, 0.049158253, 0.036758967, 0.015386204, 0.035971258, -0.0041536535, -0.033543237, 0.016485147, -0.002839932, 0.033443414, 0.023004478, -0.0070998967, 0.01563317], "categories": [], "categories_nodes": [], "categories_segments": [], "categories_sizes": [], "default_left": [0, 0, 0, 0, 0, 0, 0, 0, 0, 0, 0, 0, 0, 0, 0, 0, 0, 0, 0, 0, 0, 0, 0, 0, 0, 0, 0, 0, 0, 0, 0, 0, 0, 0, 0, 0, 0, 0, 0, 0, 0, 0, 0, 0, 0, 0, 0, 0, 0, 0, 0, 0, 0, 0, 0, 0, 0, 0, 0, 0, 0, 0, 0, 0, 0, 0, 0, 0, 0, 0, 0, 0, 0, 0, 0, 0, 0, 0, 0, 0, 0, 0, 0, 0, 0, 0, 0, 0, 0, 0, 0, 0, 0, 0, 0, 0, 0, 0, 0, 0, 0, 0, 0, 0, 0, 0, 0, 0, 0, 0, 0, 0, 0, 0, 0, 0, 0, 0, 0, 0, 0, 0, 0, 0, 0, 0, 0], "id": 9, "left_children": [1, 3, 5, 7, 9, 11, 13, 15, 17, 19, 21, 23, 25, 27, 29, 31, 33, 35, 37, 39, 41, 43, 45, 47, 49, 51, 53, 55, 57, 59, 61, 63, 65, 67, 69, 71, 73, 75, 77, 79, 81, 83, 85, 87, 89, 91, 93, 95, 97, 99, 101, 103, 105, 107, 109, 111, 113, 115, 117, 119, 121, 123, 125, -1, -1, -1, -1, -1, -1, -1, -1, -1, -1, -1, -1, -1, -1, -1, -1, -1, -1, -1, -1, -1, -1, -1, -1, -1, -1, -1, -1, -1, -1, -1, -1, -1, -1, -1, -1, -1, -1, -1, -1, -1, -1, -1, -1, -1, -1, -1, -1, -1, -1, -1, -1, -1, -1, -1, -1, -1, -1, -1, -1, -1, -1, -1, -1], "loss_changes": [11469.358, 1463.6875, 4764.6035, 731.5029, 678.32947, 699.5062, 1295.6475, 233.32288, 111.10449, 192.68187, 175.31128, 712.91174, 197.25696, 472.54395, 1504.5284, 132.78564, 119.787094, 47.632812, 169.24072, 81.76015, 38.60443, 25.989124, 183.36548, 242.6007, 149.9607, 96.62605, 147.28502, 424.90588, 140.22217, 313.54193, 310.7837, 59.86261, 74.15466, 43.31894, 34.485657, 10.983887, 46.78296, 47.989777, 50.94214, 18.252865, 39.978813, 5.1203766, 26.149063, 15.799942, 7.0902805, 206.12659, 61.548084, 83.44013, 95.84671, 118.53729, 33.99939, 22.753479, 40.698757, 121.43344, 54.180088, 89.79358, 126.231964, 75.98462, 179.03125, 250.557, 303.86694, 109.89819, 112.85292, 0.0, 0.0, 0.0, 0.0, 0.0, 0.0, 0.0, 0.0, 0.0, 0.0, 0.0, 0.0, 0.0, 0.0, 0.0, 0.0, 0.0, 0.0, 0.0, 0.0, 0.0, 0.0, 0.0, 0.0, 0.0, 0.0, 0.0, 0.0, 0.0, 0.0, 0.0, 0.0, 0.0, 0.0, 0.0, 0.0, 0.0, 0.0, 0.0, 0.0, 0.0, 0.0, 0.0, 0.0, 0.0, 0.0, 0.0, 0.0, 0.0, 0.0, 0.0, 0.0, 0.0, 0.0, 0.0, 0.0, 0.0, 0.0, 0.0, 0.0, 0.0, 0.0, 0.0, 0.0], "parents": [2147483647, 0, 0, 1, 1, 2, 2, 3, 3, 4, 4, 5, 5, 6, 6, 7, 7, 8, 8, 9, 9, 10, 10, 11, 11, 12, 12, 13, 13, 14, 14, 15, 15, 16, 16, 17, 17, 18, 18, 19, 19, 20, 20, 21, 21, 22, 22, 23, 23, 24, 24, 25, 25, 26, 26, 27, 27, 28, 28, 29, 29, 30, 30, 31, 31, 32, 32, 33, 33, 34, 34, 35, 35, 36, 36, 37, 37, 38, 38, 39, 39, 40, 40, 41, 41, 42, 42, 43, 43, 44, 44, 45, 45, 46, 46, 47, 47, 48, 48, 49, 49, 50, 50, 51, 51, 52, 52, 53, 53, 54, 54, 55, 55, 56, 56, 57, 57, 58, 58, 59, 59, 60, 60, 61, 61, 62, 62], "right_children": [2, 4, 6, 8, 10, 12, 14, 16, 18, 20, 22, 24, 26, 28, 30, 32, 34, 36, 38, 40, 42, 44, 46, 48, 50, 52, 54, 56, 58, 60, 62, 64, 66, 68, 70, 72, 74, 76, 78, 80, 82, 84, 86, 88, 90, 92, 94, 96, 98, 100, 102, 104, 106, 108, 110, 112, 114, 116, 118, 120, 122, 124, 126, -1, -1, -1, -1, -1, -1, -1, -1, -1, -1, -1, -1, -1, -1, -1, -1, -1, -1, -1, -1, -1, -1, -1, -1, -1, -1, -1, -1, -1, -1, -1, -1, -1, -1, -1, -1, -1, -1, -1, -1, -1, -1, -1, -1, -1, -1, -1, -1, -1, -1, -1, -1, -1, -1, -1, -1, -1, -1, -1, -1, -1, -1, -1, -1], "split_conditions": [0.8020244, 2027.567, 1902.3992, 2300.7146, 0.83318174, 0.844491, 1794.9833, 1824.1462, 0.77626324, 0.7320874, 1707.1669, 0.86757636, 0.82353765, 2180.2117, 2423.266, 2080.7246, 0.73782605, 1886.1448, 0.850804, 1743.7498, 0.8024423, 0.8699187, 0.8231334, 0.78795815, 0.8887886, 2100.7793, 0.8765156, 2203.215, 0.88721085, 2171.0466, 2216.4617, 1566.1493, 0.78591025, 1963.652, 1669.9872, 2456.842, 1564.7848, 0.7643516, 1816.0182, 2117.2104, 2312.858, 2423.266, 2400.9714, 1496.1672, 0.82353765, 0.78036684, 0.88208807, 2116.2358, 1539.1713, 0.8291458, 0.82739246, 0.8556831, 0.9150083, 0.90352786, 0.84911704, 1660.2417, 2485.0293, 2425.0398, 0.88690233, 2627.6794, 1976.1777, 0.8909186, 2589.394, -0.035547588, -0.016619122, -0.052434076, -0.029904557, 0.03740639, -0.026168907, 0.021782113, -0.010891511, -0.0598363, -0.066134654, 0.008863318, -0.054501023, -0.008653082, -0.036695015, -0.06232472, -0.03461316, -0.0036845764, 0.045403037, -0.03752797, -0.0035639647, 0.036658157, 0.05021755, 0.013909208, 0.034331333, 0.050536215, 0.012568983, -0.024406042, 0.02011857, -0.049784996, -0.012693857, 0.015684187, -0.018166406, 0.02371218, -0.0023613367, -0.023875313, -0.0063025537, -0.040959235, -0.018494483, -0.056428123, -0.04233521, 0.04730346, 0.021285497, 0.004033265, -0.039682344, -0.0077783028, -0.027474955, 0.013276844, -0.0023365745, 0.040050756, 0.022920849, 0.013454402, -0.0071924827, 0.049158253, 0.036758967, 0.015386204, 0.035971258, -0.0041536535, -0.033543237, 0.016485147, -0.002839932, 0.033443414, 0.023004478, -0.0070998967, 0.01563317], "split_indices": [4, 0, 0, 2, 6, 4, 3, 0, 4, 4, 3, 6, 7, 0, 0, 2, 4, 0, 6, 3, 6, 6, 7, 7, 6, 2, 4, 2, 6, 0, 3, 0, 4, 2, 3, 2, 3, 7, 0, 0, 0, 0, 0, 3, 7, 4, 6, 2, 0, 4, 4, 6, 6, 6, 7, 3, 2, 2, 4, 2, 3, 6, 0, 0, 0, 0, 0, 0, 0, 0, 0, 0, 0, 0, 0, 0, 0, 0, 0, 0, 0, 0, 0, 0, 0, 0, 0, 0, 0, 0, 0, 0, 0, 0, 0, 0, 0, 0, 0, 0, 0, 0, 0, 0, 0, 0, 0, 0, 0, 0, 0, 0, 0, 0, 0, 0, 0, 0, 0, 0, 0, 0, 0, 0, 0, 0, 0], "split_type": [0, 0, 0, 0, 0, 0, 0, 0, 0, 0, 0, 0, 0, 0, 0, 0, 0, 0, 0, 0, 0, 0, 0, 0, 0, 0, 0, 0, 0, 0, 0, 0, 0, 0, 0, 0, 0, 0, 0, 0, 0, 0, 0, 0, 0, 0, 0, 0, 0, 0, 0, 0, 0, 0, 0, 0, 0, 0, 0, 0, 0, 0, 0, 0, 0, 0, 0, 0, 0, 0, 0, 0, 0, 0, 0, 0, 0, 0, 0, 0, 0, 0, 0, 0, 0, 0, 0, 0, 0, 0, 0, 0, 0, 0, 0, 0, 0, 0, 0, 0, 0, 0, 0, 0, 0, 0, 0, 0, 0, 0, 0, 0, 0, 0, 0, 0, 0, 0, 0, 0, 0, 0, 0, 0, 0, 0, 0], "sum_hessian": [315137.88, 64646.83, 250491.03, 46654.42, 17992.408, 69080.61, 181410.44, 18654.666, 27999.754, 5725.6143, 12266.794, 33881.094, 35199.516, 72896.164, 108514.266, 14477.437, 4177.23, 19232.066, 8767.6875, 1773.3888, 3952.2256, 1190.9016, 11075.893, 17581.066, 16300.025, 8047.163, 27152.352, 30670.48, 42225.684, 58132.12, 50382.145, 6827.3735, 7650.0635, 2663.8599, 1513.3701, 14195.012, 5037.055, 3244.134, 5523.553, 356.3766, 1417.0122, 1171.0063, 2781.2192, 922.0424, 268.8592, 7464.711, 3611.182, 4927.4043, 12653.663, 9400.475, 6899.5513, 3212.1995, 4834.9634, 16262.902, 10889.449, 12683.285, 17987.195, 23476.623, 18749.062, 25587.314, 32544.807, 40732.094, 9650.053, 3898.6707, 2928.703, 5676.1113, 1973.9519, 111.020676, 2552.839, 1047.1688, 466.2014, 3999.6423, 10195.369, 119.08019, 4917.975, 816.0574, 2428.0767, 4747.448, 776.10486, 108.736496, 247.6401, 813.1793, 603.8329, 661.2526, 509.75375, 1824.9214, 956.2978, 126.38885, 795.65356, 227.23193, 41.627262, 5388.328, 2076.3823, 655.56683, 2955.615, 2309.2808, 2618.1235, 7192.628, 5461.035, 4717.6206, 4682.854, 3353.8315, 3545.7197, 381.52942, 2830.67, 4612.6904, 222.27332, 12032.679, 4230.224, 3110.3384, 7779.111, 7509.4087, 5173.876, 14250.074, 3737.1208, 7099.1333, 16377.489, 6435.0273, 12314.035, 22252.598, 3334.7173, 16249.554, 16295.253, 18436.475, 22295.62, 3337.7373, 6312.3154], "tree_param": {"num_deleted": "0", "num_feature": "8", "num_nodes": "127", "size_leaf_vector": "1"}}, {"base_weights": [0.00054313225, -0.19719508, 0.16952829, -0.08213433, -0.36353886, -0.2731458, 0.19552386, -0.19054216, 0.05681191, -0.5819071, -0.3065271, -0.3770353, -0.12002978, 0.28734866, 0.112508, -0.46920198, -0.1455756, 0.18284182, -0.04779659, -0.602903, -0.33048233, -0.37446618, -0.14764827, -0.17599383, -0.56993085, 0.14365487, -0.17835172, 0.22594604, 0.33867174, -0.006413471, 0.21713787, -0.5272079, -0.27607706, -0.23062134, -0.03595724, -0.21007401, 0.21215083, -0.28878367, -0.009361216, -0.6468178, -0.5491652, -0.16285709, -0.4700427, -0.4717157, -0.16860694, -0.10118063, -0.3920212, 0.36830732, -0.23036265, -0.6141577, -0.44212714, 0.6596413, 0.09650394, -0.39182064, -0.055931304, 0.35127842, 0.09670423, 0.4487972, 0.29815763, 0.022410488, -0.19274004, 0.26743013, 0.11587971, -0.032158032, -0.055566162, 0.020209659, -0.03353278, -0.029539675, -0.0065521724, 0.006697403, -0.014180084, -0.010609288, -0.059231676, 0.033863433, 0.015188999, -0.04275025, -0.007999162, -0.008087742, 0.0024393483, -0.05801752, -0.06524792, -0.04064813, -0.060187604, 0.007003315, -0.027424121, -0.052538037, 0.05281831, -0.039846946, -0.060047176, -0.004309157, -0.030311957, -0.005738425, -0.017139927, 0.043251496, -0.0415195, 0.0005137014, 0.05228221, -0.03771102, -0.005257001, 0.02710759, -0.06208801, -0.050788313, -0.021799523, -0.058950353, 0.070762284, -0.008320979, 0.020635746, -0.031081779, -0.06454958, 0.0031453033, -0.021575216, 0.040122546, 0.026266336, 0.014323509, -0.008756241, 0.0428787, 0.052928537, 0.016279032, 0.034968656, -0.0028683378, 0.009766799, -0.035880677, -0.012247141, 0.019651337, 0.030720403, 0.0063835154, 0.023795925], "categories": [], "categories_nodes": [], "categories_segments": [], "categories_sizes": [], "default_left": [0, 0, 0, 0, 0, 0, 0, 0, 0, 0, 0, 0, 0, 0, 0, 0, 0, 0, 0, 0, 0, 0, 0, 0, 0, 0, 0, 0, 0, 0, 0, 0, 0, 0, 0, 0, 0, 0, 0, 0, 0, 0, 0, 0, 0, 0, 0, 0, 0, 0, 0, 0, 0, 0, 0, 0, 0, 0, 0, 0, 0, 0, 0, 0, 0, 0, 0, 0, 0, 0, 0, 0, 0, 0, 0, 0, 0, 0, 0, 0, 0, 0, 0, 0, 0, 0, 0, 0, 0, 0, 0, 0, 0, 0, 0, 0, 0, 0, 0, 0, 0, 0, 0, 0, 0, 0, 0, 0, 0, 0, 0, 0, 0, 0, 0, 0, 0, 0, 0, 0, 0, 0, 0, 0, 0, 0, 0], "id": 10, "left_children": [1, 3, 5, 7, 9, 11, 13, 15, 17, 19, 21, 23, 25, 27, 29, 31, 33, 35, 37, 39, 41, 43, 45, 47, 49, 51, 53, 55, 57, 59, 61, 63, 65, 67, 69, 71, 73, 75, 77, 79, 81, 83, 85, 87, 89, 91, 93, 95, 97, 99, 101, 103, 105, 107, 109, 111, 113, 115, 117, 119, 121, 123, 125, -1, -1, -1, -1, -1, -1, -1, -1, -1, -1, -1, -1, -1, -1, -1, -1, -1, -1, -1, -1, -1, -1, -1, -1, -1, -1, -1, -1, -1, -1, -1, -1, -1, -1, -1, -1, -1, -1, -1, -1, -1, -1, -1, -1, -1, -1, -1, -1, -1, -1, -1, -1, -1, -1, -1, -1, -1, -1, -1, -1, -1, -1, -1, -1], "loss_changes": [10433.333, 2753.7397, 1937.4526, 1281.112, 732.21045, 148.50726, 1212.1719, 598.5774, 491.44492, 64.0874, 503.50342, 215.64294, 58.102386, 237.86523, 1039.1959, 74.21338, 383.51117, 194.7453, 188.67053, 26.165771, 21.93238, 654.1084, 158.65488, 80.74231, 15.773865, 16.59089, 80.80515, 556.849, 183.35352, 209.9459, 226.22241, 29.681152, 43.565643, 247.72375, 195.83026, 46.60355, 119.8725, 81.11784, 42.413326, 1.9528809, 37.81555, 11.146388, 28.606873, 209.05518, 177.02155, 36.105927, 42.836792, 13.908775, 64.64969, 12.702881, 10.697586, 3.8421936, 12.42323, 22.959457, 27.475067, 77.1438, 145.14668, 17.583984, 209.677, 130.17929, 61.06909, 83.66821, 93.671585, 0.0, 0.0, 0.0, 0.0, 0.0, 0.0, 0.0, 0.0, 0.0, 0.0, 0.0, 0.0, 0.0, 0.0, 0.0, 0.0, 0.0, 0.0, 0.0, 0.0, 0.0, 0.0, 0.0, 0.0, 0.0, 0.0, 0.0, 0.0, 0.0, 0.0, 0.0, 0.0, 0.0, 0.0, 0.0, 0.0, 0.0, 0.0, 0.0, 0.0, 0.0, 0.0, 0.0, 0.0, 0.0, 0.0, 0.0, 0.0, 0.0, 0.0, 0.0, 0.0, 0.0, 0.0, 0.0, 0.0, 0.0, 0.0, 0.0, 0.0, 0.0, 0.0, 0.0, 0.0], "parents": [2147483647, 0, 0, 1, 1, 2, 2, 3, 3, 4, 4, 5, 5, 6, 6, 7, 7, 8, 8, 9, 9, 10, 10, 11, 11, 12, 12, 13, 13, 14, 14, 15, 15, 16, 16, 17, 17, 18, 18, 19, 19, 20, 20, 21, 21, 22, 22, 23, 23, 24, 24, 25, 25, 26, 26, 27, 27, 28, 28, 29, 29, 30, 30, 31, 31, 32, 32, 33, 33, 34, 34, 35, 35, 36, 36, 37, 37, 38, 38, 39, 39, 40, 40, 41, 41, 42, 42, 43, 43, 44, 44, 45, 45, 46, 46, 47, 47, 48, 48, 49, 49, 50, 50, 51, 51, 52, 52, 53, 53, 54, 54, 55, 55, 56, 56, 57, 57, 58, 58, 59, 59, 60, 60, 61, 61, 62, 62], "right_children": [2, 4, 6, 8, 10, 12, 14, 16, 18, 20, 22, 24, 26, 28, 30, 32, 34, 36, 38, 40, 42, 44, 46, 48, 50, 52, 54, 56, 58, 60, 62, 64, 66, 68, 70, 72, 74, 76, 78, 80, 82, 84, 86, 88, 90, 92, 94, 96, 98, 100, 102, 104, 106, 108, 110, 112, 114, 116, 118, 120, 122, 124, 126, -1, -1, -1, -1, -1, -1, -1, -1, -1, -1, -1, -1, -1, -1, -1, -1, -1, -1, -1, -1, -1, -1, -1, -1, -1, -1, -1, -1, -1, -1, -1, -1, -1, -1, -1, -1, -1, -1, -1, -1, -1, -1, -1, -1, -1, -1, -1, -1, -1, -1, -1, -1, -1, -1, -1, -1, -1, -1, -1, -1, -1, -1, -1, -1], "split_conditions": [2053.2427, 2342.0874, 1.0, 1794.156, 1.0, 0.8157863, 1856.8696, 1.0, 1688.748, 0.8311901, 1843.0688, 0.8518168, 0.87509346, 2312.858, 2423.266, 0.81864536, 1.0, 1.0, 1.0, 0.78257865, 0.90216726, 1969.643, 2681.121, 1653.0857, 0.8033005, 1697.662, 0.84159756, 2345.457, 2530.8284, 2771.8242, 2134.9294, 1899.4384, 0.8637754, 0.83508193, 2026.6355, 0.8743664, 2052.4993, 0.83361083, 1899.6779, 2391.8645, 0.86651117, 2391.8645, 0.8782418, 2615.14, 2690.597, 2485.0293, 1469.4752, 2166.6501, 2298.4438, 1525.7136, 2344.3342, 2174.738, 2189.6304, 0.90771323, 0.9188949, 0.8909186, 2627.6794, 2461.501, 2524.6594, 2271.7686, 2225.1465, 2589.394, 2805.9678, -0.032158032, -0.055566162, 0.020209659, -0.03353278, -0.029539675, -0.0065521724, 0.006697403, -0.014180084, -0.010609288, -0.059231676, 0.033863433, 0.015188999, -0.04275025, -0.007999162, -0.008087742, 0.0024393483, -0.05801752, -0.06524792, -0.04064813, -0.060187604, 0.007003315, -0.027424121, -0.052538037, 0.05281831, -0.039846946, -0.060047176, -0.004309157, -0.030311957, -0.005738425, -0.017139927, 0.043251496, -0.0415195, 0.0005137014, 0.05228221, -0.03771102, -0.005257001, 0.02710759, -0.06208801, -0.050788313, -0.021799523, -0.058950353, 0.070762284, -0.008320979, 0.020635746, -0.031081779, -0.06454958, 0.0031453033, -0.021575216, 0.040122546, 0.026266336, 0.014323509, -0.008756241, 0.0428787, 0.052928537, 0.016279032, 0.034968656, -0.0028683378, 0.009766799, -0.035880677, -0.012247141, 0.019651337, 0.030720403, 0.0063835154, 0.023795925], "split_indices": [0, 2, 5, 0, 5, 7, 3, 5, 3, 7, 0, 6, 6, 0, 0, 7, 1, 5, 5, 7, 6, 3, 2, 3, 7, 3, 7, 2, 2, 2, 3, 2, 6, 7, 2, 6, 2, 7, 0, 2, 6, 2, 7, 2, 2, 2, 3, 0, 0, 3, 0, 2, 0, 6, 6, 6, 2, 0, 0, 0, 0, 0, 0, 0, 0, 0, 0, 0, 0, 0, 0, 0, 0, 0, 0, 0, 0, 0, 0, 0, 0, 0, 0, 0, 0, 0, 0, 0, 0, 0, 0, 0, 0, 0, 0, 0, 0, 0, 0, 0, 0, 0, 0, 0, 0, 0, 0, 0, 0, 0, 0, 0, 0, 0, 0, 0, 0, 0, 0, 0, 0, 0, 0, 0, 0, 0, 0], "split_type": [0, 0, 0, 0, 0, 0, 0, 0, 0, 0, 0, 0, 0, 0, 0, 0, 0, 0, 0, 0, 0, 0, 0, 0, 0, 0, 0, 0, 0, 0, 0, 0, 0, 0, 0, 0, 0, 0, 0, 0, 0, 0, 0, 0, 0, 0, 0, 0, 0, 0, 0, 0, 0, 0, 0, 0, 0, 0, 0, 0, 0, 0, 0, 0, 0, 0, 0, 0, 0, 0, 0, 0, 0, 0, 0, 0, 0, 0, 0, 0, 0, 0, 0, 0, 0, 0, 0, 0, 0, 0, 0, 0, 0, 0, 0, 0, 0, 0, 0, 0, 0, 0, 0, 0, 0, 0, 0, 0, 0, 0, 0, 0, 0, 0, 0, 0, 0, 0, 0, 0, 0, 0, 0, 0, 0, 0, 0], "sum_hessian": [312234.66, 143876.83, 168357.83, 85049.32, 58827.51, 9337.727, 159020.11, 47774.56, 37274.76, 12177.113, 46650.4, 5562.2603, 3775.4663, 75502.95, 83517.15, 6636.7686, 41137.793, 16906.025, 20368.738, 11237.313, 939.80023, 32676.191, 13974.206, 2724.5579, 2837.7024, 683.5487, 3091.9177, 34378.336, 41124.617, 39089.4, 44427.75, 5102.4844, 1534.2842, 23164.705, 17973.086, 1173.1144, 15732.91, 2800.8833, 17567.854, 6177.7725, 5059.5405, 427.95392, 511.8463, 22191.475, 10484.717, 11742.732, 2231.4731, 246.90912, 2477.6487, 2105.339, 732.36316, 56.14521, 627.4035, 1126.0984, 1965.8193, 17452.268, 16926.07, 11057.648, 30066.967, 33853.31, 5236.089, 29683.232, 14744.519, 621.7264, 4480.758, 168.88812, 1365.396, 16636.664, 6528.0415, 9112.089, 8860.998, 923.243, 249.87137, 5075.389, 10657.521, 1682.2018, 1118.6815, 5632.6157, 11935.238, 491.82352, 5685.9487, 1367.2406, 3692.3, 138.57733, 289.3766, 485.41074, 26.435549, 14147.431, 8044.0444, 5424.4326, 5060.284, 7233.137, 4509.595, 60.518696, 2170.9543, 74.00399, 172.90514, 1356.7145, 1120.9342, 15.570905, 2089.7683, 565.2606, 167.10257, 1.6593686, 54.48584, 238.11093, 389.29254, 855.2329, 270.86545, 1271.443, 694.37634, 11159.047, 6293.22, 13513.8, 3412.2708, 8861.029, 2196.619, 8290.868, 21776.1, 20164.104, 13689.205, 1555.604, 3680.4846, 10668.057, 19015.176, 10338.546, 4405.9727], "tree_param": {"num_deleted": "0", "num_feature": "8", "num_nodes": "127", "size_leaf_vector": "1"}}, {"base_weights": [-0.0015430688, -0.35505778, 0.08779157, -0.45679387, -0.14974889, -0.05839379, 0.19057076, -0.32133052, -0.55234635, -0.30096582, 0.067149036, -0.17300433, 0.01831736, 0.2410943, 0.07899032, -0.41291654, -0.21990494, -0.59293735, -0.47116247, -0.3574947, 0.04652347, 0.17497356, -0.24147257, -0.26802474, -0.020721035, 0.090943344, -0.111132644, 0.15207914, 0.29001114, -0.05663459, 0.14254382, -0.5226981, -0.32552493, -0.3344958, 0.014521033, -0.5295766, -0.6200332, -0.30560526, -0.5662894, -0.1666774, -0.41616917, -0.063268214, 0.29724777, 0.2783323, 0.05720263, -0.1567914, -0.3853964, -0.17804933, -0.44116676, -0.03977748, 0.21109873, 0.2489707, 0.046798974, -0.08008528, -0.2956436, 0.31256136, -0.002434249, 0.36691064, 0.22991236, 0.080329135, -0.11594599, 0.20337586, 0.013378577, -0.046558607, -0.060706913, -0.024015253, -0.0516666, -0.037079852, -0.004876969, 0.023039658, -0.010402733, -0.058547, -0.045013633, -0.06299328, -0.056683224, -0.03980653, -0.007069842, -0.060160514, -0.03828335, -0.028044878, -0.0006168258, -0.054633018, -0.027276987, 0.002956471, -0.035322655, 0.024246683, 0.04982524, 0.020597298, 0.036792412, -0.011193591, 0.013781639, -0.07186986, -0.014112124, -0.064216994, -0.028900012, -0.026349265, -0.008458543, -0.05770115, -0.036718667, 1.1524295e-06, -0.018689947, 0.022279603, -0.09356095, 0.037098117, 0.015919352, -0.010112054, 0.0072093955, -0.0184568, -0.0040658647, -0.0059545194, -0.034899663, 0.025240425, 0.03761702, 0.008180919, -0.008833354, 0.033135917, 0.044636652, 0.010729302, 0.031956904, -0.00917478, 0.018351711, -0.008092138, -0.021561278, 0.01418782, 0.030639237, -0.0022230963, 0.019605048], "categories": [], "categories_nodes": [], "categories_segments": [], "categories_sizes": [], "default_left": [0, 0, 0, 0, 0, 0, 0, 0, 0, 0, 0, 0, 0, 0, 0, 0, 0, 0, 0, 0, 0, 0, 0, 0, 0, 0, 0, 0, 0, 0, 0, 0, 0, 0, 0, 0, 0, 0, 0, 0, 0, 0, 0, 0, 0, 0, 0, 0, 0, 0, 0, 0, 0, 0, 0, 0, 0, 0, 0, 0, 0, 0, 0, 0, 0, 0, 0, 0, 0, 0, 0, 0, 0, 0, 0, 0, 0, 0, 0, 0, 0, 0, 0, 0, 0, 0, 0, 0, 0, 0, 0, 0, 0, 0, 0, 0, 0, 0, 0, 0, 0, 0, 0, 0, 0, 0, 0, 0, 0, 0, 0, 0, 0, 0, 0, 0, 0, 0, 0, 0, 0, 0, 0, 0, 0, 0, 0], "id": 11, "left_children": [1, 3, 5, 7, 9, 11, 13, 15, 17, 19, 21, 23, 25, 27, 29, 31, 33, 35, 37, 39, 41, 43, 45, 47, 49, 51, 53, 55, 57, 59, 61, 63, 65, 67, 69, 71, 73, 75, 77, 79, 81, 83, 85, 87, 89, 91, 93, 95, 97, 99, 101, 103, 105, 107, 109, 111, 113, 115, 117, 119, 121, 123, 125, -1, -1, -1, -1, -1, -1, -1, -1, -1, -1, -1, -1, -1, -1, -1, -1, -1, -1, -1, -1, -1, -1, -1, -1, -1, -1, -1, -1, -1, -1, -1, -1, -1, -1, -1, -1, -1, -1, -1, -1, -1, -1, -1, -1, -1, -1, -1, -1, -1, -1, -1, -1, -1, -1, -1, -1, -1, -1, -1, -1, -1, -1, -1, -1], "loss_changes": [9749.188, 1300.6626, 3702.5674, 538.7988, 676.8279, 894.4337, 815.70166, 159.91772, 80.17627, 238.85266, 282.1482, 590.2335, 572.9703, 433.64062, 388.74255, 86.66089, 219.62967, 27.609863, 128.07336, 117.01526, 46.873074, 76.46643, 26.69609, 391.2173, 69.25006, 272.34088, 125.453125, 875.9203, 296.96777, 116.9153, 241.2951, 19.038696, 82.1488, 56.942932, 68.74398, 21.410767, 5.6435547, 64.55936, 33.26831, 44.94037, 149.12561, 31.896084, 5.5888596, 21.616089, 40.0757, 12.083553, 19.926422, 131.98505, 86.1012, 84.78754, 16.180283, 93.315796, 114.19332, 77.232086, 39.71457, 66.20862, 130.24686, 79.49585, 396.6322, 77.245155, 35.03955, 132.21924, 63.969845, 0.0, 0.0, 0.0, 0.0, 0.0, 0.0, 0.0, 0.0, 0.0, 0.0, 0.0, 0.0, 0.0, 0.0, 0.0, 0.0, 0.0, 0.0, 0.0, 0.0, 0.0, 0.0, 0.0, 0.0, 0.0, 0.0, 0.0, 0.0, 0.0, 0.0, 0.0, 0.0, 0.0, 0.0, 0.0, 0.0, 0.0, 0.0, 0.0, 0.0, 0.0, 0.0, 0.0, 0.0, 0.0, 0.0, 0.0, 0.0, 0.0, 0.0, 0.0, 0.0, 0.0, 0.0, 0.0, 0.0, 0.0, 0.0, 0.0, 0.0, 0.0, 0.0, 0.0, 0.0], "parents": [2147483647, 0, 0, 1, 1, 2, 2, 3, 3, 4, 4, 5, 5, 6, 6, 7, 7, 8, 8, 9, 9, 10, 10, 11, 11, 12, 12, 13, 13, 14, 14, 15, 15, 16, 16, 17, 17, 18, 18, 19, 19, 20, 20, 21, 21, 22, 22, 23, 23, 24, 24, 25, 25, 26, 26, 27, 27, 28, 28, 29, 29, 30, 30, 31, 31, 32, 32, 33, 33, 34, 34, 35, 35, 36, 36, 37, 37, 38, 38, 39, 39, 40, 40, 41, 41, 42, 42, 43, 43, 44, 44, 45, 45, 46, 46, 47, 47, 48, 48, 49, 49, 50, 50, 51, 51, 52, 52, 53, 53, 54, 54, 55, 55, 56, 56, 57, 57, 58, 58, 59, 59, 60, 60, 61, 61, 62, 62], "right_children": [2, 4, 6, 8, 10, 12, 14, 16, 18, 20, 22, 24, 26, 28, 30, 32, 34, 36, 38, 40, 42, 44, 46, 48, 50, 52, 54, 56, 58, 60, 62, 64, 66, 68, 70, 72, 74, 76, 78, 80, 82, 84, 86, 88, 90, 92, 94, 96, 98, 100, 102, 104, 106, 108, 110, 112, 114, 116, 118, 120, 122, 124, 126, -1, -1, -1, -1, -1, -1, -1, -1, -1, -1, -1, -1, -1, -1, -1, -1, -1, -1, -1, -1, -1, -1, -1, -1, -1, -1, -1, -1, -1, -1, -1, -1, -1, -1, -1, -1, -1, -1, -1, -1, -1, -1, -1, -1, -1, -1, -1, -1, -1, -1, 